{
    "in_shape": [
        null,
        1
    ],
    "layers": [
        {
            "type": "dense",
            "activation": "",
            "shape": [
                null,
                1
            ],
            "weights": [
                [
                    [
                        0.6052104830741882
                    ]
                ],
                [
                    0.024010950699448586
                ]
            ]
        },
        {
            "type": "dense",
            "activation": "",
            "shape": [
                null,
                4
            ],
            "weights": [
                [
                    [
                        0.24029754102230072,
                        0.2510817348957062,
                        -0.47122690081596375,
                        -0.37501177191734314
                    ]
                ],
                [
                    -0.015481634065508842,
                    -0.013632296584546566,
                    -0.020794620737433434,
                    -0.019896335899829865
                ]
            ]
        },
        {
            "type": "dense",
            "activation": "",
            "shape": [
                null,
                4
            ],
            "weights": [
                [
                    [
                        0.7742009162902832,
                        -0.44475001096725464,
                        -0.6709766983985901,
                        -0.5296564102172852
                    ],
                    [
                        -0.23871073126792908,
                        -0.6553759574890137,
                        0.4920438230037689,
                        0.16470882296562195
                    ],
                    [
                        0.02598041668534279,
                        -0.034149523824453354,
                        -0.19622036814689636,
                        -0.5359468460083008
                    ],
                    [
                        0.2751462757587433,
                        0.30854934453964233,
                        0.6478725075721741,
                        -0.6939084529876709
                    ]
                ],
                [
                    -0.018331924453377724,
                    0.017410021275281906,
                    -0.01847396232187748,
                    0.018365075811743736
                ]
            ]
        },
        {
            "type": "dense",
            "activation": "",
            "shape": [
                null,
                1
            ],
            "weights": [
                [
                    [
                        0.7179485559463501
                    ],
                    [
                        -1.1597930192947388
                    ],
                    [
                        0.7830080389976501
                    ],
                    [
                        -1.002140998840332
                    ]
                ],
                [
                    -0.01789950579404831
                ]
            ]
        }
    ]
}