{
    "in_shape": [
        null,
        1
    ],
    "layers": [
        {
            "type": "dense",
            "activation": "",
            "shape": [
                null,
                1
            ],
            "weights": [
                [
                    [
                        -1.3402414321899414
                    ]
                ],
                [
                    0.03493644297122955
                ]
            ]
        },
        {
            "type": "dense",
            "activation": "",
            "shape": [
                null,
                4
            ],
            "weights": [
                [
                    [
                        -0.7146363258361816,
                        0.8083831667900085,
                        0.6994850039482117,
                        -0.8932530283927917
                    ]
                ],
                [
                    -0.047993797808885574,
                    -0.028499284759163857,
                    0.03143579140305519,
                    -0.029827913269400597
                ]
            ]
        },
        {
            "type": "dense",
            "activation": "",
            "shape": [
                null,
                4
            ],
            "weights": [
                [
                    [
                        0.6142829656600952,
                        -0.6398606300354004,
                        0.9072172045707703,
                        -0.6132646799087524
                    ],
                    [
                        0.31631237268447876,
                        -0.01926705241203308,
                        -0.6610057353973389,
                        -0.9296573996543884
                    ],
                    [
                        -0.4592112600803375,
                        -0.492960125207901,
                        -0.623461127281189,
                        0.19779783487319946
                    ],
                    [
                        0.020263981074094772,
                        0.21901962161064148,
                        -0.517203152179718,
                        -0.6948864459991455
                    ]
                ],
                [
                    -0.029683180153369904,
                    -0.029475197196006775,
                    0.028114955872297287,
                    0.029574492946267128
                ]
            ]
        },
        {
            "type": "dense",
            "activation": "",
            "shape": [
                null,
                1
            ],
            "weights": [
                [
                    [
                        -0.38263654708862305
                    ],
                    [
                        -0.4567294120788574
                    ],
                    [
                        0.393532395362854
                    ],
                    [
                        0.4505436420440674
                    ]
                ],
                [
                    0.029083672910928726
                ]
            ]
        }
    ]
}