{"model_data": {"model": "SimpleRNN", "input_size": 2, "skip": 1, "output_size": 1, "unit_type": "LSTM", "num_layers": 1, "hidden_size": 24, "bias_fl": true}, "state_dict": {"rec.weight_ih_l0": [[0.009925413876771927, 0.03657965734601021], [-0.11318910121917725, 0.139662504196167], [-0.017170893028378487, 0.06202886998653412], [0.006684437394142151, -0.0019463507924228907], [-0.06325460225343704, -0.004985876847058535], [-0.03082207404077053, 0.031103476881980896], [0.001962395152077079, -0.009895017370581627], [0.04247232899069786, 0.04598831757903099], [-0.003038132330402732, 0.006722553633153439], [0.0044508809223771095, 0.051889631897211075], [0.024251047521829605, 0.03265640139579773], [0.07255095988512039, 0.019751451909542084], [-0.005829019006341696, 0.05194250866770744], [0.04507478326559067, 0.03340965136885643], [0.0011217065621167421, 0.06854188442230225], [-0.04004191607236862, 0.3040171265602112], [-0.07145189493894577, 0.14036434888839722], [0.0014548496110364795, 0.060669757425785065], [-0.0646502897143364, 0.056838590651750565], [0.08733826875686646, 0.0673302412033081], [0.009875291958451271, -0.01579744555056095], [0.033057354390621185, 0.04585381969809532], [-0.011968354694545269, -0.14800603687763214], [0.28247857093811035, -0.14861802756786346], [0.0005294125876389444, 0.060813058167696], [-0.19662490487098694, 0.07870234549045563], [-0.08166968077421188, 0.11077133566141129], [0.0072259120643138885, -0.00043262113467790186], [-0.19767357409000397, -0.021081160753965378], [-0.04903203621506691, 0.050800591707229614], [0.017740031704306602, -0.04008276388049126], [0.0546189621090889, 0.08501161634922028], [0.0277619156986475, -0.021269308403134346], [-0.014690185897052288, 0.06473106890916824], [0.023563804104924202, 0.020035380497574806], [0.09509976208209991, 0.05149824172258377], [-0.03765337914228439, 0.0264438483864069], [0.0556989461183548, 0.026125619187951088], [0.03340604901313782, 0.1559225171804428], [0.04343045875430107, 0.11201132088899612], [-0.09948328882455826, 0.05392243713140488], [-0.061628758907318115, 0.1623738706111908], [-0.12907521426677704, 0.11940748989582062], [0.21902571618556976, 0.1082615852355957], [0.02291864901781082, -0.03473002091050148], [0.044122498482465744, 0.06436558067798615], [0.2236378788948059, 0.1491333544254303], [-0.3421025276184082, 0.050064899027347565], [0.1749778538942337, 0.024253373965620995], [0.3609090745449066, 0.008340870961546898], [-0.15068873763084412, 0.12270692735910416], [-0.10947345942258835, -0.009610121138393879], [-0.014135139994323254, -0.01822131872177124], [0.1825203001499176, -0.015664909034967422], [0.10144907236099243, 0.037291087210178375], [-0.13653621077537537, 0.11562136560678482], [-0.4562687873840332, -0.021465705707669258], [0.21099290251731873, -0.0403597354888916], [-0.16752174496650696, -0.03152134642004967], [0.3545229434967041, 0.0371440052986145], [0.0028467560186982155, 0.05378663167357445], [0.14977920055389404, -0.09682055562734604], [0.0630989670753479, 0.3988317549228668], [-0.9288741946220398, 0.029990453273057938], [0.3034360408782959, 0.018544236198067665], [-0.7270139455795288, -0.007264493498951197], [-0.07257460057735443, -0.03636562079191208], [-0.07024029642343521, -0.04801452159881592], [0.1249581128358841, -0.009150777943432331], [0.11680440604686737, -0.0671747699379921], [-0.08364391326904297, -0.0030345094855874777], [0.2946215569972992, -0.021828988566994667], [0.021398795768618584, 0.05113331973552704], [-0.07989565283060074, 0.06558454036712646], [-0.05854283273220062, 0.0908658504486084], [0.006528043188154697, -0.0022377667482942343], [-0.16201388835906982, 0.06492568552494049], [-0.04499416425824165, 0.03649822995066643], [0.009405501186847687, 0.001796013442799449], [0.07261650264263153, 0.03570864349603653], [-0.007214402314275503, -0.040462616831064224], [-0.012226015329360962, 0.06712038069963455], [0.0195790883153677, 0.03218083456158638], [0.17393672466278076, 0.034025464206933975], [-0.04481706768274307, 0.04939810186624527], [0.07969745248556137, 0.029110614210367203], [0.005661914590746164, 0.110916867852211], [0.08045396953821182, 0.09470771253108978], [-0.11034023016691208, 0.08451096713542938], [-0.007892552763223648, -0.0030361292883753777], [-0.07185254245996475, 0.0562959648668766], [0.13114701211452484, 0.09034440666437149], [0.02477591298520565, -0.02989085391163826], [0.0408765934407711, 0.053988050669431686], [0.09520033001899719, 0.01265710685402155], [-0.11463531851768494, -0.037212420254945755]], "rec.weight_hh_l0": [[0.03528774902224541, 0.0019734124653041363, 0.04412566125392914, -0.007984953932464123, -0.014667398296296597, 3.3419997635064647e-05, -0.009455498307943344, -0.013199074193835258, -0.001402527093887329, 0.021227426826953888, -0.016970712691545486, 0.029984114691615105, 0.03351406380534172, 0.012661042623221874, 0.06261560320854187, -0.002435670467093587, -0.00033320122747682035, 0.010023822076618671, -0.011824559420347214, -0.0054886071011424065, 0.007390665356069803, 0.012002727016806602, 0.003783143125474453, 0.00424049561843276], [0.01990010216832161, -0.03650469705462456, 0.10774536430835724, 0.011553590185940266, 0.06770244985818863, -0.0793784037232399, 0.04399627819657326, 0.0766102746129036, -0.0016202112892642617, -0.04760555177927017, 0.05170230194926262, -0.013656978495419025, -0.06773422658443451, -0.04553920030593872, 0.13378824293613434, 0.06237700581550598, -0.10902060568332672, -0.0162100438028574, -0.034894734621047974, -0.02962018921971321, -0.0563841387629509, -0.046627286821603775, 0.06814150512218475, -0.017288165166974068], [0.04985646903514862, -0.04226261004805565, 0.11661722511053085, -0.010036693885922432, -0.04454018920660019, 0.0021284844260662794, -0.010440126061439514, 0.0003284771228209138, 0.011743583716452122, 0.03641466051340103, -0.025240959599614143, 0.05790228769183159, 0.015707379207015038, 0.022542430087924004, 0.08635483682155609, 0.031014636158943176, -0.03889484703540802, -0.02067192830145359, 0.008377732709050179, -0.008156130090355873, 0.004579703789204359, 0.026469813659787178, 0.020251505076885223, 0.03714262694120407], [0.0057029942981898785, 0.004323059227317572, 0.0035005691461265087, -0.0019119215430691838, -0.0033079092390835285, 0.0022503973450511694, -0.0018504116451367736, -0.002718147123232484, -0.0029686512425541878, 0.004760901443660259, -0.0036693192087113857, 0.006660818587988615, 0.0031435599084943533, 0.004415392410010099, 0.006757691968232393, -0.003443788969889283, 0.003028794890269637, -0.0011261638719588518, -0.0014911117032170296, 0.0003341680858284235, 0.0020106530282646418, 0.003991327714174986, 0.001007448765449226, 0.002934978809207678], [0.043170265853405, 0.007087196223437786, 0.060997460037469864, 4.962714956491254e-05, 0.025693068280816078, -0.01667407900094986, -0.013670398853719234, 0.009583965875208378, 0.015060138888657093, 0.010963466949760914, -0.009424673393368721, 0.024768119677901268, 0.0721139907836914, 0.008752589114010334, 0.10309363156557083, -0.03303562477231026, -0.02290722355246544, 0.016113322228193283, 0.019375402480363846, -0.005538980010896921, -8.796448673820123e-05, 0.002966067986562848, -0.0019175868947058916, -0.031480930745601654], [0.0238974466919899, 0.009626961313188076, 0.039267510175704956, 0.00018919917056337, 0.026409728452563286, -0.020792711526155472, 0.004349104594439268, 0.011285902000963688, -0.00479840487241745, -0.005159603897482157, 0.0054174126125872135, 0.010343595407903194, 0.0066069262102246284, -0.003312167478725314, 0.05254211276769638, 0.005094303283840418, -0.014761303551495075, 0.005955255124717951, -0.008716731332242489, -0.00447281077504158, -0.009280393831431866, -0.0063798688352108, 0.013981477357447147, -0.006143030244857073], [0.035134073346853256, 0.0014334942679852247, 0.057382598519325256, -0.009212186560034752, -0.03409098833799362, 0.013557812198996544, -0.025986334308981895, -0.026454510167241096, 0.010963944718241692, 0.031805094331502914, -0.02278154343366623, 0.04098283499479294, 0.032159220427274704, 0.02441946230828762, -0.003711141413077712, 0.01155105885118246, -0.020994624122977257, 0.010729676112532616, -0.013254677876830101, 0.029925936833024025, 0.017311042174696922, 0.027494240552186966, -0.001749315531924367, 0.020054662600159645], [0.0391160249710083, 0.03233644738793373, 0.04632199928164482, -0.013026581145823002, -0.04759104549884796, 0.027032315731048584, -0.0064237345941364765, -0.013180769048631191, -0.009768549352884293, 0.03884367644786835, -0.033100660890340805, 0.04553031921386719, 0.02082977257668972, 0.03376825526356697, 0.03236810117959976, -0.04236263036727905, 0.021722538396716118, -0.0030977907590568066, -0.023751897737383842, -0.012994261458516121, 0.015418055467307568, 0.03431447967886925, 0.010346428491175175, 0.008547870442271233], [0.0546310618519783, 0.03399744629859924, 0.08173202723264694, -0.011785628274083138, 0.0017240341985598207, -0.019189709797501564, -0.00533561734482646, -0.012877563945949078, -0.020918477326631546, 0.008850676007568836, 0.005614685360342264, 0.043171338737010956, -0.00645398860797286, 0.020336676388978958, 0.12330866605043411, -0.004243336617946625, 0.004770015366375446, 0.025684310123324394, -0.05433524772524834, -0.0023731717374175787, -0.002321423962712288, 0.01123342290520668, 0.03629477694630623, 0.0191892609000206], [0.04155277460813522, 0.005854128394275904, 0.052212655544281006, -0.008194775320589542, -0.005809698719531298, 0.0014874901389703155, -0.012051589787006378, -0.009016076102852821, -0.006744456943124533, 0.019164348021149635, -0.02137298882007599, 0.03743536025285721, 0.044253237545490265, 0.019538387656211853, 0.0954350158572197, -0.028932927176356316, -0.0016532500740140676, -0.00497235544025898, -0.019224895164370537, -0.015117056667804718, 0.011150368489325047, 0.015032082796096802, -0.0036259645130485296, -0.0032374411821365356], [0.04120856523513794, 0.022965941578149796, 0.05430528149008751, -0.0095326267182827, -0.01867653988301754, 0.004319158382713795, -0.007891375571489334, -0.003365755546838045, -0.015990599989891052, 0.02189771458506584, -0.020072588697075844, 0.03824196010828018, 0.023259874433279037, 0.020640002563595772, 0.07160139828920364, -0.02949533797800541, -0.001368046272546053, -0.012991991825401783, -0.017165949568152428, -0.011193742975592613, 0.007233689539134502, 0.017485082149505615, 0.003640554379671812, 0.008022422902286053], [0.032500553876161575, 0.026497526094317436, 0.019914155825972557, -0.009962081909179688, -0.035520702600479126, 0.01874302700161934, -0.012189820408821106, -0.012383134104311466, -0.017033008858561516, 0.041143570095300674, -0.029563019052147865, 0.031502917408943176, 0.019399425014853477, 0.021739903837442398, -0.002302594017237425, -0.0553230419754982, 0.03269610553979874, -0.0077802808955311775, -0.011833407916128635, -0.010721476748585701, 0.015096441842615604, 0.02089614048600197, -0.009630903601646423, 0.01796991378068924], [0.039085179567337036, 0.007921846583485603, 0.058205775916576385, -0.013380593620240688, -0.046351414173841476, 0.009344477206468582, -0.0011803132947534323, -0.0021706093102693558, -0.0028447492513805628, 0.027795419096946716, -0.012931055389344692, 0.0594557449221611, 0.0032217269763350487, 0.03212723135948181, 0.06200353801250458, 0.05291387066245079, -0.003372242907062173, 0.024253401905298233, -0.04207237437367439, 0.023774152621626854, 0.008166084066033363, 0.03324517980217934, 0.016974009573459625, 0.031203007325530052], [0.032014355063438416, 0.034313078969717026, 0.030513489618897438, -0.00829085148870945, -0.025929231196641922, 0.010892667807638645, -0.018901079893112183, -0.007521390914916992, -0.012420724146068096, 0.0266964603215456, -0.024816151708364487, 0.03012494184076786, 0.025776557624340057, 0.01802477240562439, 0.02846870943903923, -0.02244277484714985, 0.005976580549031496, -0.02190442942082882, -0.008439457975327969, -0.014707145281136036, 0.01359228789806366, 0.015388725325465202, -0.005745839327573776, 0.010480453260242939], [0.04705480858683586, -0.007818344980478287, 0.08776141703128815, -0.00389096955768764, 0.05795987695455551, -0.039707086980342865, 0.0340614840388298, 0.012085865251719952, -0.024810273200273514, -0.016561906784772873, 0.013739380054175854, 0.02754782885313034, -0.014027783647179604, 0.003613146487623453, 0.11957813799381256, -0.05101645365357399, -0.010867094621062279, 0.003742185654118657, -0.024915896356105804, -0.02898409590125084, -0.013559936545789242, -0.004985748324543238, 0.01870952546596527, -0.005310249514877796], [0.1451665163040161, -0.00911566149443388, 0.2562163472175598, -0.020003529265522957, -0.022957198321819305, -0.04519033432006836, 0.05572086572647095, 0.03805257007479668, 0.030638469383120537, 0.018604854121804237, -0.004634880926460028, 0.09341680258512497, -0.0014968868345022202, 0.01812286116182804, 0.5343788266181946, -0.03869694098830223, -0.009777728468179703, 0.06444164365530014, -0.11141403019428253, -0.1753091812133789, -0.04421449452638626, 0.02177363634109497, 0.13070270419120789, 0.049462802708148956], [0.061156321316957474, 0.023668203502893448, 0.11700253188610077, -0.008753403089940548, -0.008827297016978264, -0.0046325973235070705, -0.007094763685017824, 0.0032597959507256746, 0.022646134719252586, 0.028666524216532707, -0.024456407874822617, 0.04929058626294136, 0.044383157044649124, 0.01947604864835739, 0.1835012286901474, 0.013078459538519382, -0.026943659409880638, 0.052327100187540054, -0.04159223288297653, -0.030600691214203835, -0.004617576487362385, 0.020759079605340958, 0.03525887802243233, -0.024104172363877296], [0.08218711614608765, -0.06549272686243057, 0.15123121440410614, -0.013247815892100334, 0.011800108477473259, -0.025625213980674744, 0.01736600510776043, -0.0177940484136343, 0.00348739349283278, 0.01913459412753582, -0.0007802159525454044, 0.07735434174537659, -0.011709016747772694, 0.029293503612279892, 0.15920379757881165, 0.02492661215364933, -0.02552095055580139, -0.0012664722744375467, -0.015903109684586525, -0.03326922655105591, -0.00536061218008399, 0.02623196318745613, 0.07004565000534058, 0.04572743922472], [0.027330031618475914, -0.03768588602542877, 0.055581070482730865, 0.001727349474094808, 0.0041679758578538895, -0.036622993648052216, 0.02620331197977066, 0.034068409353494644, 0.012684943154454231, -0.02447056770324707, 0.02701118215918541, 0.0048295180313289165, 0.006360082421451807, -0.015544131398200989, 0.06609150767326355, 0.05111053213477135, -0.046334393322467804, 0.04423272982239723, -0.024481024593114853, 0.003075249260291457, -0.026019366458058357, -0.014660811983048916, 0.033386316150426865, 0.00984444934874773], [0.04667242616415024, 0.01663943938910961, 0.04688107967376709, -0.014082841575145721, -0.028577422723174095, 0.004413628485053778, -0.008594618178904057, -0.013670635409653187, -0.023069648072123528, 0.027703510597348213, -0.018931489437818527, 0.05454087257385254, 0.00943389069288969, 0.026156553998589516, 0.029227597638964653, -0.0347784161567688, 0.00911142397671938, -0.05113775283098221, -0.016777651384472847, 0.008062142878770828, 0.009635843336582184, 0.021252939477562904, 0.0026896195486187935, 0.029039232060313225], [0.016347181051969528, 0.007611022796481848, 0.023566020652651787, -0.004818602930754423, -0.011036744341254234, 0.011899979785084724, -0.011430181562900543, -0.018058883026242256, -0.0020170339848846197, 0.023367447778582573, -0.019724708050489426, 0.03250005468726158, 0.00784813892096281, 0.022522859275341034, 0.003523558611050248, 0.007768305018544197, -0.0006116812583059072, -0.00934566743671894, -0.002365519292652607, 0.009533624164760113, 0.01312308944761753, 0.01993120275437832, -0.0011345730163156986, 0.007282671984285116], [0.034018322825431824, 0.03775004670023918, 0.030890975147485733, -0.007752561941742897, -0.014749839901924133, 0.001943254261277616, -0.006404276471585035, 0.0017157770926132798, -0.015453464351594448, 0.016799014061689377, -0.013950767926871777, 0.02490200661122799, 0.024743247777223587, 0.013614212162792683, 0.05338296294212341, -0.0441688671708107, 0.01424116175621748, -0.004164793062955141, -0.01795990765094757, -0.012227481231093407, 0.005785674322396517, 0.011303664185106754, -0.0004213343490846455, 0.0034491352271288633], [-0.022360116243362427, -0.03115958347916603, -0.007126623298972845, 0.0020372529979795218, 0.06356068700551987, -0.05962909385561943, 0.07996713370084763, 0.1009109616279602, 0.00799292977899313, -0.06056734174489975, 0.06464800983667374, -0.03517358377575874, -0.1390048861503601, -0.027647221460938454, -0.05283280089497566, -0.04235311225056648, -0.027098115533590317, 0.06875655800104141, -0.014475514180958271, 0.11750595271587372, -0.07860665023326874, -0.0171748585999012, -0.03073474019765854, -0.0024574710987508297], [-0.00391289172694087, -0.007690028287470341, 0.03501550108194351, -0.020736804232001305, -0.2554558217525482, 0.2173900604248047, -0.029996218159794807, -0.06532379984855652, 0.02732888236641884, 0.08350116014480591, -0.09795175492763519, 0.12025881558656693, -0.039824310690164566, 0.1006704568862915, -0.18142946064472198, 0.07408634573221207, 0.11175954341888428, 0.0015106170903891325, 0.06892309337854385, 0.034841056913137436, 0.02382381446659565, 0.1064191609621048, -0.015090364962816238, -0.13242246210575104], [0.05504656583070755, -0.0036413813941180706, 0.07276236265897751, -0.012316274456679821, -0.03472961485385895, 0.0036082842852920294, -0.018371757119894028, -0.0224225465208292, 0.0022740832064300776, 0.03858759626746178, -0.03076227195560932, 0.05025887116789818, 0.052977267652750015, 0.021440336480736732, 0.09807951003313065, 0.00594403687864542, -0.005896462593227625, 0.017238033935427666, -0.0183120034635067, -0.011227678507566452, 0.013668199069797993, 0.02169206738471985, 0.005862688645720482, 0.009925362654030323], [-0.0009664283134043217, -0.12375655025243759, 0.11157811433076859, 0.013090145774185658, 0.09041193872690201, -0.06432875990867615, 0.02629309520125389, 0.054180748760700226, 0.02867492288351059, -0.02642953395843506, 0.04002680629491806, -0.001931099104695022, -0.10708809643983841, -0.024847691878676414, 0.08489233255386353, 0.1521233767271042, -0.1252843737602234, 0.011530846357345581, 0.008395982906222343, -0.02219909057021141, -0.05010969191789627, -0.024898763746023178, 0.06951555609703064, -0.0179592352360487], [0.07573036104440689, -0.08400800824165344, 0.21425317227840424, -0.010711447335779667, -0.04693126678466797, -0.028582565486431122, 0.003429185599088669, 0.026733946055173874, 0.0283340010792017, 0.037650614976882935, -0.009937661699950695, 0.09341294318437576, -0.004130260087549686, 0.019478145986795425, 0.15349656343460083, 0.09600107371807098, -0.09668077528476715, -0.01701485924422741, 0.002916618948802352, -0.009615507908165455, -0.01879209838807583, 0.028077861294150352, 0.0577491894364357, 0.06303460896015167], [0.006366200745105743, 0.004681807942688465, 0.004528179299086332, -0.0020683594048023224, -0.003538517514243722, 0.002255695406347513, -0.001719691208563745, -0.00260287057608366, -0.003427159273996949, 0.004998561926186085, -0.003991944715380669, 0.007171000353991985, 0.0032096393406391144, 0.004658765625208616, 0.00902976468205452, -0.0037050293758511543, 0.0031583665404468775, -0.0012004106538370252, -0.0024895486421883106, -9.267358836950734e-05, 0.0020275551360100508, 0.004130726680159569, 0.0013007255038246512, 0.003121075453236699], [0.04394220560789108, 0.0035700486041605473, 0.14341497421264648, 0.011451411992311478, 0.11289514601230621, -0.08234454691410065, 0.020952783524990082, 0.037406254559755325, 0.00923149473965168, -0.023866426199674606, 0.038591168820858, 0.0308915376663208, 0.04079079627990723, -0.009130673483014107, 0.23212039470672607, -0.036597371101379395, -0.06981513649225235, 0.012436036951839924, -0.01864621788263321, -0.017970528453588486, -0.027756480500102043, -0.029345043003559113, 0.03492259979248047, -0.06215600669384003], [0.03640405461192131, 0.009956538677215576, 0.06452955305576324, 0.0007867362583056092, 0.038235895335674286, -0.03169464319944382, 0.007061995565891266, 0.017588239163160324, -0.0054855444468557835, -0.007776184473186731, 0.008632944896817207, 0.015512390993535519, 0.008935265243053436, -0.005879666656255722, 0.08947176486253738, 0.013293751515448093, -0.02650519460439682, 0.008770684711635113, -0.014794910326600075, -0.009941374883055687, -0.015217660926282406, -0.010043958202004433, 0.024527890607714653, -0.007712772581726313], [0.06126644089818001, 0.007355182431638241, 0.09248264133930206, -0.0160610880702734, -0.06029544398188591, 0.03158470615744591, -0.060875531286001205, -0.0674034059047699, 0.017362888902425766, 0.06925386935472488, -0.05185169354081154, 0.08240586519241333, 0.05561316758394241, 0.050098199397325516, -0.03347030654549599, 0.024824464693665504, -0.03334100916981697, -0.005998082458972931, -0.01501600630581379, 0.0539870485663414, 0.04266807436943054, 0.05037572607398033, -0.001467259251512587, 0.040076494216918945], [0.0705285519361496, 0.04713848978281021, 0.08803460747003555, -0.022737128660082817, -0.08386752754449844, 0.05117172747850418, -0.023257333785295486, -0.02594797872006893, -0.0077780913561582565, 0.07546601444482803, -0.06434521079063416, 0.08106902241706848, 0.04563496261835098, 0.057880815118551254, 0.059320852160453796, -0.04705071076750755, 0.02876962348818779, -0.005774320103228092, -0.03484954312443733, -0.019788434728980064, 0.0303333792835474, 0.06079775467514992, 0.018617896363139153, 0.025718936696648598], [0.053154878318309784, 0.06097337231040001, 0.0735054686665535, -0.015622896142303944, 0.005348983220756054, -0.016230328008532524, -0.0181356780230999, -0.03779011219739914, -0.036407407373189926, 0.008200223557651043, 0.006714231800287962, 0.047991860657930374, -0.0021694060415029526, 0.028935659676790237, 0.13228283822536469, -0.034395817667245865, 0.04075111448764801, 0.023742379620671272, -0.07227267324924469, 0.006382511928677559, 0.009397883899509907, 0.014279699884355068, 0.025494039058685303, 0.016009850427508354], [0.06755642592906952, -0.00761506287381053, 0.1073763370513916, -0.013458828441798687, -0.025122743099927902, 0.010001540184020996, -0.02872917242348194, -0.026661869138479233, 0.0003316811053082347, 0.04988021031022072, -0.04471813887357712, 0.07951168715953827, 0.06607162207365036, 0.04073566943407059, 0.13893337547779083, -0.0036630446556955576, -0.025146134197711945, -0.0060135372914373875, -0.03082907944917679, -0.019788049161434174, 0.023831140249967575, 0.033550113439559937, 0.00021508417557924986, 0.011564474552869797], [0.06278645992279053, 0.02897254377603531, 0.08767424523830414, -0.015402168035507202, -0.04104008898139, 0.014415541663765907, -0.02199735678732395, -0.018422681838274002, -0.01419262308627367, 0.04487702250480652, -0.038499873131513596, 0.0661933571100235, 0.03749001398682594, 0.03885174170136452, 0.09291005879640579, -0.031458139419555664, -0.007038579322397709, -0.014041871763765812, -0.023987747728824615, -0.008266052231192589, 0.01691177859902382, 0.035629332065582275, 0.006004394963383675, 0.02206762321293354], [0.05592150241136551, 0.04900304228067398, 0.04843486472964287, -0.017064044252038002, -0.04684459790587425, 0.03653682395815849, -0.03805283457040787, -0.03146748244762421, -0.02729158289730549, 0.08533532917499542, -0.06372538954019547, 0.06822708249092102, 0.03471755608916283, 0.04310842975974083, 0.007534879259765148, -0.0858897790312767, 0.04649386554956436, -0.018031956627964973, -0.016134314239025116, -0.023454930633306503, 0.030540896579623222, 0.03956076130270958, -0.021258486434817314, 0.03018942102789879], [0.0753401517868042, 0.0005441835965029895, 0.12552157044410706, -0.022362956777215004, -0.08769490569829941, 0.0180725809186697, -0.034957483410835266, -0.02564345672726631, -0.0033045902382582426, 0.07074226438999176, -0.03550790995359421, 0.1150902733206749, 0.015449454076588154, 0.06070777773857117, 0.058279722929000854, 0.14591987431049347, -0.035772424191236496, 0.017997711896896362, -0.05676344409584999, 0.061186470091342926, 0.02998693659901619, 0.05920477956533432, 0.030989782884716988, 0.07609780132770538], [0.045733317732810974, 0.04260353744029999, 0.0452100895345211, -0.012285415083169937, -0.038526106625795364, 0.020609285682439804, -0.035083457827568054, -0.02306463196873665, -0.01068454422056675, 0.045170191675424576, -0.04115970432758331, 0.05023182928562164, 0.03648113086819649, 0.032638318836688995, 0.026201410219073296, -0.021595768630504608, 0.00412413477897644, -0.029530776664614677, -0.010359739884734154, -0.015586163848638535, 0.02599477954208851, 0.027967005968093872, -0.010904165916144848, 0.018084999173879623], [0.09964296221733093, -0.023833610117435455, 0.18554937839508057, -0.01185473520308733, 0.09631287306547165, -0.06492742151021957, 0.06397635489702225, 0.01723756641149521, -0.05640803650021553, -0.022639334201812744, 0.016018977388739586, 0.07051337510347366, -0.016904935240745544, 0.018602777272462845, 0.2838231325149536, -0.11921661347150803, -0.017460068687796593, -0.004270642530173063, -0.04873356595635414, -0.06843680888414383, -0.016861267387866974, 0.0013968124985694885, 0.03604035824537277, -0.008486399427056313], [0.11876918375492096, -0.05799529701471329, 0.18128065764904022, -0.019838960841298103, 0.01638760231435299, -0.04839461296796799, -0.030283695086836815, -0.0744795873761177, 0.05708030238747597, 0.017586855217814445, 0.01951374113559723, 0.06624578684568405, 0.07597242295742035, 0.03007013536989689, 0.4338899552822113, -0.10626579076051712, -0.04813691973686218, 0.0473206602036953, -0.06845391541719437, -0.2174413949251175, 0.006810674909502268, 0.02479434572160244, 0.058181971311569214, 0.02532123029232025], [0.06371037662029266, -0.10609769821166992, 0.13031594455242157, -0.005910228006541729, -0.05246155336499214, -0.004068231675773859, 0.015965506434440613, 0.02332236059010029, 0.04111260548233986, 0.03349294513463974, -0.027426814660429955, 0.0648946538567543, 0.030437791720032692, 0.019503803923726082, 0.23551428318023682, 0.014648186974227428, -0.06462549418210983, 0.058956146240234375, -0.02413870580494404, -0.02997049130499363, -0.02427031099796295, 0.02677196078002453, 0.06985606998205185, -0.0047973087057471275], [0.04170212894678116, -0.20626665651798248, 0.13691546022891998, -0.004739721771329641, 0.07989944517612457, -0.02305419184267521, 0.022218244150280952, -0.04522496461868286, 0.026578523218631744, -0.014815840870141983, 0.010080053471028805, 0.06041008234024048, -0.026910871267318726, 0.024668021127581596, 0.14564411342144012, 0.129689022898674, -0.06949948519468307, 0.028566066175699234, -0.021541213616728783, -0.027482951059937477, 0.014848013408482075, 0.010081447660923004, 0.047133445739746094, 0.002961848396807909], [0.0392380990087986, -0.0800812616944313, 0.10312144458293915, 0.008596053346991539, 0.04782192409038544, -0.08436930179595947, 0.05332210287451744, 0.062498386949300766, 0.023284411057829857, -0.06582821905612946, 0.06729506701231003, -0.005750907119363546, 0.002327494788914919, -0.040231186896562576, 0.11033401638269424, 0.09989933669567108, -0.09211593866348267, 0.07946401089429855, -0.04184644669294357, 0.008138732984662056, -0.0529637448489666, -0.040789175778627396, 0.055109601467847824, 0.003795898985117674], [0.09186755120754242, 0.06247585639357567, 0.06936174631118774, -0.03407404571771622, -0.07437840104103088, 0.04084591940045357, -0.04317329451441765, -0.06592363119125366, -0.046806253492832184, 0.08336976915597916, -0.06804453581571579, 0.1253671944141388, 0.03778590261936188, 0.07991401106119156, 0.023087147623300552, -0.1018080860376358, 0.05704168230295181, -0.10922782123088837, -0.029340967535972595, 0.013958157040178776, 0.04685055837035179, 0.06634023040533066, -0.019330142065882683, 0.06178513169288635], [0.03317705914378166, 0.012235837057232857, 0.043618910014629364, -0.008743311278522015, -0.03317352384328842, 0.027410518378019333, -0.031773731112480164, -0.03656535968184471, -0.0012105997884646058, 0.05502054840326309, -0.04716799780726433, 0.060904622077941895, 0.018488099798560143, 0.040460050106048584, 0.0009181944187730551, 0.018536334857344627, -0.004190516658127308, -0.022473499178886414, -0.004721326287835836, 0.016891244798898697, 0.026557160541415215, 0.035617049783468246, -0.002100285841152072, 0.01829909346997738], [0.04916254058480263, 0.05335865542292595, 0.045977625995874405, -0.011425452306866646, -0.02338903769850731, 0.0049985903315246105, -0.010169407352805138, 3.800890044658445e-05, -0.020494680851697922, 0.026980111375451088, -0.021710269153118134, 0.03898369148373604, 0.03168867528438568, 0.02220919355750084, 0.07710501551628113, -0.060827262699604034, 0.021212132647633553, -0.0039666141383349895, -0.025776803493499756, -0.017964303493499756, 0.009874261915683746, 0.018610181286931038, -0.0002351568837184459, 0.008848083205521107], [0.1430826187133789, 0.06153504550457001, 0.1733953356742859, -0.03902171552181244, -0.12351293116807938, 0.08869756013154984, -0.10118929296731949, -0.10595417022705078, 0.002534479834139347, 0.16549918055534363, -0.14443553984165192, 0.23513288795948029, 0.036395952105522156, 0.1378457397222519, 0.18221387267112732, 0.13168571889400482, 0.00012473460810724646, -0.06155088171362877, -0.06723418831825256, 0.019808070734143257, 0.07953110337257385, 0.1152649074792862, -0.008425384759902954, 0.07137256115674973], [-0.07218313962221146, 0.027981534600257874, 0.3153866231441498, 0.04237164556980133, 0.29782846570014954, -0.2722916007041931, 0.1564982384443283, 0.20449760556221008, 0.01871403306722641, -0.12509319186210632, 0.21539801359176636, 0.023364387452602386, -0.15750524401664734, -0.0919649675488472, 0.11777463555335999, 0.04585043340921402, -0.15301987528800964, 0.12828049063682556, 0.008713636547327042, 0.04562867060303688, -0.2139052301645279, -0.04837486892938614, 0.08396898955106735, -0.1682271510362625], [0.12041964381933212, 0.014481431804597378, 0.12466815859079361, -0.012231305241584778, -0.03821186348795891, -0.03031509928405285, -0.0395621657371521, -0.01145127322524786, -0.01741822622716427, 0.05530631169676781, -0.02600080519914627, 0.03813258185982704, 0.15529130399227142, -0.0194697342813015, 0.12089591473340988, -0.0395972803235054, -0.036574043333530426, -0.027999384328722954, 0.050044283270835876, -0.010508301667869091, 0.008906358852982521, -0.007542900741100311, -0.018131565302610397, 0.04172786325216293], [0.0998542457818985, 0.4131965935230255, 0.10897252708673477, -0.0008370534051209688, 0.1730804592370987, -0.10290355980396271, 0.03770642727613449, 0.07193440198898315, -0.13287018239498138, -0.08279402554035187, 0.0006235361797735095, -0.011849864386022091, 0.17369671165943146, -0.031898047775030136, -0.0066881501115858555, -0.6152845621109009, -0.042711202055215836, -0.2767787277698517, 0.022432371973991394, -0.004639198072254658, -0.010512121953070164, -0.083450548350811, 0.019210008904337883, -0.122987300157547], [0.06802302598953247, -0.13100171089172363, 0.3035222887992859, -0.015409065410494804, -0.07775610685348511, 0.09030178934335709, -0.04168373718857765, 0.032212018966674805, 0.031296201050281525, 0.0992574542760849, -0.09822942316532135, 0.10548851639032364, 0.1045875996351242, 0.09481129795312881, 0.12565816938877106, 0.01916610263288021, -0.09838230907917023, -0.024543708190321922, 0.1345670074224472, -0.04935762286186218, 0.017118176445364952, 0.08387471735477448, -0.11541972309350967, -0.06112625449895859], [-0.028366755694150925, -0.02155683934688568, -0.013603150844573975, 0.015618933364748955, 0.059944622218608856, -0.030823606997728348, 0.0069583202712237835, 0.02036253549158573, 0.023502560332417488, -0.03457960858941078, 0.03047039359807968, -0.04419361799955368, -0.021010885015130043, -0.031940657645463943, -0.01751273311674595, 0.015756217762827873, -0.025980539619922638, 0.0019831417594105005, 0.03600114956498146, -0.0022178650833666325, -0.021755432710051537, -0.02991519868373871, 0.007018441800028086, -0.029715370386838913], [-0.009244197979569435, -0.03601592406630516, -0.07574287056922913, 0.03596491366624832, 0.2745670974254608, -0.06782665103673935, 0.029719127342104912, 0.014979234896600246, -0.019040698185563087, -0.13958264887332916, 0.0760565847158432, -0.12470199167728424, -0.009474684484302998, -0.07136666029691696, -0.03476457670331001, 0.03216300904750824, -0.043579284101724625, 0.11324258893728256, 0.2413484752178192, 0.027729088440537453, 0.0018604373326525092, -0.10664249211549759, 0.11371311545372009, -0.32166558504104614], [0.06739645451307297, 0.058729395270347595, -0.02767878770828247, -0.03190779685974121, -0.14408829808235168, 0.10920935869216919, -0.09232082217931747, -0.0875357985496521, 0.01644774340093136, 0.1306931972503662, -0.1321362853050232, 0.08393952250480652, 0.06487911939620972, 0.0915951281785965, -0.022100288420915604, -0.018318040296435356, 0.07368189841508865, -0.030171744525432587, -0.012426091358065605, -0.05363970994949341, 0.08225792646408081, 0.08100040256977081, -0.056714221835136414, 0.038584910333156586], [-0.08632870763540268, 0.020893150940537453, 0.022482559084892273, 0.011721910908818245, 0.09748624265193939, -0.07347489893436432, 0.21438853442668915, 0.11229418963193893, -0.06781807541847229, -0.15579622983932495, 0.14573396742343903, -0.08495903015136719, -0.15695388615131378, -0.06591832637786865, 0.0677652657032013, -0.07139494270086288, 0.016949953511357307, 0.07401520758867264, -0.040764305740594864, 0.056178390979766846, -0.1274709552526474, -0.031411003321409225, 0.12308929860591888, 0.0064020417630672455], [-0.06021467596292496, 0.01953008770942688, 0.06769561767578125, 0.0175915639847517, 0.03021007589995861, -0.10784755647182465, 0.13915082812309265, 0.22565270960330963, -0.051476359367370605, -0.09684395790100098, 0.10685908794403076, -0.05282055586576462, -0.09263323992490768, -0.0780632421374321, 0.12536948919296265, 0.002552967518568039, -0.03219669312238693, 0.07062432914972305, -0.030464913696050644, 0.12874670326709747, -0.1547558307647705, -0.04684365540742874, 0.09954309463500977, -0.00356372375972569], [-0.022431371733546257, -0.14750103652477264, -0.026748262345790863, -0.014170706272125244, -0.17670775949954987, 0.10111459344625473, -0.08430853486061096, 0.0024323374964296818, 0.3106233775615692, 0.13243792951107025, -0.14089533686637878, 0.13283812999725342, -0.09541527926921844, 0.07772168517112732, -0.08689752966165543, -0.09892036765813828, 0.05712426081299782, 0.12835830450057983, 0.018564512953162193, -0.1442726105451584, -0.0149840097874403, 0.09129234403371811, -0.040635477751493454, 0.06339385360479355], [0.10413248091936111, 0.04458009451627731, 0.05613880604505539, -0.024075547233223915, -0.11945818364620209, 0.06100139021873474, -0.13181793689727783, -0.08906374126672745, 0.030413096770644188, 0.17505955696105957, -0.14048288762569427, 0.13658151030540466, 0.06175642088055611, 0.06030378118157387, -0.0843045637011528, 0.054108861833810806, -0.013171507976949215, -0.13539819419384003, -0.014943919144570827, -0.10940274596214294, 0.07659543305635452, 0.032648153603076935, -0.03419547528028488, 0.04146441072225571], [-0.10577677935361862, -0.03495822846889496, -0.003982445225119591, 0.021795528009533882, 0.10501125454902649, -0.07883559912443161, 0.1537083387374878, 0.11057113111019135, -0.009504085406661034, -0.1609184294939041, 0.1732349991798401, -0.09566482901573181, -0.11194197088479996, -0.08095309883356094, -0.004472061526030302, -0.042611200362443924, 0.02940266951918602, 0.16122649610042572, 0.018547190353274345, 0.15124745666980743, -0.08569571375846863, -0.03687005117535591, 0.04060037434101105, 0.024954702705144882], [0.0510726124048233, -0.05802496150135994, 0.0779263898730278, -0.02931898832321167, -0.02500968985259533, 0.07827266305685043, -0.020668208599090576, -0.05340735614299774, 0.025423474609851837, 0.076046884059906, -0.06121614947915077, 0.16301573812961578, 0.0027332890313118696, 0.07962456345558167, -0.01419126521795988, 0.11051653325557709, 0.051308535039424896, -0.04361020401120186, 0.06742369383573532, -0.025763025507330894, 0.06291819363832474, 0.022385964170098305, 0.04428756609559059, 0.22174610197544098], [0.16012133657932281, 0.007661336101591587, 0.04023488238453865, 0.03135116770863533, -0.12481693178415298, -0.019383640959858894, -0.11174799501895905, -0.08429544419050217, 0.05572747811675072, 0.05581168085336685, -0.04877374321222305, -0.051974792033433914, 0.40002259612083435, -0.05420517548918724, 0.023413002490997314, -0.07303871959447861, -0.10290304571390152, 0.053031355142593384, 0.11275814473628998, 0.04424503818154335, 0.09285397827625275, 0.005367322359234095, -0.3422200381755829, -0.044550273567438126], [0.08931777626276016, 0.08740223944187164, 0.0022675974760204554, -0.03037234954535961, -0.09842649847269058, 0.09341356158256531, -0.0751241147518158, -0.04019789770245552, -0.016452651470899582, 0.1310424953699112, -0.12372295558452606, 0.13312743604183197, 0.004585480783134699, 0.09466160088777542, -0.015265743248164654, -0.052463430911302567, 0.07212923467159271, -0.13656571507453918, -0.037803951650857925, -0.063349649310112, 0.06276150792837143, 0.07026540488004684, -0.004556592088192701, 0.06716569513082504], [0.07817036658525467, 0.09415554255247116, 0.1316477209329605, 0.020088179036974907, -0.058803826570510864, -0.03444304317235947, 0.05173143371939659, 0.058999739587306976, -0.07119469344615936, 0.0010664386209100485, 0.014961251989006996, -0.10947398096323013, 0.1236613541841507, -0.11367461085319519, 0.4676336944103241, -0.00997864082455635, -0.07440017908811569, 0.058468349277973175, -0.034531887620687485, -0.09511781483888626, -0.027012623846530914, -0.07092376798391342, 0.03356931731104851, 0.03904276341199875], [0.08769071847200394, -0.17081165313720703, 0.12450574338436127, -0.02505510114133358, -0.6998412013053894, 0.21842214465141296, -0.09110451489686966, -0.047766994684934616, 0.4069555699825287, 0.2855640649795532, -0.11470378190279007, 0.18793129920959473, 0.09080208092927933, 0.09644541889429092, -0.029030080884695053, 0.5919346213340759, 0.2664974629878998, 0.5508520603179932, -0.0024766377173364162, 0.177772656083107, -0.04233965650200844, 0.28848764300346375, -0.44730624556541443, 0.44766759872436523], [-0.00521462457254529, 0.2989620864391327, 0.1353788524866104, 0.0008197238785214722, 0.03731114789843559, -0.1204083040356636, 0.10665252804756165, 0.028714561834931374, -0.16758359968662262, -0.029994970187544823, 0.013002444058656693, 0.009573961608111858, -0.011468321084976196, -0.07104292511940002, -0.014177740551531315, -0.5119277834892273, -0.011749213561415672, 0.1575636863708496, -0.017517291009426117, 0.03915739431977272, 0.03579004481434822, -0.0645289346575737, 0.05449092388153076, 0.156218022108078], [-0.06446167826652527, 0.08057188987731934, -0.026406293734908104, -0.03843431919813156, -0.274541974067688, 0.11580570787191391, 0.06411933153867722, 0.03487484157085419, 0.1612929403781891, -0.022291339933872223, -0.05920528247952461, 0.08519949018955231, -0.10814684629440308, 0.09523654729127884, 0.08165246993303299, -0.293878436088562, 0.09888345748186111, 0.3179285228252411, -0.1705641895532608, 0.05785667896270752, -0.00015509121294599026, 0.11353278160095215, 0.058394480496644974, 0.18859630823135376], [-0.03461827337741852, -0.38151535391807556, -0.007040026597678661, 0.03812289983034134, 0.02378721907734871, 0.01569579914212227, -0.08661789447069168, 0.049118731170892715, 0.18439418077468872, 0.08710974454879761, -0.09816879779100418, -0.034591853618621826, -0.0032227530609816313, -0.013001253828406334, -0.19308830797672272, -0.08180698752403259, 0.0669526532292366, -0.050025440752506256, 0.33870071172714233, -0.01744491420686245, -0.03150679171085358, 0.03293716907501221, 0.019176816567778587, -0.19903287291526794], [-0.05640000104904175, 0.059579018503427505, 0.09034617990255356, 0.0061087822541594505, -0.07955146580934525, 0.011743069626390934, 0.011157394386827946, 0.13019269704818726, -0.06245013326406479, -0.04145100712776184, 0.04450307786464691, 0.06260224431753159, 0.08327285200357437, -0.013385680504143238, -0.14652074873447418, 0.01937689445912838, 0.04965493083000183, 0.16622821986675262, 0.02562732994556427, 0.33910468220710754, -0.04146821051836014, 0.06912259012460709, -0.2023172527551651, 0.11611378937959671], [0.12285224348306656, -0.06070409715175629, -0.04306128993630409, -0.0155233358964324, -0.059619832783937454, 0.07738730311393738, -0.13372573256492615, -0.13892649114131927, -0.017624109983444214, 0.12200736999511719, -0.1220734640955925, 0.0075606596656143665, 0.11184217780828476, 0.09015752375125885, -0.09299521148204803, -0.036431439220905304, 0.025769364088773727, -0.10932870209217072, -0.004521953873336315, -0.046699728816747665, 0.12284363061189651, 0.010210463777184486, -0.1034398302435875, -0.050855498760938644], [0.05139071121811867, 0.033612437546253204, 0.0256473571062088, -0.034182701259851456, -0.15635612607002258, 0.13099804520606995, -0.06303857266902924, -0.03311725705862045, 0.032688237726688385, 0.144081249833107, -0.13357116281986237, 0.1212182268500328, 0.022512702271342278, 0.10918235033750534, -0.06165676563978195, -0.05338624492287636, 0.06958416104316711, -0.04146469011902809, 0.014664375223219395, -0.04114542528986931, 0.049839384853839874, 0.11360927671194077, -0.04801707714796066, 0.10460589826107025], [0.07576174288988113, 0.01790393702685833, -0.026949061080813408, 0.018885431811213493, 0.048318855464458466, 0.046357788145542145, 0.14223597943782806, -0.05121854692697525, 0.15103137493133545, -0.03802544251084328, 0.004502378404140472, 0.04427182301878929, -0.11280222982168198, -0.1310969591140747, -0.014686859212815762, 0.20148444175720215, 0.20737633109092712, 0.004434672184288502, 0.0044842679053545, -0.05674610659480095, -0.19306734204292297, 0.04162383824586868, 0.34077388048171997, -0.035043828189373016], [-0.022870441898703575, 0.06301075220108032, 0.1010516956448555, 0.046417392790317535, 0.09132974594831467, -0.08580153435468674, -0.08549591898918152, -0.14780189096927643, 0.04468627646565437, -0.0582006499171257, 0.034171294420957565, 0.27957582473754883, -0.046865399926900864, 0.03337728977203369, -0.016975170001387596, 0.0003122038033325225, -0.03114052675664425, 0.07635163515806198, -0.05119173228740692, 0.034610435366630554, -0.05067695304751396, 0.06296776235103607, 0.0035786291118711233, 0.39260247349739075], [0.056967008858919144, 0.008126499131321907, 0.06569971144199371, -0.015203537419438362, -0.03808283060789108, 0.012635341845452785, -0.021894901990890503, -0.03591914102435112, 0.0018516097916290164, 0.04401690140366554, -0.037305548787117004, 0.05839395523071289, 0.052782099694013596, 0.030822066590189934, 0.09360626339912415, -0.0030916573014110327, 0.013392983004450798, 0.015922214835882187, -0.01861771009862423, -0.015728555619716644, 0.021274957805871964, 0.029597844928503036, 0.003318603616207838, 0.014802875928580761], [0.02051578275859356, -0.08562668412923813, 0.09756472706794739, 0.008558642119169235, 0.04314548894762993, -0.05889562889933586, 0.03143937513232231, 0.07415928691625595, 0.012587301433086395, -0.019776171073317528, 0.03303233161568642, 0.0007180909160524607, -0.05677570775151253, -0.02880273386836052, 0.1358303725719452, -0.013638203963637352, -0.10987826436758041, -0.04563106596469879, 0.015104984864592552, -0.033370260149240494, -0.050952378660440445, -0.023206785321235657, 0.060482993721961975, -0.0003831802459899336], [0.07265862077474594, -0.03579103946685791, 0.1817324161529541, -0.010686556808650494, -5.59988257009536e-05, -0.02561749331653118, 0.004449992906302214, 0.009811223484575748, 0.010261885821819305, 0.029339522123336792, -0.009860849939286709, 0.08281504362821579, 0.011163678020238876, 0.021994521841406822, 0.14695075154304504, 0.03460865467786789, -0.06638504564762115, 0.0050460901111364365, -0.004603814799338579, -0.015883563086390495, -0.006361138075590134, 0.024379277601838112, 0.04419979453086853, 0.04383966699242592], [0.006329858209937811, 0.004659018944948912, 0.004377783741801977, -0.002110918750986457, -0.0041712140664458275, 0.002512526698410511, -0.0020033784676343203, -0.0029158268589526415, -0.00231567258015275, 0.005326921585947275, -0.00416202237829566, 0.00743618980050087, 0.003411643672734499, 0.0048368857242167, 0.007615332491695881, -0.0020018627401441336, 0.003774645971134305, -0.0003102426417171955, -0.0013967710547149181, 0.0004549258155748248, 0.0021199113689363003, 0.004513414576649666, 0.0011147803161293268, 0.003298593917861581], [0.06614590436220169, 0.029578067362308502, 0.13253307342529297, 0.003928523510694504, 0.0643545538187027, -0.05953836068511009, 0.007908247411251068, 0.039441004395484924, 0.01485625933855772, 0.0015857089310884476, 0.01120961643755436, 0.04656282067298889, 0.03786574676632881, -0.0022200567182153463, 0.19666723906993866, -0.03830230236053467, -0.05165678635239601, 0.010472471825778484, -0.033119842410087585, -0.011072136461734772, -0.013002277351915836, -0.011930500157177448, 0.026082584634423256, -0.03669926896691322], [0.031575385481119156, 0.014553307555615902, 0.05205347016453743, 0.0017817808547988534, 0.04219566658139229, -0.03511139377951622, 0.011929737403988838, 0.023073500022292137, -0.009161931462585926, -0.014091555960476398, 0.01579168438911438, 0.010137874633073807, 0.00158620101865381, -0.010567001067101955, 0.06787422299385071, 0.01888998970389366, -0.0252434890717268, -0.0015277817146852612, -0.004617234691977501, -0.0007401293842121959, -0.018745236098766327, -0.014123666100203991, 0.023511869832873344, -0.00850849412381649], [0.04895227402448654, 0.004026790615171194, 0.07989615947008133, -0.011380177922546864, -0.04676707834005356, 0.024117637425661087, -0.04634619131684303, -0.04691660776734352, 0.011315583251416683, 0.052469030022621155, -0.042311009019613266, 0.06069139391183853, 0.04821957275271416, 0.03584306314587593, 0.009170166216790676, 0.025184717029333115, -0.03168340027332306, -0.005292569752782583, -0.02064199559390545, 0.028294431045651436, 0.0322483628988266, 0.0356149822473526, -0.004095317330211401, 0.025033151730895042], [0.044341202825307846, 0.03527648746967316, 0.057249318808317184, -0.0137464739382267, -0.071836456656456, 0.046581778675317764, -0.02235136367380619, -0.029304862022399902, -0.006761923432350159, 0.06334969401359558, -0.05673236772418022, 0.05246745049953461, 0.03223009407520294, 0.04250573366880417, 0.01951502077281475, -0.034646909683942795, 0.02802826277911663, -0.011160380207002163, -0.026058688759803772, -0.014836229383945465, 0.024388309568166733, 0.042050812393426895, 0.008245323784649372, 0.006978920660912991], [0.05365912988781929, 0.029749061912298203, 0.07143861800432205, -0.011512316763401031, -0.0009721255046315491, -0.025366870686411858, -0.0069068255834281445, -0.015553689561784267, -0.020410850644111633, 0.002449252177029848, 0.017300238832831383, 0.040953442454338074, -0.010515349917113781, 0.016973091289401054, 0.1078086644411087, -0.00785255990922451, -0.0026045702397823334, 0.02645861543715, -0.04743921011686325, 0.008613437414169312, -0.00562229985371232, 0.007825848646461964, 0.03939811885356903, 0.028079234063625336], [0.06894434988498688, 0.019913000985980034, 0.08287249505519867, -0.01349633652716875, -0.027539240196347237, 0.016708115115761757, -0.035772182047367096, -0.03295794874429703, -0.0029196757823228836, 0.053374942392110825, -0.04830536991357803, 0.07723895460367203, 0.07503978908061981, 0.04438610002398491, 0.1205020621418953, -0.015171660110354424, -0.010735576041042805, -0.0025952262803912163, -0.026532664895057678, -0.009551896713674068, 0.03478631749749184, 0.03257252275943756, -0.01078825630247593, 0.006774640176445246], [0.05124717578291893, 0.033435575664043427, 0.06675271689891815, -0.011259174905717373, -0.022609831765294075, 0.008125449530780315, -0.0165084395557642, -0.011379876174032688, -0.012899926863610744, 0.033361658453941345, -0.028691651299595833, 0.05248104780912399, 0.02912500500679016, 0.028729397803544998, 0.07136348634958267, -0.025907151401042938, -0.0031206910498440266, -0.01299535483121872, -0.020790135487914085, -0.0061784470453858376, 0.012607131153345108, 0.024347124621272087, -0.0035912657622247934, 0.011677877977490425], [0.07148901373147964, 0.05189092457294464, 0.055242422968149185, -0.02416696585714817, -0.10784648358821869, 0.05637998878955841, -0.04688148573040962, -0.04459978640079498, -0.020600462332367897, 0.11055801063776016, -0.08309496194124222, 0.08777869492769241, 0.058253102004528046, 0.06899956613779068, 0.035914480686187744, -0.0788688063621521, 0.06531067192554474, -0.010069030337035656, -0.021646711975336075, -0.007843508385121822, 0.043421100825071335, 0.06099376454949379, -0.026052847504615784, 0.03862474113702774], [0.05578884482383728, -0.003975094296038151, 0.0931321457028389, -0.014152550138533115, -0.060183413326740265, 0.008757790550589561, -0.02129260078072548, -0.006451212335377932, -0.00195480533875525, 0.048577066510915756, -0.029314745217561722, 0.07581838965415955, 0.014995216391980648, 0.037033043801784515, 0.07272949814796448, 0.10392729938030243, -0.03351512551307678, 0.02500814013183117, -0.04323307052254677, 0.03443913534283638, 0.013681546784937382, 0.036715853959321976, 0.035258807241916656, 0.042413804680109024], [0.04770994931459427, 0.05190274864435196, 0.042773231863975525, -0.012359503656625748, -0.04737201705574989, 0.025613605976104736, -0.03368917852640152, -0.017585359513759613, -0.012417959980666637, 0.04917250946164131, -0.043647412210702896, 0.051933690905570984, 0.03892765939235687, 0.03259088471531868, 0.0256043728441, -0.039107054471969604, 0.010299676097929478, -0.032814282923936844, -0.009788538329303265, -0.00798864010721445, 0.025397343561053276, 0.029322491958737373, -0.014073085971176624, 0.02054894156754017], [0.10844606906175613, -0.007874089293181896, 0.18828155100345612, -0.014984210021793842, 0.04058452695608139, -0.052389781922101974, 0.04142516478896141, 0.012669611722230911, -0.019068095833063126, 0.0009198737097904086, 0.007623187731951475, 0.08165253698825836, -0.0004489711718633771, 0.022626753896474838, 0.24237659573554993, -0.06077604368329048, -0.016691405326128006, 0.011976703070104122, -0.05531018227338791, -0.04791774973273277, -0.01978416182100773, 0.014339210465550423, 0.061044853180646896, 0.014408950693905354], [0.1268685758113861, 0.014737914316356182, 0.22400476038455963, -0.022272566333413124, -0.053482308983802795, -0.031722940504550934, 0.03347199782729149, 0.042474981397390366, 0.03960147872567177, 0.0542854405939579, -0.011882397346198559, 0.11482099443674088, -0.024807164445519447, 0.025981439277529716, 0.28785592317581177, -0.07076378911733627, 0.03361092135310173, -0.042082466185092926, -0.027552716434001923, -0.11229671537876129, -0.029309017583727837, 0.04037715867161751, 0.0934990718960762, 0.09974050521850586], [0.05066884681582451, -0.002951360074803233, 0.13438977301120758, -0.004404897801578045, 0.008685260079801083, -0.018882915377616882, -0.0029564336873590946, -0.009283204562962055, 0.032295674085617065, 0.013215519487857819, -0.005755909252911806, 0.05372994393110275, 0.01208330225199461, 0.014732160605490208, 0.1525622010231018, 0.1612895429134369, -0.07435803860425949, 0.04503574222326279, -0.03293969854712486, -0.004585596267133951, -0.014280171133577824, 0.01349194161593914, 0.06329766660928726, -0.012044239789247513], [0.06415386497974396, -0.08472669869661331, 0.13328194618225098, -0.010891945101320744, 0.033261287957429886, -0.020449195057153702, 0.022442825138568878, -0.029841655865311623, 0.00323193590156734, 0.01613497920334339, -0.0010731711518019438, 0.07498542219400406, -0.04397754743695259, 0.03410002589225769, 0.13487915694713593, 0.03464754670858383, -0.010900098830461502, -0.011279154568910599, -0.006605994421988726, -0.02152620442211628, 0.000287013070192188, 0.025484595447778702, 0.07852412015199661, 0.04270530864596367], [0.02296857349574566, -0.05018238723278046, 0.06290122866630554, 0.003766618901863694, 0.027339214459061623, -0.037910398095846176, 0.029649842530488968, 0.03146060183644295, 0.016310537233948708, -0.025637878105044365, 0.026296768337488174, 0.007676675450056791, -0.008806847035884857, -0.012847683392465115, 0.05752604082226753, 0.06274843215942383, -0.054962482303380966, 0.038841310888528824, -0.023483198136091232, -0.00016716484969947487, -0.026455173268914223, -0.013471109792590141, 0.036359015852212906, 0.0066072396002709866], [0.06618230044841766, 0.030998405069112778, 0.06928406655788422, -0.022026153281331062, -0.049992673099040985, 0.024908363819122314, -0.027378927916288376, -0.04046512022614479, -0.028124578297138214, 0.056975699961185455, -0.047258295118808746, 0.0849163681268692, 0.029695069417357445, 0.05188992992043495, 0.05368529632687569, -0.05453256890177727, 0.017058584839105606, -0.0762251615524292, -0.022130997851490974, -0.01624363102018833, 0.02932790480554104, 0.04500541836023331, -0.011734207160770893, 0.03728017583489418], [0.024680502712726593, 0.0039331368170678616, 0.03443976119160652, -0.005108094774186611, -0.016079695895314217, 0.01813391223549843, -0.023953482508659363, -0.02546790800988674, -0.001387116382829845, 0.04343658313155174, -0.0376494824886322, 0.04836198315024376, 0.012417185120284557, 0.03070482425391674, 0.006999163888394833, 0.020434381440281868, -0.010408089496195316, -0.01715628057718277, -0.0031395787373185158, 0.013415605761110783, 0.020198224112391472, 0.024129705503582954, -2.7573853003559634e-05, 0.007791068404912949], [0.047285616397857666, 0.05727720260620117, 0.04130977392196655, -0.0115513289347291, -0.0324825681746006, 0.009824407286942005, -0.010960346087813377, 0.0018273463938385248, -0.014789199456572533, 0.03031040169298649, -0.023855775594711304, 0.040293652564287186, 0.03498586267232895, 0.022881735116243362, 0.06539633125066757, -0.0610552616417408, 0.02542995661497116, -0.0017611540388315916, -0.021144282072782516, -0.002302642213180661, 0.01010149996727705, 0.021785598248243332, -0.004205705132335424, 0.011601951904594898], [0.04630383476614952, 0.03316480666399002, 0.06125849485397339, -0.011564414016902447, 0.004367312416434288, 0.0053090560249984264, -0.011879118159413338, -0.011095494963228703, -0.03351273760199547, 0.0315079502761364, -0.028091026470065117, 0.06983707845211029, -0.024090876802802086, 0.037239786237478256, 0.02789856307208538, 0.036944929510354996, -0.030503815039992332, -0.053406596183776855, -0.044430702924728394, 0.03367900475859642, 0.008545715361833572, 0.024610521271824837, 0.012110731564462185, 0.0104822451248765], [0.007248121313750744, 0.08763477951288223, 0.07829104363918304, 0.008695409633219242, 0.06315137445926666, -0.09751156717538834, 0.05330764129757881, 0.07141746580600739, 0.005029872991144657, -0.02975265495479107, 0.06982003152370453, 0.0017952226335182786, -0.02136845700442791, -0.02516695111989975, -0.008481807075440884, 0.02824702486395836, -0.03207509592175484, 0.08884304761886597, -0.018207166343927383, 0.0380457378923893, -0.05881894379854202, -0.016550207510590553, 0.022497547790408134, -0.09707143157720566]], "rec.bias_ih_l0": [0.09509395062923431, 0.19474394619464874, 0.13907384872436523, 0.015644971281290054, 0.13487958908081055, 0.09758495539426804, 0.08782953023910522, 0.08194172382354736, 0.20976783335208893, 0.09612356126308441, 0.09719295054674149, 0.07746323943138123, 0.14693328738212585, 0.06796972453594208, 0.20785114169120789, 0.39064574241638184, 0.16437311470508575, 0.3045179545879364, 0.10694091767072678, 0.1176285445690155, 0.053886156529188156, 0.07822566479444504, -0.09396126121282578, -0.3218868672847748, 0.13747619092464447, 0.1628502756357193, 0.30285757780075073, 0.01672200858592987, 0.34348464012145996, 0.1491093635559082, 0.17236334085464478, 0.1761002540588379, 0.19410692155361176, 0.1861039698123932, 0.16042931377887726, 0.20062367618083954, 0.29391634464263916, 0.10112082213163376, 0.39556801319122314, 0.41862764954566956, 0.15101952850818634, 0.16889694333076477, 0.1766115128993988, 0.2095308154821396, 0.09924710541963577, 0.11447707563638687, 0.400890588760376, 0.5703026652336121, 0.16896983981132507, 0.1829870343208313, 0.1632394790649414, -0.03365013003349304, -0.0034311837516725063, -0.10215768963098526, 0.043376702815294266, -0.011576331220567226, -0.02007386088371277, 0.08699542284011841, 0.058525897562503815, 0.1488753706216812, -0.006757602095603943, 0.013702195137739182, -0.004114105831831694, -0.0910022035241127, 0.004827964119613171, -0.061166852712631226, 0.024341030046343803, 0.021135380491614342, -0.04094333201646805, -0.02374052256345749, 0.13325004279613495, 0.12330862879753113, 0.142071932554245, 0.18380780518054962, 0.26887246966362, 0.01679927669465542, 0.30603641271591187, 0.1467331200838089, 0.1271384209394455, 0.12016747146844864, 0.22896456718444824, 0.1777041107416153, 0.14206086099147797, 0.14196817576885223, 0.18890991806983948, 0.09559126198291779, 0.3897967040538788, 0.3827241063117981, 0.19800250232219696, 0.31172436475753784, 0.1029849573969841, 0.1466761976480484, 0.0752345472574234, 0.0938507691025734, 0.1556134819984436, 0.21681097149848938], "rec.bias_hh_l0": [0.0950954332947731, 0.19474034011363983, 0.13896732032299042, 0.015644945204257965, 0.13572034239768982, 0.09758520126342773, 0.08786017447710037, 0.08159802854061127, 0.2098291963338852, 0.09562195092439651, 0.09718574583530426, 0.0829930305480957, 0.1469353586435318, 0.06718708574771881, 0.20785319805145264, 0.39063507318496704, 0.16484209895133972, 0.30446943640708923, 0.106651172041893, 0.11762851476669312, 0.05472661554813385, 0.07821990549564362, -0.11232150346040726, -0.30700719356536865, 0.13748116791248322, 0.1605345904827118, 0.30259135365486145, 0.01672188751399517, 0.3436608910560608, 0.14910988509655, 0.17378009855747223, 0.15477901697158813, 0.1934293657541275, 0.19406048953533173, 0.16015741229057312, 0.1829364150762558, 0.294613242149353, 0.10114245861768723, 0.3955736458301544, 0.3997184634208679, 0.15006791055202484, 0.16609150171279907, 0.17955796420574188, 0.20952989161014557, 0.10623054951429367, 0.1146245002746582, 0.39072418212890625, 0.6079654097557068, 0.11603739112615585, 0.26372480392456055, 0.05604655295610428, -0.018120836466550827, -0.014634198509156704, -0.05391264334321022, 0.058767810463905334, 0.12335148453712463, 0.03909291699528694, -0.05027312785387039, 0.07168200612068176, 0.0048717716708779335, 0.009397567249834538, -0.06336303055286407, -0.04854939877986908, 0.08287998288869858, -0.12164691090583801, -0.07017617672681808, -0.0390285924077034, 0.015375243499875069, -0.08511184900999069, 0.029833253473043442, 0.10635487735271454, 0.001449913950636983, 0.14203232526779175, 0.18520037829875946, 0.2635510265827179, 0.01679755374789238, 0.3081158399581909, 0.1467224657535553, 0.12674380838871002, 0.1049249917268753, 0.22897155582904816, 0.16883710026741028, 0.14185620844364166, 0.1458105444908142, 0.18890324234962463, 0.08637278527021408, 0.3897912800312042, 0.38553857803344727, 0.19298706948757172, 0.3120550215244293, 0.1015237420797348, 0.14667615294456482, 0.07723990082740784, 0.09206593781709671, 0.15528076887130737, 0.22512882947921753], "lin.weight": [[-0.24023914337158203, 0.44058680534362793, 0.015310504473745823, 0.09158769249916077, 0.02952088601887226, -0.13740555942058563, -0.08587473630905151, 0.08423540741205215, 0.4213489592075348, -0.12029434740543365, -0.006508409511297941, -0.21791033446788788, -0.18827280402183533, 0.10543548315763474, -0.03901209309697151, -0.7771843671798706, -0.6222156882286072, 0.4115791618824005, 0.005027067381888628, -0.1789587140083313, -0.028853120282292366, -0.0038590782787650824, 0.10596369206905365, -0.37333807349205017]], "lin.bias": [0.05920173600316048]}}