{"model_data": {"model": "SimpleRNN", "input_size": 2, "skip": true, "output_size": 1, "unit_type": "LSTM", "num_layers": 1, "hidden_size": 12, "bias_fl": true}, "state_dict": {"rec.weight_ih_l0": [[0.009534715674817562, 0.10762463510036469], [-0.658084511756897, -0.26612845063209534], [-1.5346540212631226, -0.1429263800382614], [-0.05641244724392891, 0.1247112825512886], [0.592563807964325, 0.37964144349098206], [0.0715114027261734, -0.14099350571632385], [-0.11899714916944504, 0.3232390284538269], [0.48278531432151794, 0.13121692836284637], [0.3707735240459442, 0.3276430368423462], [-0.29725855588912964, -0.11684148758649826], [0.40691077709198, -0.5186101198196411], [-0.012513509951531887, -0.3315260410308838], [-0.04998515173792839, -0.20569638907909393], [-0.07892371714115143, 0.003237808123230934], [-1.2343851327896118, 0.27289485931396484], [0.019176116213202477, -0.15560030937194824], [0.4011092782020569, -0.18352413177490234], [0.006120086181908846, -0.08176246285438538], [-0.21711771190166473, -0.22288455069065094], [0.5005088448524475, 0.21628201007843018], [0.5483710169792175, 0.12709298729896545], [-0.07167992740869522, -0.03927033022046089], [-1.8402042388916016, 0.5138047337532043], [-0.41674041748046875, 0.16123315691947937], [0.43471401929855347, 0.06765735894441605], [-0.03188285976648331, -0.15170897543430328], [-0.4476679861545563, -0.14651687443256378], [-0.4090878963470459, -0.06409246474504471], [-0.4787169396877289, 0.0013207450974732637], [0.2146652340888977, 0.015690909698605537], [0.021116850897669792, 0.17231443524360657], [0.3774035573005676, -0.035392455756664276], [-0.42479029297828674, -0.15820516645908356], [-0.21081846952438354, -0.05665973201394081], [0.395505428314209, -0.04499376192688942], [0.44170716404914856, -0.054769665002822876], [0.40371641516685486, -0.10236115008592606], [0.8702137470245361, 0.7938888072967529], [-0.9243723750114441, 0.6341320872306824], [0.08759046345949173, -0.29313725233078003], [-0.677505612373352, 0.3157166838645935], [0.10254193842411041, 0.35050418972969055], [-0.31060853600502014, 0.06277032941579819], [0.2967703342437744, 0.4328548014163971], [0.14841602742671967, 0.08295322954654694], [0.22440750896930695, -0.1346677839756012], [-0.25603315234184265, 0.1831056922674179], [0.01959814317524433, 0.36655062437057495]], "rec.weight_hh_l0": [[0.3641536831855774, 0.02024872601032257, 0.09446310251951218, -0.011257725767791271, -0.2834039330482483, 0.1361236423254013, 0.027075910940766335, 0.396094411611557, -0.3862448036670685, -0.0913022980093956, -0.02545783855021, 0.34260764718055725], [0.13096192479133606, 0.05193347483873367, 0.6413401365280151, 0.285515695810318, -0.12219668179750443, 0.05679233372211456, -0.27932751178741455, -0.023883113637566566, 0.029701409861445427, 0.0614602155983448, -0.013067418709397316, -0.42652156949043274], [0.06565623730421066, 0.3251788914203644, 0.8354673981666565, 0.514076292514801, -0.6473113298416138, -0.07611420750617981, -0.11009319871664047, 0.10551767796278, 0.2711692154407501, -0.07208993285894394, 0.14444947242736816, 0.29607051610946655], [0.05986269190907478, 0.017047204077243805, 0.03513486310839653, 0.5048816204071045, -0.13118886947631836, 0.27976471185684204, 0.11217804998159409, 0.07416632026433945, -0.18589536845684052, -0.04871489480137825, 0.0055830227211117744, -0.06790336221456528], [0.08937736600637436, -0.07793223112821579, -1.1688920259475708, -0.16782991588115692, 0.5292074084281921, -0.4639683961868286, 0.03821072354912758, -0.09883543103933334, 0.3732948303222656, -0.1231154054403305, 0.05565731227397919, -0.16040372848510742], [0.17981955409049988, 0.03552161157131195, 0.16196037828922272, -0.11253193020820618, 0.15093350410461426, 0.18978962302207947, -0.001014210283756256, 0.017582008615136147, 0.07364099472761154, 0.09112592786550522, 0.0330362543463707, 0.1318451315164566], [0.24942675232887268, 0.16221313178539276, 0.21679872274398804, -0.03337623178958893, 0.19855771958827972, 0.07430890202522278, -0.13768424093723297, 0.12603844702243805, -0.06590024381875992, -0.17426949739456177, 0.22854521870613098, 0.22626619040966034], [0.08638066053390503, 0.10054454207420349, -0.09503882378339767, -0.19461768865585327, -0.4217064678668976, 0.14322392642498016, -0.07487190514802933, 0.043288085609674454, -0.22108884155750275, -0.002352682873606682, 0.08423673361539841, 0.3427937626838684], [0.3520382344722748, 0.08171788603067398, 0.13301564753055573, -0.03850081190466881, -0.1231774091720581, 0.050680212676525116, 0.038997404277324677, 0.3006017506122589, -0.30822885036468506, -0.0795208066701889, 0.19030964374542236, 0.31426188349723816], [0.17614123225212097, -0.1223393976688385, 0.11615271866321564, -0.25468048453330994, -0.008743738755583763, -0.00012385996524244547, -0.15445935726165771, 0.18767105042934418, -0.07998979836702347, 0.031536445021629333, 0.11558693647384644, 0.279568076133728], [-0.04187372326850891, 0.15644873678684235, 0.11613112688064575, -0.21776297688484192, 0.8545930981636047, 5.7423010730417445e-05, 0.3726176917552948, -0.11060409992933273, 0.43577101826667786, 0.4178532660007477, -0.3648984134197235, 0.5677907466888428], [-0.06304851919412613, -0.5471423268318176, -0.23713496327400208, -0.35371601581573486, 0.2874792814254761, -0.32786303758621216, -0.10855309665203094, -0.04352458193898201, 0.001898748567327857, 0.21237486600875854, -0.20395731925964355, -0.27891841530799866], [0.48861774802207947, 0.10125825554132462, 0.20257052779197693, 0.20299255847930908, -0.38061413168907166, 0.20350633561611176, -0.5355390906333923, 0.10340243577957153, -0.4885428547859192, -0.20002593100070953, 0.2445661872625351, 0.36827602982521057], [0.40373384952545166, 0.09010229259729385, 0.6761924624443054, 0.4004298448562622, -0.08423803001642227, -0.006699011195451021, -0.353442907333374, 0.1797802746295929, -0.23343247175216675, 0.03478499501943588, -0.2937396168708801, -0.5734182000160217], [0.13747313618659973, 0.17932409048080444, 1.0827257633209229, -0.320593923330307, -0.41020122170448303, -0.05379752442240715, -0.09882231056690216, 0.062428973615169525, -0.31860649585723877, 0.0017893122276291251, 0.5845654606819153, 0.5366536974906921], [-0.0978384017944336, 0.07868872582912445, -0.1765250265598297, 0.6320403814315796, -0.31475260853767395, 0.08735354244709015, 0.2646101117134094, 0.25037261843681335, 0.02172185853123665, 0.03131449222564697, 0.3350962698459625, -0.06795424222946167], [0.12721534073352814, 0.3197542130947113, -0.25092941522598267, 0.21730521321296692, 0.3344181478023529, -0.09077300876379013, -0.4631471037864685, 0.11546098440885544, -0.44843822717666626, -0.5021229386329651, 0.43179798126220703, -0.037098031491041183], [0.23389747738838196, -0.01384826097637415, 0.4805421829223633, 0.06961075961589813, 0.07002192735671997, 0.21580128371715546, -0.09181839227676392, 0.16445542871952057, -0.36790546774864197, 0.02513526752591133, 0.18940524756908417, 0.1794089376926422], [-0.027912314981222153, -0.3431897461414337, 0.2935045063495636, 0.6620407104492188, 0.40456780791282654, -0.21114817261695862, -0.23879167437553406, -0.2118854820728302, 0.22922882437705994, -0.06143619492650032, -0.12939825654029846, -0.7009332180023193], [0.4183128774166107, 0.05811196193099022, -0.22363920509815216, -0.10290242731571198, -0.5376328229904175, 0.25407716631889343, 0.07733563333749771, 0.4612824618816376, -0.08661960810422897, -0.22959722578525543, 0.3613010048866272, -0.01616452820599079], [0.5604647994041443, 0.3394690454006195, -0.05834834650158882, -0.10381203144788742, -0.11948727071285248, 0.09614107012748718, -0.09047996997833252, 0.48143988847732544, -0.45486605167388916, -0.005866529885679483, 0.09015355259180069, 0.5012747645378113], [0.2723580598831177, 0.09686663746833801, 0.011048072949051857, -0.10527732223272324, 0.22544634342193604, 0.10788211226463318, -0.18176396191120148, 0.265969455242157, -0.1078166589140892, -0.2051333785057068, 0.25947511196136475, 0.4462774991989136], [1.0387734174728394, 0.7944566011428833, 0.7288984060287476, 0.3203723132610321, 0.8234987258911133, 0.45952722430229187, -0.5440623760223389, 0.9232564568519592, -1.0214245319366455, -0.36650508642196655, 0.7776854038238525, 0.285641610622406], [0.15102334320545197, -0.11585105955600739, -0.13236446678638458, 0.09727999567985535, 0.5925995111465454, -0.05718035623431206, -0.22873808443546295, 0.3795199394226074, -0.41118621826171875, -0.30711042881011963, 0.09691807627677917, -0.04047077149152756], [0.4378257691860199, 0.14127442240715027, 0.009593039751052856, 0.04690241441130638, -0.2710414230823517, 0.3865468204021454, 0.017230907455086708, 0.17734409868717194, -0.4239055812358856, -0.355307012796402, 0.09754517674446106, 0.7305527925491333], [0.0649036094546318, 0.1768469214439392, 0.8557586669921875, 0.4411560595035553, 0.003773587290197611, 0.3353762924671173, 0.27257558703422546, 0.20018543303012848, 0.18817389011383057, -0.0355403907597065, 0.06468983739614487, 1.0278539657592773], [0.2684837281703949, 0.1672888994216919, 0.22872009873390198, 0.15518862009048462, -0.5040810704231262, 0.0030974678229540586, -0.16951750218868256, 0.17591090500354767, -0.07129386812448502, -0.23013150691986084, 0.14561788737773895, 0.11241128295660019], [-0.1646757870912552, 0.4891569912433624, 0.16840948164463043, 0.33559468388557434, -0.3624262511730194, 0.09648170322179794, 0.3102305829524994, 0.3505862057209015, -0.15286296606063843, 0.11856641620397568, -0.21828384697437286, -0.42800599336624146], [-0.048051267862319946, 0.1257653534412384, 0.25011029839515686, -0.191531240940094, -0.04454491659998894, -0.3615730106830597, -0.059882547706365585, -0.30423080921173096, -0.20908184349536896, 0.15118494629859924, 0.026920059695839882, 0.005521014798432589], [0.0153420465067029, -0.054592400789260864, 0.2526330351829529, 0.09167255461215973, -0.2859441041946411, -0.22988532483577728, 0.3703869581222534, 0.059402499347925186, -0.20967064797878265, -0.1594810038805008, 0.14843036234378815, 0.5700758099555969], [-0.49264049530029297, 0.2587767243385315, -0.16475793719291687, 0.2964946925640106, -0.4000106453895569, -0.07033241540193558, 0.03464715927839279, -0.20107437670230865, 0.36150333285331726, -0.1603100597858429, 0.042192865163087845, 0.033827587962150574], [0.13783058524131775, 0.09462488442659378, 0.36667484045028687, -0.10975489765405655, -0.46978917717933655, -0.09032192826271057, 0.27902764081954956, 0.10918740928173065, -0.3964879810810089, 0.08475911617279053, 0.31920570135116577, 0.2945186197757721], [-0.0837755799293518, 0.11834215372800827, -0.2298915982246399, 0.5335314869880676, -0.035212017595767975, -0.04105353727936745, 0.22494344413280487, -0.4160706400871277, 0.16570580005645752, -0.12877021729946136, 0.02688606083393097, -0.9353206753730774], [-0.41660070419311523, 0.06972324103116989, -0.04715811833739281, -0.48176324367523193, -0.05648292973637581, -0.15497064590454102, 0.27000731229782104, -0.2974023222923279, -0.014177254401147366, 0.08698110282421112, -0.5555428266525269, -0.15720224380493164], [0.12498942017555237, 0.15849415957927704, -0.4226287603378296, -0.21256716549396515, -0.1209440529346466, -0.14020082354545593, -0.3236124515533447, 0.3779870271682739, -0.17069289088249207, -0.18903376162052155, 0.4495374262332916, -0.23063962161540985], [0.30377471446990967, 0.27841708064079285, -0.014135229401290417, -0.1435585916042328, -0.02682189829647541, 0.3241446316242218, -0.08581523597240448, -0.07195062935352325, -0.4313024580478668, -0.2558790445327759, 0.10734519362449646, 0.27722591161727905], [0.03891996294260025, 0.2554917633533478, 0.10782989859580994, -0.05248183384537697, -0.1900404989719391, 0.1438392698764801, 0.0817580446600914, 0.46084463596343994, -0.29746440052986145, -0.27088242769241333, -0.07472013682126999, 0.4746111035346985], [0.0987328514456749, -0.423522025346756, 0.07975772023200989, -0.049591753631830215, -0.47728556394577026, -0.11531363427639008, 0.028566770255565643, -0.026681499555706978, -0.11313802748918533, -0.1511860340833664, -0.5922195911407471, -0.14421123266220093], [0.22140756249427795, 0.007056660950183868, 0.7984285354614258, 0.9367480874061584, -1.2353342771530151, 0.1338217407464981, -0.19377689063549042, -0.013278896920382977, -0.2669316530227661, 0.10345522314310074, -0.7430171966552734, 0.5264747738838196], [-0.047654930502176285, 0.18151861429214478, -0.09766878187656403, 0.3814854621887207, -0.32812973856925964, 0.026135951280593872, 0.0409129373729229, 0.08145663142204285, 0.05705362185835838, -0.050346411764621735, 0.4903160035610199, -0.1719427853822708], [0.12719860672950745, 0.3326265811920166, 0.7069201469421387, 0.13319972157478333, -0.08058354258537292, -0.5728211402893066, -0.18576620519161224, 0.2096511423587799, -0.1999158412218094, -0.21228334307670593, 0.15360194444656372, -0.36049923300743103], [0.34715357422828674, 0.2442150115966797, 0.24971723556518555, 0.11930559575557709, 0.13569073379039764, 0.1867547184228897, -0.03823607787489891, 0.07651835680007935, -0.36723628640174866, 0.1802961677312851, -0.09013090282678604, 0.18917948007583618], [0.21880973875522614, -0.08591897040605545, 0.006889117415994406, 0.3046710193157196, 0.3135679364204407, -0.14534372091293335, -0.03145400807261467, 0.09903997927904129, 0.14604555070400238, -0.15202227234840393, 0.08479490131139755, -0.2655753493309021], [0.40929463505744934, -0.03891953453421593, 0.28806063532829285, -0.15739622712135315, -0.26360568404197693, 0.038904860615730286, -0.15838846564292908, 0.4661998748779297, -0.3018585741519928, -0.36671069264411926, 0.4102356433868408, 0.2942652106285095], [0.3606491684913635, 0.278298944234848, 0.15459224581718445, 0.009150378406047821, -0.35375189781188965, 0.09142891317605972, 0.038178637623786926, 0.49121883511543274, -0.49699684977531433, -0.11598441749811172, 0.199520543217659, 0.2965857982635498], [0.16985824704170227, 0.08669018000364304, -0.08391043543815613, -2.1036947146058083e-05, 0.008518827147781849, -0.01563221588730812, 0.1714104264974594, 0.07888485491275787, 0.12270261347293854, -0.17923687398433685, -0.013022053986787796, 0.48486244678497314], [0.17562870681285858, -0.12106100469827652, 0.19002892076969147, 0.18816494941711426, -0.04781803861260414, 0.09737629443407059, -0.04042362794280052, 0.08159268647432327, 0.02251032181084156, 0.19263455271720886, 0.2655160427093506, -0.3152237832546234], [0.4858081042766571, -0.17391546070575714, 0.08850155770778656, -0.0062918150797486305, -0.02905937097966671, -0.05184291675686836, -0.2230156511068344, 0.3629939556121826, -0.188213050365448, -0.4712398648262024, 0.22616896033287048, -0.3152402341365814]], "rec.bias_ih_l0": [0.10648214817047119, 0.10707560926675797, -0.017105184495449066, 0.07328096032142639, 0.055882249027490616, -0.2505815923213959, 0.06826577335596085, -0.2018633782863617, 0.23956270515918732, -0.19939826428890228, -0.8982407450675964, 0.4287516474723816, 0.09979203343391418, 0.03646550327539444, 0.01705138199031353, 0.2549654245376587, 0.7449175119400024, -0.033986374735832214, 0.28918564319610596, 0.3431689441204071, 0.07370787113904953, -0.10838796198368073, 0.6278229355812073, 0.4637341797351837, -0.15403692424297333, 0.02409890852868557, 0.0758114606142044, -0.10956794768571854, -0.06404442340135574, -0.04340606927871704, -0.0607265830039978, 0.03186368569731712, 0.015364192426204681, -0.13205453753471375, -0.12783481180667877, -0.32658106088638306, 0.07877039909362793, -0.1224411129951477, -0.18275101482868195, 0.27704429626464844, 0.4633782207965851, -0.22327828407287598, -0.08690215647220612, 0.060188066214323044, 0.10807643830776215, -0.20491720736026764, 0.045770835131406784, 0.6374689340591431], "rec.bias_hh_l0": [-0.1458398550748825, -0.15898241102695465, -0.29270195960998535, 0.20909149944782257, -0.16356703639030457, -0.11524064093828201, -0.06275714933872223, 0.051036424934864044, 0.185630202293396, 0.2090155929327011, -0.7747612595558167, 0.06049436330795288, 0.4606791138648987, 0.15533564984798431, -0.11677480489015579, 0.29030951857566833, 0.29435792565345764, 0.2212405800819397, 0.38830438256263733, -0.12496577948331833, 0.22660964727401733, 0.017251575365662575, 0.8419104218482971, 0.5949134826660156, -0.04620761796832085, 0.06996224820613861, 0.04532143846154213, 0.21645721793174744, 0.23267127573490143, -0.2060990035533905, 0.005575362127274275, 0.07336635887622833, 0.08566361665725708, 0.18305863440036774, -0.09775317460298538, -0.15151959657669067, 0.012761865742504597, 0.24233871698379517, -0.13791002333164215, 0.20036198198795319, 0.018572943285107613, -0.15028810501098633, -0.11425657570362091, 0.12999190390110016, 0.4879835546016693, 0.016368046402931213, 0.17249992489814758, 0.3435107171535492], "lin.weight": [[0.20299863815307617, -0.4312572479248047, -0.8869580626487732, -0.20322565734386444, 0.9998530745506287, 0.29299890995025635, -0.17243997752666473, 0.009571532718837261, -0.017357507720589638, -0.7173749804496765, -0.47737762331962585, -0.0606754869222641]], "lin.bias": [0.22083958983421326]}}