{"model_data": {"model": "SimpleRNN", "input_size": 2, "skip": 1, "output_size": 1, "unit_type": "LSTM", "num_layers": 1, "hidden_size": 24, "bias_fl": true}, "state_dict": {"rec.weight_ih_l0": [[-0.2693435549736023, -0.23845210671424866], [-0.1365969330072403, 0.11192542314529419], [-0.15422984957695007, -0.14284579455852509], [-0.14791445434093475, -0.018089348450303078], [-0.31315216422080994, -0.061966944485902786], [-0.20479802787303925, 0.02916019782423973], [-0.09788935631513596, -0.1496763974428177], [0.04102439060807228, -0.014303816482424736], [0.10884711891412735, 0.09824099391698837], [-0.00655038096010685, -0.2310260683298111], [0.07900664955377579, -0.1223316341638565], [-0.075379379093647, -0.05487699806690216], [0.19968917965888977, 0.01466305647045374], [0.10436595231294632, 0.09549003094434738], [-0.13450320065021515, -0.11863170564174652], [0.12383710592985153, -0.003826768370345235], [0.08400467038154602, 0.14788059890270233], [0.3073740303516388, 0.0678301602602005], [0.005315092857927084, 0.237340047955513], [-0.13730618357658386, 0.019108762964606285], [0.0683794617652893, 0.027248090133070946], [-0.22118151187896729, -0.19254302978515625], [-0.18404936790466309, -0.07267751544713974], [0.07252007722854614, 0.011604265309870243], [-0.17693758010864258, 0.13641583919525146], [0.06783422827720642, 0.011561987921595573], [0.0646127313375473, 0.037916168570518494], [-0.007755958009511232, 0.07868004590272903], [-0.2714884281158447, 0.06936613470315933], [-0.1829194873571396, -0.006485489197075367], [0.3742162883281708, 0.018870390951633453], [-0.12471664696931839, -0.13697758316993713], [0.18978123366832733, 0.01296127587556839], [-0.13647115230560303, -0.13872046768665314], [0.1188330352306366, -0.11554256081581116], [-0.1324893832206726, 0.3095859885215759], [-0.14985807240009308, -0.016804397106170654], [0.3433099389076233, 0.0716637372970581], [-0.26432356238365173, 0.02775762416422367], [0.045760203152894974, 0.30076226592063904], [0.10249800235033035, 0.3214258849620819], [-0.0026652785018086433, -0.07430180162191391], [-0.24701154232025146, -0.056580379605293274], [-0.2581959664821625, 0.1834859997034073], [0.2776200771331787, 0.1317930370569229], [0.02297721803188324, 0.2683297097682953], [-0.26219260692596436, -0.1185900866985321], [0.012168721295893192, -0.045247118920087814], [0.18403349816799164, -0.11365482956171036], [0.24776388704776764, -0.02441512420773506], [0.17214156687259674, 0.23741157352924347], [0.008097312413156033, 0.08119245618581772], [-0.4199073910713196, -0.059564922004938126], [-0.29179662466049194, 0.009347908198833466], [-0.14323897659778595, 0.06240249052643776], [-0.05589143559336662, -0.022977830842137337], [0.3162463903427124, 0.06337147951126099], [0.0072481404058635235, -0.1299048811197281], [0.034913357347249985, 0.11341794580221176], [-0.284818172454834, -0.05427931994199753], [0.19145675003528595, 0.043766170740127563], [0.18664062023162842, -0.011656036600470543], [-0.10112079232931137, -0.04993472248315811], [-0.2797623574733734, -0.015445806086063385], [-0.2354811578989029, -0.055175602436065674], [-0.37326645851135254, 0.05444007366895676], [0.0012288555735722184, -0.018921751528978348], [0.268873929977417, -0.07696354389190674], [-0.07893941551446915, -0.14162577688694], [-0.016543658450245857, 0.05433295667171478], [-0.028880974277853966, 0.10951537638902664], [0.3895716369152069, -0.01856677606701851], [-0.2346736639738083, 0.10341143608093262], [0.1113547831773758, 0.08558773249387741], [-0.11065220832824707, 0.07056070119142532], [-0.027651991695165634, 0.08336888253688812], [-0.09869714081287384, 0.13827674090862274], [-0.2575053870677948, -0.11606205999851227], [0.21505238115787506, 0.08460817486047745], [0.07873421907424927, -0.13054533302783966], [0.15789233148097992, -0.06109149381518364], [0.025404060259461403, -0.16536016762256622], [0.2652597427368164, -0.1464751958847046], [-0.16701655089855194, 0.08750561624765396], [0.2516828775405884, 0.03824426606297493], [0.3692461848258972, -0.09313313663005829], [0.12181757390499115, 0.17549949884414673], [0.2453732192516327, -0.004933736752718687], [-0.00986903253942728, 0.2618965804576874], [0.15546023845672607, 0.004264842718839645], [0.05910649523139, -0.16944989562034607], [-0.08508065342903137, 0.17351339757442474], [0.32153791189193726, 0.1272478699684143], [-0.09897751361131668, -0.12438814342021942], [-0.234736368060112, 0.0190274678170681], [-0.0797712653875351, -0.042195141315460205]], "rec.weight_hh_l0": [[-0.1299898624420166, -0.13702905178070068, -0.08294244110584259, -0.062176793813705444, 0.10428554564714432, 0.13683448731899261, 0.13447846472263336, -0.007374738808721304, -0.1288006454706192, 0.01433936133980751, -0.002049170434474945, -0.10428567230701447, -0.2684706449508667, 0.22775928676128387, 0.003180714091286063, -0.01800420880317688, 0.06265478581190109, 0.017571568489074707, 0.005249456036835909, 0.15688049793243408, 0.08212663233280182, -0.046564143151044846, 0.1447143405675888, 0.15312498807907104], [0.11366027593612671, 0.19825170934200287, -0.011127329431474209, -0.0029588278848677874, 0.3237585425376892, 0.10049237310886383, -0.012377946637570858, 0.22986815869808197, -0.21024125814437866, -0.07851637154817581, -0.14979512989521027, -0.13959652185440063, -0.19350972771644592, 0.40366724133491516, 0.1863384246826172, -0.24629731476306915, -0.01645510084927082, -0.3560718595981598, -0.007061151321977377, 0.2052481323480606, -0.010864587500691414, -0.20794649422168732, 0.1251373291015625, 0.16110098361968994], [0.050031859427690506, 0.051025524735450745, 0.13003826141357422, 0.0023361355997622013, 0.1296546906232834, -0.11174395680427551, -0.22500883042812347, 0.03768265247344971, 0.12491923570632935, -0.009471611119806767, -0.03103593923151493, 0.04102539271116257, -0.1105843335390091, 0.003429577685892582, 0.029371855780482292, 0.15561780333518982, 0.0022237489465624094, 0.03166927024722099, -0.19127203524112701, 0.029624303802847862, -0.1864713877439499, 0.18953147530555725, 0.0145562207326293, -0.17058047652244568], [0.2003277838230133, 0.052710577845573425, 0.15631917119026184, 0.033649738878011703, -0.10769139230251312, -0.0645003542304039, -0.0689452737569809, 0.006732931360602379, -0.06763526052236557, -0.020940663293004036, -0.0006076880381442606, -0.02048015594482422, -0.1852113902568817, 0.15989956259727478, -0.031825147569179535, -0.04659731686115265, 0.006039788946509361, -0.20579035580158234, -0.1284690648317337, 0.2261829972267151, -0.010203622281551361, -0.1071925163269043, -0.10482367128133774, -0.08191714435815811], [-0.013101393356919289, 0.09090511500835419, -0.16297250986099243, -0.012318795546889305, 0.13895881175994873, -0.10145065188407898, -0.24125996232032776, -0.03909739851951599, -0.002055791672319174, -0.06252347677946091, -0.1573597490787506, 0.1403973251581192, 0.11721669882535934, 0.19845078885555267, -0.38211938738822937, 0.5306232571601868, 0.0125802680850029, -0.22882427275180817, -0.07380572706460953, -0.2008204162120819, -0.2735682427883148, 0.006739407777786255, -0.1391620635986328, 0.017408698797225952], [0.054925765842199326, -0.16259092092514038, 0.12249534577131271, 0.019135255366563797, 0.03660881519317627, -0.07948251813650131, -0.04025377705693245, -0.09356901794672012, -0.0815037414431572, -0.009960295632481575, 0.07889208942651749, -0.17194466292858124, -0.2960456609725952, 0.21731236577033997, 0.11596040427684784, -0.018779708072543144, 0.07726409286260605, 0.11126907914876938, -0.04646502062678337, -0.07428059726953506, -0.15339802205562592, -0.011991326697170734, 0.14660947024822235, 0.048631347715854645], [0.0011609395733103156, -0.10362494736909866, -0.02756687067449093, 0.04931521415710449, 0.2639521658420563, -0.07508505135774612, -0.2247718870639801, -0.0019759254064410925, -0.1837155520915985, 0.003930196166038513, -0.14490479230880737, -0.387420654296875, 0.08836271613836288, 0.23428896069526672, 0.14514422416687012, -0.14138498902320862, -0.04948984086513519, -0.07054875791072845, -0.0708649680018425, -0.0053906869143247604, 0.029248375445604324, -0.00639328034594655, 0.031648434698581696, 0.13707144558429718], [-0.06674939393997192, -0.16420219838619232, 0.04584373161196709, 0.006052643992006779, 0.06705252826213837, 0.029469819739460945, 0.06456619501113892, 0.011425905860960484, -0.13152319192886353, -0.007027345709502697, 0.008021853864192963, -0.11037908494472504, -0.13551616668701172, -0.023985812440514565, -0.0067664808593690395, -0.11569204181432724, 0.01356897410005331, -0.12789581716060638, -0.09249173104763031, 0.031192518770694733, 0.13473492860794067, -0.07890907675027847, -0.09091430902481079, -0.06381899863481522], [-0.18903689086437225, 0.13150925934314728, -0.11250399798154831, 0.08554907888174057, 0.07855113595724106, -0.018947668373584747, -0.15614522993564606, -0.014171337708830833, 0.10322853922843933, 0.0814671441912651, -0.11166667193174362, -0.08962634205818176, 0.0783446654677391, 0.21346521377563477, 0.004057642072439194, -0.206583172082901, -0.1797097623348236, -0.01723921298980713, -0.13622033596038818, -0.03562717139720917, -0.018571900203824043, 0.00190680380910635, 0.020259736105799675, 0.19718457758426666], [-0.0481882281601429, -0.1453954428434372, 0.05103745311498642, 0.0015221401117742062, 0.006577668711543083, 0.04286448657512665, -0.0010055539896711707, -0.009757060557603836, -0.056757811456918716, 0.009068888612091541, 0.019202006980776787, -0.03794180229306221, -0.07200262695550919, -0.07410531491041183, 0.02294624224305153, -0.050458431243896484, 0.0014756782911717892, -0.07477495819330215, -0.03024347685277462, 0.10487658530473709, 0.025674650445580482, 0.054757364094257355, -0.060490310192108154, 0.006582367233932018], [-0.009714500978589058, 0.1118590235710144, 0.027340203523635864, 0.007911737076938152, 0.010114415548741817, -0.06642501801252365, -0.06890702992677689, -0.0029628672637045383, 0.10393262654542923, -0.004615516867488623, 0.026353951543569565, -0.055030182003974915, 0.03940018266439438, -0.03405078127980232, 0.01627044752240181, -0.05199175328016281, 0.00016965621034614742, -0.11060310155153275, -0.15632155537605286, 0.17315836250782013, -0.02856294997036457, -0.056364867836236954, 0.0058205085806548595, -0.04666832834482193], [-0.16346323490142822, -0.023751482367515564, 0.10372382402420044, -0.0223592147231102, -0.14959727227687836, 0.026005728170275688, -0.0009229534189216793, 0.12976041436195374, 0.07896888256072998, -0.09567119926214218, 0.05713895708322525, 0.061917372047901154, -0.1647476702928543, -0.36289921402931213, 0.022829711437225342, -0.014460338279604912, 0.017353467643260956, -0.02244541049003601, -0.004559557884931564, -0.11205588281154633, 0.06417897343635559, 0.13049159944057465, -0.061319366097450256, 0.0688692107796669], [0.2628597319126129, 0.3721332252025604, -0.014487308450043201, -0.10385727882385254, 0.3075335919857025, -0.13307559490203857, -0.07117681205272675, 0.19829584658145905, 0.28039419651031494, -0.01623869687318802, -0.17381146550178528, 0.12357597798109055, -0.17554041743278503, 0.3276141583919525, 0.22775107622146606, 0.1166885495185852, -0.22147950530052185, -0.2710535228252411, -0.14407293498516083, -0.06018193066120148, -0.21280676126480103, 0.32532888650894165, 0.284697026014328, 0.06726234406232834], [0.011358454823493958, -0.17158806324005127, 0.297789603471756, -0.013017741031944752, 0.05375451594591141, -0.08366448432207108, -0.28476157784461975, 0.009703355841338634, 0.09745966643095016, -0.012399648316204548, -0.06588613986968994, -0.37620264291763306, -0.09399861097335815, 0.40458229184150696, 0.023826872929930687, -0.2753485441207886, 0.018435170873999596, -0.06018281355500221, 0.12478213757276535, 0.048507850617170334, -0.20766426622867584, -0.17890150845050812, 0.13827265799045563, 0.34076589345932007], [0.01524326391518116, 0.07426638901233673, 0.016697973012924194, -0.018797917291522026, 0.15406471490859985, -0.08590841293334961, -0.06740331649780273, 0.11239752918481827, -0.10352795571088791, -0.0021880092099308968, -0.014269468374550343, -0.17795392870903015, -0.5139314532279968, 0.04575682803988457, 0.0016434078570455313, -0.08006304502487183, 0.018835017457604408, -0.14095547795295715, -0.10492511838674545, 0.042451534420251846, 0.0722750648856163, -0.012649750337004662, 0.01614665985107422, -0.05131538212299347], [-0.1172957569360733, 0.0476754829287529, 0.08059268444776535, 0.08012183010578156, -0.501662015914917, -0.02318534441292286, 0.2618139982223511, 0.024893127381801605, 0.12715038657188416, -0.03509700298309326, 0.09665723890066147, 0.17820000648498535, 0.04204736277461052, 0.016723373904824257, -0.08769138157367706, -0.00578460143879056, 0.029294626787304878, 0.007152982521802187, 0.13932201266288757, -0.12969696521759033, 0.17695294320583344, 0.0066431425511837006, 0.007836592383682728, -0.11051680892705917], [0.02908693067729473, -0.15440919995307922, 0.045964594930410385, 0.011173955164849758, -0.0618010088801384, 0.015062318183481693, -0.017572950571775436, -0.009341485798358917, -0.09548699110746384, -0.005954239517450333, 0.0343746691942215, -0.25097817182540894, -0.13923989236354828, -0.017176806926727295, 0.09003801643848419, -0.21345914900302887, -0.0001056073815561831, -0.19535517692565918, -0.15118323266506195, 0.1170022264122963, -0.04920283704996109, -0.03474975749850273, 0.0551157221198082, -0.044654037803411484], [0.011557898484170437, 0.12447855621576309, -0.17551089823246002, -0.06589190661907196, -0.2405230551958084, 0.18872565031051636, -0.08553574234247208, 0.021328961476683617, 0.22544097900390625, 0.058334171772003174, -0.036387160420417786, -0.09256641566753387, 0.07453025877475739, 0.16546742618083954, 0.1937050074338913, -0.24475441873073578, 0.01232464425265789, 0.1472645252943039, 0.31011152267456055, -0.04121626913547516, -0.15327702462673187, 0.32075369358062744, 0.007291178684681654, 0.18545491993427277], [-0.13464140892028809, -0.03682076185941696, -0.10086140781641006, -0.003068029647693038, 0.1453758329153061, 0.17431963980197906, -0.1119459941983223, 0.004185513127595186, -0.3240543007850647, -0.03376398980617523, -0.13093732297420502, -0.17840346693992615, -0.2560727000236511, 0.10622700303792953, 0.11935856193304062, -0.11997901648283005, 0.013366589322686195, 0.05961895361542702, 0.08269976824522018, 0.19125719368457794, 0.06115906313061714, 0.05794673413038254, 0.34861090779304504, 0.09351127594709396], [-0.019659336656332016, -0.03172602877020836, 0.0853612869977951, 0.02438383549451828, 0.2238989770412445, 0.18674561381340027, -0.09772218763828278, 0.04096032306551933, 0.03670120611786842, -0.06142546609044075, 0.030766699463129044, 0.22973409295082092, 0.01062010694295168, -0.1759929358959198, 0.04931054264307022, 0.18377241492271423, 0.12750175595283508, -0.09771350771188736, -0.08396368473768234, -0.1282222419977188, 0.17502327263355255, 0.12238513678312302, 0.021946890279650688, -0.15619809925556183], [0.35185059905052185, 0.13423976302146912, 0.07339122146368027, -0.043506525456905365, 0.06606593728065491, -0.20424503087997437, -0.25105011463165283, 0.1143215075135231, -0.1244799792766571, 0.047696229070425034, -0.1255502998828888, -0.01414060965180397, -0.13802388310432434, 0.07407180219888687, -0.04796040430665016, -0.2008475363254547, -0.11567080020904541, -0.37973856925964355, 0.04675647243857384, 0.223300963640213, -0.15296755731105804, -0.13145305216312408, 0.06865321099758148, 0.17611263692378998], [0.1360834538936615, 0.12274116277694702, 0.01774085871875286, 0.047474198043346405, -0.04579988121986389, -0.13511407375335693, -0.1336463987827301, 0.10208820551633835, 0.043026480823755264, -0.048716917634010315, 0.025881575420498848, 0.036206524819135666, -0.30649325251579285, 0.029813511297106743, -0.051957227289676666, 0.1895129382610321, 0.002760883653536439, -0.35534489154815674, -0.2470138669013977, 0.008191647008061409, 0.05549141392111778, 0.09235235303640366, -0.2251000702381134, -0.18626028299331665], [0.11534620821475983, 0.022738998755812645, 0.06874870508909225, 0.049021318554878235, 0.22449369728565216, -0.0037592092994600534, -0.015750234946608543, 0.0753537267446518, -0.30890485644340515, 0.029924822971224785, -0.049525048583745956, -0.17451240122318268, -0.29463693499565125, -0.04236667975783348, 0.09206163138151169, -0.04048304632306099, 0.0005574624519795179, 0.0399932824075222, -0.1693337857723236, -0.04033535346388817, -0.011188681237399578, 0.0516461506485939, -0.048908691853284836, 0.057343874126672745], [-0.06523506343364716, 0.027396459132432938, -0.11868967115879059, -0.023483911529183388, -0.3901939392089844, -0.03605075180530548, -0.04940219596028328, -0.029066210612654686, -0.0024688036646693945, 0.06751552224159241, 0.022252289578318596, 0.04941624030470848, -0.24369743466377258, 0.06658817827701569, 0.16262668371200562, 0.0811995416879654, 0.024121800437569618, 0.1899299919605255, 0.13602681457996368, 0.05777435749769211, 0.017584435641765594, 0.26686498522758484, 0.0898078978061676, -0.005008145235478878], [-0.26248666644096375, -0.09867974370718002, -0.14625543355941772, -0.03110850602388382, -0.024468611925840378, 0.18534442782402039, 0.15181365609169006, -0.15939931571483612, -0.06653666496276855, 0.06173509359359741, 0.0803045853972435, 0.0072427415288984776, -0.09645304083824158, 0.1976613849401474, 0.3027554154396057, 0.027154555544257164, 0.0020851395092904568, 0.09234584122896194, 0.10994124412536621, 0.0003321414114907384, -0.10329090803861618, 0.017675569280982018, 0.23552538454532623, 0.0017142415745183825], [-0.02217700704932213, 0.12090931832790375, -0.38726434111595154, -0.18302075564861298, 0.0331195592880249, 0.28177860379219055, -0.07364851981401443, -0.18917988240718842, 0.3163456618785858, 0.23278142511844635, -0.06019924581050873, 0.18464194238185883, 0.37075769901275635, -0.0517425537109375, 0.35564833879470825, -0.25834551453590393, -0.03372056782245636, 0.37913787364959717, 0.293472558259964, -0.48027122020721436, -0.3955584168434143, 0.11577168107032776, 0.06123733893036842, 0.17025429010391235], [0.1374325305223465, 0.42565301060676575, -0.03852977976202965, -0.03686804696917534, 0.038403015583753586, -0.004011108539998531, -0.2072756141424179, -0.016274474561214447, 0.2119995802640915, -0.0140818040817976, -0.09358125925064087, 0.24901720881462097, 0.027177968993782997, 0.21278592944145203, -0.014073380269110203, 0.312880277633667, 0.005878077819943428, -0.006512156687676907, -0.14406679570674896, -0.17344602942466736, -0.2231590449810028, 0.397086501121521, 0.012641516514122486, -0.1869560182094574], [0.06055675446987152, 0.08055604249238968, 0.06034679710865021, 0.015641307458281517, -0.06922093778848648, -0.07228828966617584, -0.029455509036779404, -0.00267294910736382, 0.03189060091972351, -0.008055069483816624, -0.001265252591110766, -0.01778574287891388, -0.13229601085186005, 0.09781506657600403, -0.013210882432758808, -0.07045674324035645, 0.004485130310058594, -0.23211435973644257, -0.07108145952224731, 0.13914968073368073, 0.012154358439147472, -0.11673328280448914, -0.04619218036532402, -0.024728991091251373], [-0.3028115928173065, -0.2266790121793747, -0.26304784417152405, 0.058462757617235184, 0.5904589891433716, 0.28828370571136475, 0.3556179702281952, -0.04686947166919708, 0.04523998126387596, -0.0006632066797465086, 0.003328898688778281, -0.1272927075624466, -0.04173018038272858, -0.07759185880422592, 0.3231163024902344, -0.19404323399066925, -0.010401398874819279, 0.23561429977416992, 0.4950698912143707, -0.06686875969171524, 0.08689688891172409, 0.2616065740585327, 0.29985374212265015, -0.09748152643442154], [-0.24762095510959625, -0.018962061032652855, -0.27603471279144287, 0.020031113177537918, 0.0632830262184143, 0.1814155876636505, -0.027801573276519775, -0.16430161893367767, -0.147678941488266, 0.13702929019927979, -0.011329303495585918, -0.04248649626970291, 0.10203976929187775, 0.21013802289962769, 0.28320229053497314, -0.09097170829772949, 0.0069342730566859245, 0.05341093987226486, 0.16243870556354523, -0.10484229773283005, -0.037075139582157135, 0.0953713059425354, 0.254677414894104, 0.17516183853149414], [0.012036368250846863, 0.15224102139472961, -0.2917802929878235, 0.022783583030104637, 0.02227608859539032, -0.08713266998529434, -0.08989142626523972, 0.03297152742743492, 0.0017177482368424535, -0.06919258832931519, 0.04197171330451965, -0.14819762110710144, 0.27080094814300537, 0.3860945403575897, 0.12127675116062164, -0.27676212787628174, 0.05498172342777252, -0.18128268420696259, -0.045161303132772446, 0.05184221640229225, -0.36295443773269653, 0.1660349816083908, 0.1729898452758789, 0.11784914135932922], [0.11643394827842712, -0.08625414222478867, 0.0270486231893301, 0.006627979222685099, -0.07356690615415573, 0.07783420383930206, 0.005461512133479118, 0.023339444771409035, -0.03901136666536331, -0.025385916233062744, 0.002449327614158392, 0.013699703849852085, -0.05858038738369942, 0.029795300215482712, -0.003891468746587634, -0.03584866225719452, 0.013844097033143044, -0.07691402733325958, 0.013937211595475674, 0.023951899260282516, 0.0861632227897644, -0.02773987129330635, -0.10863001644611359, -0.08084900677204132], [-0.3581278324127197, 0.0580725222826004, -0.3029696047306061, 0.11348279565572739, 0.12466389685869217, 0.0819472000002861, -0.02851327322423458, -0.0753537118434906, 0.13012532889842987, 0.1728135049343109, 0.01768512837588787, -0.018674304708838463, 0.22655190527439117, -0.017322909086942673, 0.22970810532569885, -0.12396591156721115, -0.0032703205943107605, 0.13455642759799957, 0.3037947416305542, -0.3611047565937042, -0.08680988848209381, 0.3737618625164032, 0.035061806440353394, -0.08225294202566147], [-0.010682331398129463, 0.01496178563684225, 0.050104763358831406, 0.0035785457585006952, -0.0994485542178154, 0.04455110803246498, 0.02508261427283287, -0.008333737961947918, -0.0012670345604419708, 0.011184195056557655, 0.006672200281172991, -0.023775020614266396, -0.10576578974723816, -0.036790791898965836, 0.015541061758995056, -0.06777717918157578, -0.0011076262453570962, -0.07141268253326416, 0.008025918155908585, 0.049319420009851456, 0.05139164626598358, 0.0036285449750721455, -0.013722543604671955, 0.015098627656698227], [0.004017701838165522, -0.014268070459365845, 0.13119521737098694, 0.00813816487789154, 0.101335309445858, -0.04331939294934273, -0.1349773108959198, -0.0036159239243716, -0.11873383820056915, -0.021609941497445107, -0.021631164476275444, -0.06370801478624344, -0.10025154799222946, 0.13886123895645142, 0.009433422237634659, -0.057997915893793106, -0.0029183148872107267, -0.03944439813494682, -0.10476506501436234, 0.1997915506362915, -0.050911687314510345, 0.04485183581709862, -0.08221783488988876, 0.015143336728215218], [-0.10683250427246094, -0.23296362161636353, -0.26111900806427, -0.045864287763834, -0.2783434987068176, 0.4276670515537262, 0.22228223085403442, -0.13832774758338928, 0.08318343758583069, 0.004597214516252279, -0.18307559192180634, 0.03032730706036091, -0.08180291950702667, -0.2796576917171478, 0.22200806438922882, 0.06606971472501755, 0.04024818167090416, 0.37967821955680847, 0.21270662546157837, -0.2497379332780838, -0.14025084674358368, 0.16287590563297272, 0.21417222917079926, -0.107061006128788], [-0.4978211224079132, -0.09110965579748154, -0.2681993246078491, 0.02852713316679001, -0.06538529694080353, 0.4663752019405365, -0.019109604880213737, -0.2624325454235077, 0.3109451234340668, 0.24259774386882782, -0.1458280235528946, -0.183746799826622, 0.1425172984600067, -0.18433621525764465, 0.34886518120765686, -0.2687126100063324, 0.15493342280387878, 0.24094128608703613, 0.6110076904296875, -0.17557686567306519, -0.2959579527378082, 0.1877206414937973, 0.3168792724609375, -0.015826452523469925], [-0.17867186665534973, 0.28138646483421326, -0.03806091845035553, -0.009320152923464775, -0.10216735303401947, 0.0016134423203766346, -0.34901195764541626, -0.08638934046030045, 0.1404941976070404, 0.17487269639968872, -0.11936934292316437, -0.029353924095630646, 0.015178984962403774, 0.5374957323074341, -0.00935879535973072, -0.18460510671138763, -0.07059495151042938, -0.11163245886564255, 0.37407106161117554, -0.27753689885139465, -0.29543638229370117, 0.1326826810836792, 0.21537670493125916, 0.04566256329417229], [-0.21287569403648376, -0.30802205204963684, -0.052782073616981506, 0.00257491203956306, -0.029405413195490837, 0.19958214461803436, -0.023381512612104416, 0.12640780210494995, -0.1253586709499359, 0.020733321085572243, 0.04167305678129196, -0.19272743165493011, -0.4887638986110687, -0.13062049448490143, 0.18842506408691406, -0.22085751593112946, 0.11805038899183273, -0.11679448932409286, 0.2889213263988495, -0.24194271862506866, 0.06205792725086212, -0.10696972906589508, 0.18436101078987122, -0.1340319663286209], [-0.15954293310642242, -0.1848950833082199, -0.2225520759820938, 0.036496419459581375, -0.4761860966682434, 0.23397980630397797, 0.26130402088165283, -0.03227751702070236, 0.23994217813014984, 0.047438230365514755, 0.07877164334058762, -0.035973988473415375, 0.036236729472875595, -0.1484462171792984, -0.030493082478642464, -0.1318870335817337, 0.20266093313694, 0.38526445627212524, 0.0009044532780535519, -0.3732660710811615, -0.1491970419883728, -0.05459054931998253, 0.00031683105044066906, -0.2983684241771698], [-0.08440563827753067, 0.08441710472106934, -0.06686892360448837, 0.010239224880933762, -0.17301957309246063, 0.06423519551753998, 0.013213875703513622, -0.019747426733374596, -0.0651489868760109, -0.010527573525905609, 0.014313951134681702, -0.11463383585214615, -0.011385743506252766, -0.011445973999798298, 0.09425047785043716, -0.16245880722999573, 0.005310706794261932, 0.16891616582870483, 0.1226637214422226, 0.011972400359809399, 0.043875936418771744, -0.01842777244746685, 0.08268781006336212, -0.07557278871536255], [-0.065406933426857, 0.3553437888622284, -0.007872133515775204, -0.12706950306892395, -0.01577111892402172, 0.26323840022087097, -0.19754140079021454, 0.03244877979159355, 0.26207277178764343, 0.19557633996009827, -0.16143172979354858, -0.05990767851471901, 0.17333199083805084, 0.3522763252258301, 0.2907414138317108, -0.15538351237773895, -0.011081256903707981, 0.17846663296222687, 0.02050470933318138, -0.11262448877096176, -0.4974840581417084, 0.20017921924591064, 0.01905909553170204, 0.3191954493522644], [-0.4906449615955353, -0.26242825388908386, 0.014126972295343876, 0.0696641281247139, 0.17998702824115753, 0.43029820919036865, 0.11763811111450195, -0.03207530453801155, -0.3463488817214966, 0.04575417563319206, -0.017529688775539398, -0.4146937429904938, -0.22292432188987732, -0.0758582204580307, 0.15843245387077332, -0.17229525744915009, 0.09344030916690826, 0.09871044754981995, 0.08674988895654678, -0.14969205856323242, -0.04449013993144035, -0.07171713560819626, 0.4724504053592682, 0.04694835841655731], [0.007835524156689644, 0.13640549778938293, -0.23372721672058105, 0.04603574424982071, -0.2384212762117386, 0.013114436529576778, -0.02065516635775566, 0.020824775099754333, 0.215617835521698, 0.015759361907839775, -0.29530805349349976, 0.4187851846218109, 0.1860191971063614, -0.06422509253025055, 0.21795935928821564, 0.2627437710762024, 0.18983712792396545, 0.25638747215270996, 0.050013136118650436, -0.2228848785161972, -0.024697784334421158, 0.38368311524391174, -0.05041633918881416, -0.04751467704772949], [0.25651130080223083, 0.4080294668674469, -0.2997880280017853, -0.18729236721992493, -0.19690047204494476, -0.20851141214370728, -0.052104007452726364, -0.05882011726498604, 0.0935780331492424, 0.1471954733133316, -0.18086445331573486, 0.297475665807724, 0.06862375140190125, 0.21671725809574127, 0.026037877425551414, -0.11555120348930359, -0.04590446874499321, 0.1469876915216446, 0.11522530019283295, -0.02589370682835579, -0.04413304105401039, 0.24155347049236298, -0.14669965207576752, 0.0727803185582161], [0.08369621634483337, 0.40041980147361755, -0.20850060880184174, -0.010574862360954285, -0.2467135339975357, 0.01693345233798027, -0.06655899435281754, 0.006503842771053314, 0.09098982810974121, -0.002964682411402464, -0.039715319871902466, 0.5321043133735657, 0.1288493275642395, -0.21670952439308167, -0.005857062991708517, 0.26879140734672546, 0.06078435853123665, 0.21434888243675232, 0.1154458224773407, -0.4974284768104553, -0.27998557686805725, 0.48796185851097107, -0.2174820452928543, -0.28668203949928284], [-0.29483562707901, -0.030754612758755684, 0.033632710576057434, -6.641006621066481e-05, 0.27203214168548584, 0.12340524047613144, 0.05436361953616142, -0.13923895359039307, -0.16065597534179688, 0.11484077572822571, -0.034742046147584915, -0.19126880168914795, -0.3546154797077179, 0.09755777567625046, 0.3826383054256439, -0.12093299627304077, 0.08289945870637894, -0.04221393167972565, 0.18214727938175201, -0.06252741068601608, 0.027584055438637733, -0.008077886886894703, 0.04588226228952408, -0.05924835801124573], [-0.08782871812582016, 0.016131365671753883, -0.21110685169696808, -0.030304212123155594, -0.2780304551124573, 0.3169175684452057, 0.07141076773405075, -0.11146552860736847, 0.15920305252075195, 0.11650823801755905, -0.08287546038627625, 0.023260103538632393, -0.18825526535511017, -0.07687332481145859, 0.47278115153312683, -0.15372738242149353, 0.12205339223146439, 0.2153150588274002, 0.3695884048938751, -0.1630251407623291, -0.07296165078878403, 0.33259204030036926, 0.2417563498020172, -0.05883096531033516], [-0.06564752012491226, 0.11009993404150009, 0.019482946023344994, -0.031839657574892044, -0.004635208286345005, -0.01099905464798212, 0.07094421982765198, -0.01473500020802021, 0.30208390951156616, 0.10613766312599182, -0.029536066576838493, 0.17540493607521057, 0.25191962718963623, 0.2008790820837021, 0.0383918359875679, 0.0015319922240450978, 0.0554494746029377, -0.225458562374115, 0.06259334832429886, -0.002193050691857934, -0.18934693932533264, -0.02136939950287342, 0.008685319684445858, 0.0516328327357769], [0.01039888896048069, 0.25214311480522156, -0.01131652295589447, -0.14554913341999054, -0.06531265377998352, -0.05232652276754379, -0.08768144249916077, -0.0005705695948563516, 0.17737893760204315, -0.007637755014002323, 0.10576247423887253, 0.005757943727076054, 0.13707335293293, 0.1274145245552063, -0.21497473120689392, 0.04938055947422981, -0.15942169725894928, -0.15664587914943695, -0.01583845540881157, 0.02813071385025978, 0.025884736329317093, -0.10712548345327377, -0.1873284876346588, 0.09594331681728363], [0.11556398868560791, -0.20543357729911804, 0.031087208539247513, 0.1162005215883255, 0.16359511017799377, 0.25547775626182556, 0.017661359161138535, -0.11097850650548935, -0.047033581882715225, 0.025621529668569565, 0.07547812908887863, -0.1021849662065506, -0.07306723296642303, -0.15487611293792725, 0.09034596383571625, -0.1966465711593628, 0.15724439918994904, 0.09125952422618866, -0.08172110468149185, 0.14623379707336426, 0.22116555273532867, -0.02117559313774109, -0.13939709961414337, -0.04593471810221672], [-0.15188930928707123, 0.10414393991231918, 0.0821123793721199, -0.12832003831863403, -0.010623956099152565, 0.134175106883049, 0.004132217727601528, -0.0335545614361763, -0.03684272617101669, 0.03150549530982971, -0.025434767827391624, -0.2153126448392868, 0.2064446359872818, 0.2334371954202652, -0.05691113322973251, -0.20051920413970947, -0.16969116032123566, -0.20624645054340363, 0.17632299661636353, 0.04983115941286087, -0.029998769983649254, -0.03159094229340553, -0.14566510915756226, 0.09070020169019699], [-0.09307156503200531, 0.016563840210437775, 0.03691031411290169, -0.16075152158737183, 0.20862026512622833, 0.19251927733421326, 0.09053649753332138, 0.012127557769417763, -0.036946576088666916, -1.8438844563206658e-05, -0.1014428585767746, 0.3468513786792755, 0.11955375969409943, 0.18798045814037323, -0.13163092732429504, 0.3747429847717285, 0.04846885800361633, -0.08649183064699173, -0.28406190872192383, 0.027066826820373535, -0.05425894632935524, 0.15437373518943787, 0.06233220174908638, -0.2789600193500519], [-0.22051943838596344, -0.17537224292755127, -0.2025676965713501, -0.10573378205299377, 0.2329186499118805, 0.06879310309886932, 0.1283370554447174, 0.1792975664138794, 0.0013962977100163698, -0.10941259562969208, 0.11416539549827576, 0.10247737169265747, -0.008271769620478153, -0.12466546893119812, 0.12108266353607178, 0.08188851922750473, 0.10213998705148697, -0.0050046322867274284, 0.2307390421628952, -0.29381194710731506, -0.09088914841413498, -0.09014428406953812, -0.05867933854460716, -0.06142279505729675], [-0.07624933868646622, -0.21955202519893646, -0.22794494032859802, 0.018696434795856476, 0.12448488920927048, 0.01650361716747284, 0.15968294441699982, -0.0009272072929888964, 0.05581578239798546, 0.07219786942005157, 0.04767802730202675, 0.062156885862350464, -0.21952635049819946, -0.0509699322283268, -0.005571501795202494, -0.13695666193962097, 0.07562067359685898, -0.057407986372709274, 0.19431215524673462, -0.24591496586799622, 0.219760000705719, -0.08216921985149384, 0.012593571096658707, -0.09544709324836731], [0.10725701600313187, 0.23635397851467133, 0.1794247180223465, -0.14328373968601227, 0.017894955351948738, 0.057903800159692764, 0.07701703906059265, -0.003136337036266923, -0.09004910290241241, 0.08587155491113663, -0.010968892835080624, 0.12075919657945633, 0.1754765808582306, 0.1886988878250122, -0.10167169570922852, -0.07438767701387405, -0.08704929053783417, -0.21795938909053802, 0.08655485510826111, -0.04195563495159149, 0.13608361780643463, 0.045337527990341187, 0.1880340874195099, 0.08455602824687958], [0.22884726524353027, 0.28242650628089905, -0.12974783778190613, 0.12101928144693375, 0.0987081304192543, -0.3102715015411377, -0.1192835345864296, -0.000490031496156007, 0.03215232491493225, -0.17292654514312744, -0.04834189638495445, -0.011491638608276844, 0.28810980916023254, 0.01124443020671606, -0.15818917751312256, -0.21297407150268555, -0.16271696984767914, 0.03824589028954506, 0.06729989498853683, -0.230808287858963, -0.1994989961385727, 0.14344705641269684, 0.022096464410424232, -0.049938611686229706], [0.048871491104364395, 0.05457364022731781, -0.16415338218212128, 0.06294864416122437, -0.0645335391163826, 0.16237063705921173, 0.15311464667320251, -0.023669160902500153, -0.20085732638835907, 0.01825830526649952, 0.07236126810312271, -0.07596524804830551, -0.044819362461566925, 0.04268738627433777, 0.21290382742881775, -0.063566654920578, -0.024602726101875305, 0.192508727312088, -0.04986334219574928, -0.033986564725637436, -0.07133200764656067, 0.10229826718568802, 0.10541664808988571, 0.10989973694086075], [-0.20069020986557007, -0.15397530794143677, -0.007977493107318878, 0.06132519990205765, -0.2711382210254669, 0.10606591403484344, 0.06805583834648132, -0.030557267367839813, -0.0221447441726923, -0.15279071033000946, -0.02039993926882744, 0.17945261299610138, -0.11604711413383484, -0.07822931557893753, -0.021439965814352036, -0.13109634816646576, 0.016196729615330696, 0.07686910778284073, -0.03846104070544243, -0.17340441048145294, 0.19281603395938873, 0.004535473417490721, -0.21381725370883942, 0.11435449868440628], [0.18109650909900665, 0.09423162043094635, -0.1743575483560562, -0.14923425018787384, 0.03840750455856323, -0.13009761273860931, -0.21889208257198334, -0.08623933792114258, 0.2617083489894867, 0.07989341020584106, 0.14240147173404694, 0.1939893513917923, 0.20784999430179596, 0.028614401817321777, -0.16924038529396057, 0.20856985449790955, -0.11923807114362717, 0.18851228058338165, 0.03139890730381012, -0.2515001893043518, -0.14012689888477325, 0.10610204935073853, 0.022003576159477234, -0.24131059646606445], [0.03287053108215332, 0.29431721568107605, -0.28825291991233826, -0.048493094742298126, -0.24165794253349304, 0.037005528807640076, -0.18681246042251587, -0.03769722208380699, 0.2900051176548004, 0.12106744199991226, 0.04500467702746391, 0.11565542966127396, 0.25801795721054077, -0.021833062171936035, -0.03196307271718979, -0.12076135724782944, -0.08940301090478897, 0.14337511360645294, -0.14633813500404358, -0.05681150034070015, -0.21520836651325226, -0.18572863936424255, -0.08164909482002258, 0.3482314944267273], [0.1586066037416458, 0.2815706133842468, -0.08827314525842667, 0.0045311469584703445, 0.12769566476345062, -0.46402549743652344, -0.346267968416214, -0.03047044202685356, 0.11182977259159088, -0.11730800569057465, -0.12044927477836609, -0.2353442907333374, -0.03921035677194595, 0.30142742395401, -0.15910060703754425, 0.06274113804101944, -0.23561042547225952, -0.18701152503490448, -0.07481731474399567, 0.18246528506278992, -0.06494511663913727, -0.19694721698760986, -0.018988192081451416, -0.11418136954307556], [0.02740492671728134, -0.043004222214221954, 0.0424245186150074, -0.0962875559926033, 0.19303347170352936, 0.049318376928567886, -0.17415779829025269, 0.19380925595760345, -0.15251249074935913, 0.12260482460260391, -0.13216470181941986, -0.19213345646858215, -0.10036910325288773, 0.16999787092208862, -0.13285015523433685, -0.09514094144105911, -0.03996974229812622, 0.0724094808101654, 0.01864888332784176, -0.15094636380672455, -0.06011141464114189, 0.07081477344036102, 0.26643770933151245, -0.010375864803791046], [0.13829907774925232, 0.12398097664117813, -0.034489501267671585, -0.29976746439933777, -0.062310878187417984, -0.12359967082738876, -0.03139365091919899, 0.07237685471773148, 0.21571886539459229, -0.03633418679237366, -0.1070646271109581, 0.3104121685028076, 0.20631475746631622, -0.0695481076836586, -0.027394412085413933, 0.05482687056064606, 0.028825871646404266, 0.04793507978320122, -0.2690044939517975, -0.05991649255156517, 0.04262639954686165, 0.16883929073810577, -0.01496831513941288, -0.1345359832048416], [0.08124551922082901, -0.04794097691774368, 0.07392934709787369, -0.030881468206644058, -0.07515310496091843, -0.021107716485857964, -0.2114829123020172, 0.011923595331609249, -0.03945241868495941, 0.002434209454804659, 0.03906802460551262, 0.15289944410324097, 0.11170385777950287, 0.023340431973338127, -0.09692664444446564, 0.23999997973442078, -0.006421160418540239, -0.14625932276248932, -0.01825011894106865, -0.26448875665664673, 0.036104466766119, -0.1194181963801384, 0.13620518147945404, -0.13999803364276886], [-0.21696346998214722, 0.09073978662490845, -0.06419707834720612, -0.013430716469883919, 0.10533569008111954, 0.28750327229499817, -0.14595262706279755, 0.020177287980914116, 0.02929450199007988, 0.13721947371959686, -0.019873859360814095, 0.2882522642612457, -0.06580902636051178, 0.14181752502918243, 0.1293393224477768, 0.06036726012825966, 0.115195132791996, 0.33502429723739624, 0.36637526750564575, -0.3109978437423706, -0.17741984128952026, 0.2179352343082428, -0.0736679807305336, 0.038301486521959305], [-0.32520800828933716, -0.09351683408021927, -0.20886191725730896, 0.06346822530031204, 0.1516750007867813, 0.32028040289878845, 0.12448348850011826, 0.15968985855579376, 0.0236955713480711, 0.068878673017025, -0.2473229616880417, -0.15720312297344208, 0.040611568838357925, 0.20431049168109894, 0.07425234466791153, 0.1476873904466629, 0.0769071951508522, -0.028472313657402992, 0.18004433810710907, -0.15115311741828918, -0.08676235377788544, -0.12605683505535126, 0.2652428448200226, 0.06581634283065796], [-0.1351926028728485, 0.01291361078619957, 0.2653178870677948, 0.19333016872406006, 0.04873017966747284, -0.1498708724975586, 0.06073353439569473, -0.021901816129684448, 0.033265892416238785, -0.03710907697677612, 0.006756294518709183, -0.3133194148540497, 0.02782028168439865, 0.0474415123462677, -0.1462240219116211, -0.3367929458618164, -0.2120092362165451, -0.03294065222144127, 0.1435794085264206, 0.12583684921264648, 0.144622802734375, -0.12173853814601898, 0.01695951633155346, -0.1651538908481598], [-0.2838539481163025, -0.1714213788509369, 0.14136208593845367, 0.22160780429840088, 0.19785648584365845, 0.30159497261047363, 0.029766544699668884, -0.17697831988334656, -0.013441812247037888, -0.14072251319885254, -0.059050291776657104, -0.018664242699742317, -0.17913250625133514, -0.25411802530288696, 0.09755977243185043, 0.13279181718826294, 0.09145539253950119, 0.1499803364276886, 0.013160721398890018, -0.09918294847011566, 0.06096113100647926, -0.09988819807767868, 0.14015507698059082, -0.09068309515714645], [0.3475342094898224, 0.38619738817214966, 0.0061818938702344894, -0.2076474130153656, -0.010594415478408337, -0.010016190819442272, -0.2623226046562195, 0.09755032509565353, -0.03541119396686554, 0.11171971261501312, -0.019327698275446892, 0.19527722895145416, -0.013358359225094318, 0.11255192756652832, -0.12737688422203064, 0.3048143684864044, 0.1367005854845047, -0.16766855120658875, -0.054522693157196045, -0.1360931694507599, 0.04541502147912979, 0.10569077730178833, 0.11968020349740982, -0.257570743560791], [-0.11012233048677444, 0.004921185318380594, -0.05777345225214958, 0.07324682921171188, 0.18950308859348297, 0.07360795140266418, -0.044070109724998474, -0.0028821504674851894, -0.26040583848953247, -0.12851664423942566, 0.16587314009666443, 0.13515760004520416, -0.435949444770813, -0.20761719346046448, 0.0613214448094368, 0.24630378186702728, -0.22435933351516724, -0.042534083127975464, -0.012081761844456196, -0.05147017538547516, 0.022308986634016037, 0.11526092141866684, -0.06223159655928612, 0.16439487040042877], [-0.180030956864357, -0.08513889461755753, 0.06486092507839203, 0.11805933713912964, 0.03640209138393402, -0.03229856863617897, -0.06672593951225281, 0.031702157109975815, -0.17826376855373383, -0.09773003309965134, -0.12941430509090424, 0.010545607656240463, -0.2677713632583618, -0.03132404759526253, -0.14024850726127625, -0.2317451387643814, -0.2654365599155426, -0.1800355464220047, -0.022022241726517677, 0.3609614074230194, -0.17574988305568695, -0.06080173701047897, 0.08908528834581375, 0.17478422820568085], [-0.02571326680481434, -0.08018850535154343, -0.08007102459669113, -0.07034505903720856, 0.18386486172676086, 0.23388588428497314, 0.09770674258470535, 0.05895150825381279, -0.13374686241149902, -0.0011142791481688619, -0.06893635541200638, -0.22585012018680573, -0.3383181691169739, 0.0010154201881960034, 0.1744185835123062, -0.019047942012548447, 0.12214759737253189, 0.20224027335643768, -0.08999721705913544, -0.10884227603673935, 0.13410763442516327, -0.15702375769615173, 0.22770105302333832, 0.2635878026485443], [-0.07625668495893478, 0.009394866414368153, -0.14009395241737366, 0.061419252306222916, -0.12454184889793396, -0.048599306493997574, -0.31168273091316223, 0.06644246727228165, 0.21127450466156006, 0.00688478909432888, -0.12021414190530777, 0.08706405758857727, 0.20108895003795624, 0.011478482745587826, 0.07232176512479782, -0.19047947227954865, -0.08030004799365997, 0.10518930852413177, 0.3229990601539612, -0.10258929431438446, -0.19211900234222412, 0.3471533954143524, -0.01797841303050518, 0.14987130463123322], [0.12520506978034973, 0.24493640661239624, 0.09179800748825073, 0.04842429235577583, -0.12628903985023499, -0.10586728900671005, -0.18229442834854126, 0.055278487503528595, 0.008423028513789177, -0.08531438559293747, 0.023138651624321938, 0.2620801627635956, 0.12689992785453796, 0.12672437727451324, -0.0720321536064148, 0.1964777559041977, 0.0893612951040268, -0.16621986031532288, -0.022430283948779106, 0.10406801104545593, 0.024857480078935623, 0.32357415556907654, -0.06861933320760727, -0.18665605783462524], [0.09216997772455215, 0.10258083790540695, 0.11298052966594696, 0.02858973667025566, -0.06980834901332855, -0.18008282780647278, -0.0763205960392952, 0.012603058479726315, -0.0816783457994461, -0.023780837655067444, 0.0007197741651907563, 0.07362841814756393, -0.04402979463338852, 0.1879422664642334, -0.061052754521369934, 0.060466960072517395, 0.005081747192889452, -0.3836877942085266, -0.1338113695383072, 0.13027329742908478, 0.0030000312253832817, -0.18277497589588165, -0.14868350327014923, -0.11184779554605484], [-0.1482578068971634, 0.11099003255367279, -0.051715053617954254, 0.07701366394758224, 0.40964174270629883, 0.15956227481365204, -0.023590445518493652, -0.20561110973358154, 0.012503359466791153, 0.09233565628528595, -0.09200932085514069, -0.12189598381519318, -0.03875850886106491, 0.10493718087673187, -0.10697038471698761, 0.15765731036663055, 0.12215310335159302, -0.030505552887916565, 0.05657680332660675, -0.2029963731765747, -0.24813823401927948, 0.088751882314682, -0.053652092814445496, 0.1740933507680893], [-0.24662594497203827, -0.08305303007364273, -0.057215366512537, -0.003916543908417225, -0.045763906091451645, 0.12570782005786896, -0.026057114824652672, 0.007544324733316898, -0.08229299634695053, 0.044554486870765686, -0.004472184460610151, -0.294650137424469, -0.23691301047801971, 0.308688759803772, 0.08817391097545624, 0.0638195276260376, 0.10624981671571732, 0.049912311136722565, 0.238550066947937, -0.002322539919987321, 0.051515258848667145, -0.04030299931764603, -0.030195994302630424, 0.16843365132808685], [-0.15835782885551453, 0.12119944393634796, -0.16810472309589386, 0.003093475941568613, 0.07334499806165695, -0.17929740250110626, -0.14667116105556488, 0.07696429640054703, 0.10683011263608932, -0.027278782799839973, -0.058048658072948456, -0.07911516726016998, -0.01955069787800312, 0.12113921344280243, 0.12158475816249847, -0.15149259567260742, -0.0731625184416771, 0.03370529040694237, 0.09385570138692856, 0.13691598176956177, -0.2921940088272095, -0.018145227804780006, -0.07116774469614029, 0.07538498193025589], [0.06949666142463684, -0.09638933837413788, 0.028530236333608627, 0.00687402905896306, 0.044974979013204575, 0.06971661001443863, -0.03309012949466705, -0.015975864604115486, -0.1072474867105484, 0.0029355508740991354, -0.0019039020407944918, -0.06586455553770065, -0.09703545272350311, 0.000321201077895239, -0.003380505135282874, -0.10420586168766022, 0.012778641656041145, -0.15323227643966675, -0.010372438468039036, 0.022716358304023743, 0.06960132718086243, -0.06339656561613083, 0.002742246026173234, -0.07717183232307434], [-0.05646076053380966, 0.2333274483680725, -0.19985033571720123, 0.08684869855642319, -0.10053800791501999, 0.08684428781270981, -0.19847366213798523, -0.08086640387773514, 0.2717406749725342, -0.021244505420327187, -0.09707524627447128, 0.11449868232011795, 0.032508037984371185, 0.23677359521389008, 0.14972712099552155, -0.005221178289502859, 0.04579421505331993, -0.22135798633098602, 0.2754547595977783, -0.03433201089501381, -0.18146857619285583, 0.23701727390289307, 0.18190068006515503, -0.05523744970560074], [-0.0037875273264944553, -0.15962781012058258, 0.026017049327492714, 0.0026101062539964914, -0.09454794973134995, -0.004076520446687937, -0.03890463337302208, -0.009903538972139359, -0.05901728570461273, 0.0002253138809464872, 0.024328282102942467, -0.007594373542815447, -0.07816135138273239, -0.02261757105588913, 0.023521436378359795, -0.08365828543901443, 0.0025558716151863337, 0.0605739988386631, -0.10181982815265656, 0.12175682932138443, -0.042371463030576706, -0.010027026757597923, 0.010493467561900616, -0.011316681280732155], [0.025249145925045013, 0.10181263834238052, 0.21737700700759888, 0.010287690907716751, 0.1474563479423523, -0.07122941315174103, -0.07864886522293091, -0.004062976222485304, -0.12930616736412048, -0.05623997375369072, 0.06207142770290375, -0.11827117949724197, 0.02248452603816986, -0.10088858753442764, 0.018066875636577606, -0.07583830505609512, -0.0060957963578403, -0.2605784833431244, -0.18388870358467102, 0.03892284631729126, -0.08172092586755753, -0.04303911328315735, -0.12431301176548004, 0.0043088835664093494], [-0.1475599706172943, 0.02382589690387249, -0.09959221631288528, -0.11854485422372818, -0.04361966252326965, 0.33386003971099854, 0.1252254992723465, -0.054710645228624344, 0.08760211616754532, 0.014906452037394047, -0.02721727266907692, 0.2781654894351959, -0.07584704458713531, -0.30439966917037964, 0.031015951186418533, 0.2808239459991455, 0.17657481133937836, 0.2842767536640167, 0.06153815984725952, -0.0872766375541687, -0.015087091363966465, 0.1506195366382599, 0.033621832728385925, -0.3551895320415497], [-0.06220569461584091, 0.032866138964891434, -0.10337520390748978, -0.10875696688890457, -0.131821408867836, -0.12549130618572235, -0.14690232276916504, 0.0047361887991428375, 0.1922985464334488, 0.08445876836776733, -0.1827431470155716, -0.005098988767713308, -0.10836353152990341, -0.012154282070696354, 0.30481794476509094, 0.13664807379245758, 0.010422355495393276, -0.07017580419778824, 0.13129720091819763, -0.1158134788274765, 0.07224450260400772, 0.08368054777383804, 0.12856106460094452, 0.12586794793605804], [0.045620791614055634, 0.2012082189321518, 0.06463439017534256, -0.09914763271808624, -0.17386256158351898, -0.4323033392429352, -0.10139282792806625, -0.011267140507698059, 0.1851574182510376, 0.12947101891040802, -0.16982126235961914, -0.3035174310207367, 0.19278334081172943, 0.2270698845386505, 0.0286729596555233, -0.5278303623199463, -0.045182667672634125, -0.12116222828626633, 0.25906383991241455, 0.03876807168126106, -0.246585413813591, -0.12429244816303253, 0.11401963233947754, 0.2190191000699997], [-0.06677524745464325, -0.20436139404773712, 0.12413562089204788, -0.010808208025991917, 0.12549179792404175, 0.04561803117394447, 0.07491771131753922, -0.02019706554710865, -0.1990167200565338, -0.012738939374685287, 0.02489802986383438, -0.0018709738506004214, -0.3612219989299774, -0.1946846842765808, 0.14200782775878906, -0.0786823257803917, 0.028200356289744377, -0.15802796185016632, -0.13727818429470062, 0.11099909245967865, 0.007126672193408012, -0.1111370325088501, -0.00204492942430079, -0.07543734461069107], [-0.010056630708277225, -0.1810149997472763, 0.0020728441886603832, -0.07557430863380432, -0.5013545155525208, -0.04673692211508751, 0.16726675629615784, 0.039494290947914124, 0.02170475199818611, -0.039671674370765686, 0.03315376490354538, 0.32078373432159424, 0.01990087702870369, -0.002796258544549346, 0.03714951127767563, 0.17501568794250488, 0.08938637375831604, 0.15878568589687347, 0.14433614909648895, -0.104624442756176, -0.016115816310048103, 0.14112025499343872, 0.055985789746046066, -0.011522090062499046], [0.02957499958574772, -0.12697279453277588, 0.1439359039068222, 0.00767761655151844, -0.052761804312467575, -0.11760640889406204, -0.011452365666627884, -0.008540086448192596, -0.057931721210479736, -0.004937253426760435, 0.0005906463484279811, -0.21091322600841522, -0.23644141852855682, 0.09625044465065002, 0.08069057017564774, -0.18072223663330078, -0.004437001887708902, -0.138187974691391, -0.012917806394398212, 0.17130059003829956, 0.06776253134012222, 0.012699208222329617, 0.06082042679190636, -0.05023329332470894], [-0.21286866068840027, 0.3223903477191925, -0.05425049364566803, -0.07869401574134827, 0.08737442642450333, 0.14906756579875946, -0.1422773152589798, 0.012650876305997372, 0.28195616602897644, 0.1670328676700592, -0.15165847539901733, -0.14063671231269836, -0.07704255729913712, -0.03328188881278038, 0.1340952068567276, -0.306174099445343, -0.06483349949121475, 0.16472749412059784, 0.2770584225654602, -0.037760425359010696, -0.06587030738592148, 0.07658007740974426, 0.010964062996208668, 0.2376425713300705], [-0.2559203803539276, -0.18421047925949097, -0.048326972872018814, 0.012643817812204361, 0.15456622838974, 0.36384496092796326, 0.24198296666145325, 0.010401670821011066, -0.3118056654930115, -0.051618542522192, -0.05279210954904556, -0.061828289180994034, -0.2892606854438782, 0.15944159030914307, 0.2754242718219757, -0.23540204763412476, 0.0376591794192791, 0.31320473551750183, 0.2890307903289795, -0.025016045197844505, -0.033430151641368866, 0.10592672973871231, 0.15331101417541504, -0.02541024424135685], [0.10109865665435791, 0.2425347864627838, -0.12834572792053223, 0.13115713000297546, 0.002517717657610774, 0.15458516776561737, -0.13748446106910706, 0.08958715200424194, 0.2111695557832718, 0.05303795635700226, -0.14189840853214264, 0.03371026739478111, -0.15030285716056824, -0.05646221712231636, 0.2039717435836792, 0.320220023393631, 0.09805785864591599, -0.013033361174166203, 0.10514272749423981, -0.18648573756217957, 0.056741099804639816, 0.30548861622810364, -0.029107319191098213, 0.05469517782330513], [0.3953794240951538, 0.27893519401550293, -0.2243521511554718, -0.10679405927658081, -0.19743365049362183, -0.28649821877479553, -0.044623713940382004, 0.11613310873508453, 0.08756512403488159, -0.02231101132929325, -0.1656937301158905, 0.09380006045103073, 0.2832099199295044, 0.1493786722421646, 0.029652832075953484, -0.01782902143895626, 0.017845874652266502, -0.1573937088251114, -0.09725311398506165, 0.009817615151405334, -0.0017503370763733983, 0.2943117320537567, 0.024276982992887497, -0.043759800493717194], [0.19136203825473785, 0.10631412267684937, -0.07343395054340363, -0.05046619474887848, -0.28364914655685425, -0.09435436874628067, -0.13720639050006866, 0.047417860478162766, 0.06552854180335999, 0.07719332724809647, -0.02051580138504505, 0.3131358027458191, 0.05956301465630531, -0.15712547302246094, -0.03484070673584938, 0.3266220986843109, 0.03501846268773079, 0.0023711277171969414, -0.03896072879433632, -0.04277295246720314, 0.14648756384849548, 0.12359059602022171, -0.13759790360927582, -0.3341551721096039], [-0.20848490297794342, -0.10703537613153458, -0.02765481173992157, 0.06345847994089127, 0.18027961254119873, 0.08023880422115326, 0.1622665673494339, -0.04824225604534149, -0.02853040210902691, -0.0030159777961671352, -0.019359521567821503, -0.19909636676311493, -0.309123158454895, -0.12493670731782913, 0.025815390050411224, -0.2014511227607727, 0.017988279461860657, 0.003422832116484642, 0.008833496831357479, 0.11182060837745667, 0.1968599259853363, 0.005847839172929525, 0.06123443320393562, -0.08037817478179932], [-0.11242154985666275, -0.05811934545636177, -0.10305026918649673, -0.01772286742925644, -0.45345473289489746, 0.045143984258174896, 0.06656351685523987, -0.0780649483203888, -0.0793713852763176, 0.08619820326566696, -0.03198041766881943, -0.1437980979681015, -0.24614186584949493, 0.07373922318220139, 0.39829665422439575, -0.1448649913072586, 0.008380403742194176, -0.0383601076900959, 0.03421253710985184, -0.07890822738409042, -0.1148853525519371, 0.18667764961719513, 0.22710278630256653, 0.08442788571119308]], "rec.bias_ih_l0": [-0.16890433430671692, 0.0013351431116461754, -0.2586843967437744, -0.07405655086040497, 0.13884149491786957, 0.21917930245399475, 0.04295980930328369, -0.2644492983818054, -0.019651101902127266, -0.21768070757389069, -0.1156185194849968, 0.11135886609554291, 0.17866773903369904, -0.04460596293210983, 0.07937417924404144, -0.03937873989343643, -0.05241270363330841, 0.18306155502796173, 0.11273087561130524, 0.02383887581527233, 0.009596681222319603, -0.3736856281757355, 0.04884989187121391, -0.016267184168100357, 0.0035149920731782913, 0.23478378355503082, 0.15465116500854492, -0.21050727367401123, 0.2471652328968048, -0.036352142691612244, 0.18032267689704895, 0.04856102168560028, 0.2771624028682709, -0.19829271733760834, -0.09623155742883682, 0.11385643482208252, 0.14866510033607483, 0.33934518694877625, 0.216577410697937, 0.11259914189577103, -0.06982892751693726, 0.3069750964641571, 0.14923129975795746, 0.38118141889572144, 0.33957451581954956, -0.021794676780700684, 0.019228391349315643, 0.3111492693424225, -0.23680084943771362, -0.16681277751922607, -0.22572627663612366, -0.13511711359024048, -0.15715743601322174, 0.10628006607294083, 0.05217288061976433, 0.023205963894724846, 0.2918737828731537, 0.0324425995349884, 0.044376492500305176, 0.0633481964468956, 0.3065223693847656, -0.0716945081949234, 0.032200880348682404, -0.038427673280239105, 0.09858334809541702, 0.25919368863105774, 0.2805422842502594, -0.04083465412259102, -0.19927115738391876, 0.00428392319008708, 0.09052787721157074, 0.14044199883937836, 0.057376984506845474, 0.13093915581703186, -0.15500757098197937, -0.24361084401607513, 0.07208166271448135, -0.10527609288692474, -0.07226304709911346, -0.028994321823120117, 0.06973380595445633, -0.10290174186229706, -0.11032316833734512, 0.024053825065493584, 0.13747718930244446, 0.02651832439005375, -0.16648314893245697, 0.1691552698612213, -0.16064460575580597, 0.25595176219940186, -0.06753896176815033, -0.05174621567130089, 0.08386311680078506, 0.08194843679666519, 0.2070716768503189, -0.05150368809700012], "rec.bias_hh_l0": [-0.05822155624628067, 0.11247129738330841, 0.013090213760733604, -0.13831493258476257, 0.20433443784713745, -0.09551549702882767, -0.014113646931946278, -0.272562712430954, 0.10352332890033722, -0.05464429780840874, -0.0038797217421233654, -0.021749714389443398, -0.08037897944450378, -0.07763708382844925, -0.256770521402359, 0.10683093965053558, -0.24869759380817413, 0.11387338489294052, 0.09357354789972305, -0.09885773807764053, -0.13451844453811646, -0.2606101632118225, 0.0300151240080595, -0.07886399328708649, 0.2236989438533783, 0.3127129375934601, 0.16121509671211243, -0.005795730277895927, 0.27242979407310486, -0.02753368765115738, 0.13898839056491852, -0.09040369093418121, 0.11201170831918716, -0.07845951616764069, -0.03255286067724228, 0.389876127243042, 0.36985865235328674, 0.2497377097606659, -0.06661047041416168, 0.16401435434818268, -0.0338156595826149, 0.2109457105398178, 0.01296739187091589, 0.37162068486213684, 0.05379297956824303, 0.12215719372034073, 0.3220575153827667, 0.17222775518894196, -0.16452977061271667, 0.0015452413354068995, -0.13924765586853027, 0.19623900949954987, -0.13705870509147644, 0.10337580740451813, 0.20529186725616455, -0.17888584733009338, -0.09252282977104187, -0.00914244819432497, -0.07903497666120529, -0.12699536979198456, 0.07621179521083832, -0.10267804563045502, 0.17123442888259888, -0.24415233731269836, 0.04073198512196541, 0.009241228923201561, 0.061721738427877426, -0.22887110710144043, 0.01095830649137497, 0.13932715356349945, -0.015039236284792423, 0.128991961479187, -0.030963746830821037, 0.1837412267923355, -0.13425154983997345, -0.11684883385896683, 0.2617146074771881, -0.026425190269947052, -0.06295192986726761, -0.17414811253547668, 0.13098378479480743, -0.276683509349823, -0.14237724244594574, 0.12100844085216522, 0.2813488245010376, -0.06987398117780685, 0.022919949144124985, 0.13963951170444489, -0.22701473534107208, 0.26326876878738403, 0.2439824640750885, 0.2931031286716461, 0.08955956250429153, -0.044507402926683426, 0.13054592907428741, -0.11961696296930313], "lin.weight": [[-0.3131427466869354, -0.30258581042289734, 0.13330335915088654, -0.11665062606334686, 0.19436763226985931, 0.27658334374427795, 0.19479900598526, -0.09772191196680069, -0.4170589745044708, 0.062487464398145676, 0.041392188519239426, -0.12167695164680481, -0.2691127061843872, -0.319886714220047, 0.08274414390325546, -0.20666304230690002, -0.01554306223988533, 0.11478571593761444, 0.14048901200294495, 0.04595906287431717, 0.3268396258354187, -0.2158316671848297, 0.2499157190322876, 0.2583535313606262]], "lin.bias": [-0.06792114675045013]}}