{"model_data": {"model": "SimpleRNN", "input_size": 2, "skip": true, "output_size": 1, "unit_type": "LSTM", "num_layers": 1, "hidden_size": 48, "bias_fl": true}, "state_dict": {"rec.weight_ih_l0": [[-0.2613178491592407, -0.05354849621653557], [-0.06489001959562302, -0.2588003873825073], [0.03768051415681839, -0.10429255664348602], [-0.1977531611919403, -0.134987011551857], [-0.06316164880990982, 0.16165944933891296], [-0.006161245051771402, -0.19322800636291504], [0.14655999839305878, 0.04011101275682449], [-0.18684959411621094, 0.06973274797201157], [-0.3177865147590637, -0.09521635621786118], [0.14103545248508453, -0.05207698419690132], [0.05577655881643295, -0.022300899028778076], [-0.0814061313867569, -0.08824604004621506], [-0.23081426322460175, 0.15305669605731964], [-0.05552998557686806, 0.007972924038767815], [0.24671579897403717, -0.08240283280611038], [0.0633155032992363, 0.0657162070274353], [0.13893118500709534, 0.059483278542757034], [-0.060532499104738235, 0.03994222357869148], [0.01151331141591072, -0.04525294154882431], [-0.02635912410914898, 0.01071567740291357], [0.016930341720581055, 0.054213643074035645], [-0.1734648048877716, -0.02477381005883217], [-0.08846929669380188, -0.07812567800283432], [0.08142963796854019, -0.08871802687644958], [-0.16580365598201752, -0.21083472669124603], [0.053570374846458435, -0.05296376347541809], [0.06053229793906212, 0.03254589065909386], [-0.22147433459758759, -0.0518469475209713], [-0.04317454621195793, -0.0858091413974762], [0.0740872323513031, -0.01141287013888359], [0.3608272969722748, 0.07800348848104477], [0.06320393830537796, -0.07970523089170456], [0.10461936891078949, -0.03816815838217735], [0.03437424078583717, 0.10388971865177155], [0.032127853482961655, 0.013506794348359108], [-0.03602176532149315, 0.1283801645040512], [-0.1455601155757904, 0.06370316445827484], [0.015746142715215683, -0.099054254591465], [0.15309490263462067, -0.116379015147686], [0.11651168018579483, -0.14814314246177673], [-0.11304280161857605, -0.06977300345897675], [-0.14060337841510773, -0.06228601932525635], [-0.03279103338718414, -0.18779681622982025], [-0.12705819308757782, -0.008721359074115753], [0.05758911371231079, 0.010244161821901798], [0.03878634050488472, -0.07194434106349945], [0.13686536252498627, 0.07867158949375153], [0.07387663424015045, -0.14303062856197357], [-0.4934677183628082, 0.0679204985499382], [-0.031225286424160004, -0.17839600145816803], [0.02563288062810898, -0.0923486277461052], [-0.1260940432548523, 0.07882353663444519], [-0.2171773612499237, 0.33562377095222473], [-0.150232195854187, 0.15293531119823456], [-0.0358651839196682, 0.3218611478805542], [0.00875500775873661, 0.23201721906661987], [-0.33023980259895325, 0.014423977583646774], [0.4790645241737366, 0.13608314096927643], [0.0652807205915451, -0.05124398320913315], [-0.21614569425582886, 0.09403184056282043], [-0.2930619418621063, 0.19558997452259064], [-0.04129650071263313, 0.008635107427835464], [0.09371894598007202, -0.021107608452439308], [0.02563915029168129, 0.04558342322707176], [0.01889827661216259, 0.04381904378533363], [-0.08400548249483109, 0.055301591753959656], [-0.08242954313755035, -0.04965628311038017], [0.05843491479754448, 0.011347946710884571], [0.21116235852241516, 0.01973062939941883], [-0.3453376889228821, 0.23075836896896362], [-0.12056425213813782, 0.09036365896463394], [0.029481621459126472, -0.04674861952662468], [0.04561638832092285, 0.2078968584537506], [0.021437527611851692, -0.05592392385005951], [0.131952702999115, -0.08512980490922928], [-0.1233205795288086, 0.027298275381326675], [-0.3498227000236511, 0.19187681376934052], [0.3237994611263275, 0.043574489653110504], [0.4086075723171234, 0.060823485255241394], [0.05177219212055206, -0.034610286355018616], [0.050031594932079315, -0.023175550624728203], [0.05484675243496895, 0.07355590909719467], [0.011129527352750301, 0.010584983974695206], [-0.23332563042640686, 0.25206199288368225], [-0.07705432921648026, 0.04045603424310684], [-0.04081154987215996, 0.026960372924804688], [0.25001025199890137, 0.14410151541233063], [0.38600432872772217, 0.12023589760065079], [0.18240998685359955, 0.0030974808614701033], [-0.28760209679603577, 0.1291092187166214], [-0.3148018419742584, -0.02818932756781578], [-0.07427762448787689, -0.009947377257049084], [-0.0520937517285347, -0.011295344680547714], [-0.15020860731601715, -0.07730880379676819], [0.174740269780159, 0.04985317587852478], [-0.14750374853610992, -0.040043964982032776], [0.03789578005671501, -0.014846625737845898], [-0.014300316572189331, -0.24187856912612915], [-0.007405248936265707, -0.1325947493314743], [0.1598859429359436, -0.08647791296243668], [0.3079899847507477, -0.0338757187128067], [0.002153321634978056, 0.10988692939281464], [-0.34303656220436096, -0.048919595777988434], [0.13090696930885315, -0.05036246031522751], [0.1578916758298874, -0.055170152336359024], [-0.20747502148151398, 0.0368158258497715], [-0.03391293063759804, 0.09649189561605453], [-0.05722583457827568, -0.038876231759786606], [0.14804288744926453, 0.018150661140680313], [-0.1584000438451767, -0.0772114098072052], [0.16326084733009338, 0.032054293900728226], [0.20235560834407806, -0.07591582089662552], [0.11980099231004715, 0.15365538001060486], [0.06903880834579468, 0.026403438299894333], [-0.0760689452290535, 0.06282424926757812], [0.07648029178380966, 0.059648994356393814], [-0.1250487118959427, 0.0445389561355114], [0.1605561375617981, 0.021224582567811012], [-0.2943875789642334, 0.04065290838479996], [0.10906624048948288, 0.1532624363899231], [-0.04812410846352577, 0.06884291768074036], [-0.022829798981547356, 0.025659862905740738], [0.07676899433135986, -0.024613957852125168], [0.04101652279496193, 0.028849514201283455], [0.038160450756549835, -0.09852170199155807], [0.20398378372192383, 0.0873696580529213], [-0.3210553228855133, -0.034371037036180496], [-0.11932417750358582, 0.06131675839424133], [0.18377067148685455, 0.01844450645148754], [0.1554526537656784, 0.09210193157196045], [0.027118414640426636, 0.10510403662919998], [-0.2500224709510803, -0.021904150024056435], [-0.251435250043869, -0.04020598530769348], [0.09640949219465256, 0.075835220515728], [0.09356945008039474, -0.09953996539115906], [-0.20475180447101593, 0.10078723728656769], [0.24781158566474915, 0.020408453419804573], [0.24522092938423157, 0.10448772460222244], [-0.2538091540336609, -0.11807134002447128], [0.24151748418807983, -0.019062040373682976], [-0.13815706968307495, -0.011511576361954212], [0.15001003444194794, -0.015593179501593113], [0.19468416273593903, 0.055250197649002075], [0.21849775314331055, 0.08327927440404892], [-0.24185006320476532, 0.10859200358390808], [-0.0832565426826477, -0.18973541259765625], [0.04166821390390396, -0.10294148325920105], [-0.15543252229690552, -0.10323721170425415], [-0.08120540529489517, 0.08438120782375336], [-0.011894079856574535, 0.02049834467470646], [0.009216359816491604, -0.06316079944372177], [0.13953018188476562, 0.02177606336772442], [-0.096725694835186, 0.011455410160124302], [0.30302372574806213, -0.11642098426818848], [0.042950209230184555, -0.06821617484092712], [0.017379725351929665, 0.04091900587081909], [-0.08135451376438141, 0.13279613852500916], [-0.03592324256896973, 0.009258568286895752], [-0.007815931923687458, -0.07160148024559021], [0.18992239236831665, 0.12303013354539871], [0.07944958657026291, 0.059911251068115234], [-0.08838779479265213, 0.036358729004859924], [-0.017302758991718292, 0.003845428116619587], [-0.051872629672288895, 0.007584720384329557], [0.22155176103115082, 0.08959202468395233], [-0.13185052573680878, -0.026746144518256187], [-0.09162849932909012, -0.002378628356382251], [-0.010070144198834896, -0.11183740198612213], [0.05397218093276024, 0.17916008830070496], [0.04658021777868271, -0.058963291347026825], [0.13665436208248138, -0.056812603026628494], [-0.1514488309621811, 0.01860053278505802], [-0.18332086503505707, 0.051505979150533676], [0.2637384533882141, 0.12505702674388885], [0.1577969640493393, 0.02045264281332493], [0.019890466704964638, -0.027392197400331497], [-0.046689607203006744, 0.017154354602098465], [0.07336005568504333, -0.010395725257694721], [0.024441830813884735, 0.009410292841494083], [-0.0048667145892977715, 0.16840066015720367], [0.007191446144133806, 0.08780012279748917], [0.018897684291005135, -0.036456286907196045], [0.18408937752246857, -0.12355516105890274], [0.3134740889072418, -0.02200360968708992], [-0.0652768462896347, 0.10378046333789825], [-0.059101402759552, 0.09031650424003601], [-0.20698024332523346, 0.06035787612199783], [-0.03404353931546211, -0.034802213311195374], [0.032910704612731934, -0.014774154871702194], [-0.09852802753448486, 0.041246358305215836], [0.09233192354440689, 0.11006832122802734], [0.03217936307191849, -0.03126455470919609]], "rec.weight_hh_l0": [[-0.10819502174854279, 0.018390169367194176, -0.020149661228060722, 0.15939022600650787, -0.29202935099601746, -0.02200837805867195, 0.1664055436849594, -0.295126348733902, -0.18739637732505798, -0.006519112270325422, -0.006589548196643591, -0.02709311805665493, -0.1880512833595276, -0.005041520111262798, -0.03880966827273369, 0.0031582494266331196, 0.15041084587574005, 0.0757891982793808, -0.0034864565823227167, 0.006945657078176737, 0.022074149921536446, 0.09733470529317856, 0.04972108453512192, -0.02112729847431183, -0.07284457236528397, -0.012276669032871723, -0.022436531260609627, 0.07162484526634216, -0.07052931189537048, -0.052525147795677185, -0.037620432674884796, 0.004825622774660587, -0.05299895629286766, -0.036374203860759735, -0.0009740172536112368, 0.14028812944889069, -0.05805898830294609, 0.06329604983329773, -0.02330450713634491, 0.03686485439538956, -0.04331955686211586, -0.07266945391893387, 0.4257547855377197, -0.04752117767930031, 0.07658547163009644, -0.1130862608551979, -0.10853210091590881, 0.02867247723042965], [0.015453828498721123, 0.006553972605615854, 0.013975364156067371, 0.049388326704502106, -0.03104824386537075, 0.05624235048890114, 0.08942721039056778, -0.04824931174516678, 0.004193328786641359, 0.060145024210214615, -0.027307948097586632, -0.03279520943760872, 0.017084484919905663, 0.008733754977583885, 0.005494107026606798, 0.027976125478744507, -0.01612302102148533, 0.0046631223522126675, -0.005036016460508108, 0.0029018083587288857, -0.016849897801876068, 0.08488896489143372, -0.02114681527018547, -0.012674740515649319, -0.104451023042202, 0.0006862895679660141, -0.009143762290477753, 0.06250761449337006, 0.042003218084573746, -0.02401365526020527, 0.04402131587266922, 0.00391205120831728, 0.0013818859588354826, 0.005942868068814278, -0.0030767761636525393, 0.019324366003274918, -0.00750069972127676, -0.019765594974160194, -0.058633994311094284, 0.030549190938472748, 0.011157014407217503, -0.005621738266199827, 0.03669571876525879, 0.004596023354679346, 0.02989307790994644, 0.003934173379093409, -0.037529356777668, -0.02365894615650177], [0.0012138262391090393, 0.0015560573665425181, 0.010020941495895386, 0.03974589332938194, 0.010770272463560104, 0.020470989868044853, -0.011246031150221825, -0.008462791331112385, 0.024108238518238068, -0.0013042216887697577, -0.0038840414490550756, -0.019274553284049034, 0.008260265924036503, 0.0030147198121994734, -8.027797593967989e-05, 0.02501995489001274, -0.003392786020413041, 0.0009736319188959897, -0.004358192440122366, -0.005993105471134186, -0.0338611826300621, 0.020854132249951363, -0.0246588122099638, -0.006184007041156292, -0.03158557042479515, -0.0011685449862852693, 0.005758335348218679, 0.01596328429877758, 0.030369509011507034, -0.004888738039880991, 0.003123322268947959, -0.0004292771336622536, -0.00047639248077757657, 0.0010316373081877828, -0.00595242390409112, -0.004408890847116709, -0.0036419250536710024, 0.025545615702867508, 0.014447354711592197, 0.011295625008642673, 0.027028581127524376, 0.020602326840162277, -0.014480303972959518, 0.0035593698266893625, -0.0035263102035969496, 0.010550690814852715, -0.001846904749982059, 0.020650606602430344], [-0.07352541387081146, -0.0022101099602878094, -0.009568218141794205, -0.12124251574277878, -0.050200581550598145, 0.016647590324282646, -0.051970504224300385, 0.038233038038015366, -0.021657411009073257, -0.12666963040828705, 0.0010187196312472224, 0.01556168682873249, 0.06354022771120071, 0.014829134568572044, -0.03243095800280571, -0.03394462913274765, 0.019421974197030067, 0.050375934690237045, -0.01573367603123188, -0.07083029299974442, -0.01861080527305603, -0.006847120355814695, 0.030214697122573853, -0.03466365858912468, 0.049164772033691406, 0.011809521354734898, 0.0538545697927475, -0.08045197278261185, -0.09299647808074951, -0.0065649086609482765, -0.013985100202262402, -0.011439471505582333, 0.0060253143310546875, 0.042977869510650635, -0.00997632835060358, 0.023964649066329002, -0.0015906441258266568, -0.1304435431957245, 0.1884857565164566, -0.1963842362165451, 0.06268316507339478, -0.04234679788351059, 0.020948026329278946, -0.019729118794202805, 0.000941225269343704, 0.013741561211645603, -0.03468699753284454, -0.005928181577473879], [0.03712782636284828, -0.03609670326113701, 0.009668382816016674, -0.0017599562415853143, -0.09817811101675034, 0.035011112689971924, 0.07958830893039703, -0.018924562260508537, 0.01477567944675684, 0.10604765266180038, 0.018369268625974655, -0.07505649328231812, -0.18259590864181519, 0.01085764542222023, 0.009282608516514301, 0.11089102178812027, -0.028523053973913193, -0.014284497126936913, -0.02385515347123146, 0.02488052472472191, -0.13386395573616028, 0.00938617903739214, -0.016320735216140747, 0.006751736160367727, -0.10515614598989487, 0.006557599175721407, -0.019385596737265587, -0.014165179803967476, 0.10162397474050522, -0.052392829209566116, 0.09009308367967606, 0.04756559431552887, 0.0038606268353760242, 0.010425475426018238, 0.002541052643209696, 0.08663526177406311, 0.08126761764287949, 0.017404014244675636, -0.03187937289476395, 0.03996038809418678, 0.11158566176891327, -0.014439033344388008, -0.02734105847775936, -0.02694227360188961, 0.00978354923427105, 0.028760401532053947, -0.04430590942502022, 0.012272503226995468], [0.040736015886068344, -0.00037194634205661714, 0.019755877554416656, 0.15464648604393005, -0.08954567462205887, -0.1951557844877243, 0.10004375874996185, -0.06844086945056915, 0.10580471903085709, 0.015339945442974567, 0.017451100051403046, -0.08131460845470428, -0.1488729864358902, 0.024534262716770172, -0.10311687737703323, 0.06606853008270264, 0.014528870582580566, 0.023831944912672043, -0.055060602724552155, -0.03980521857738495, -0.07222120463848114, -0.11914967745542526, 0.013222110457718372, -0.046399835497140884, -0.07127438485622406, 0.017064714804291725, 0.081873819231987, 0.1294882595539093, -0.06987293064594269, -0.07752374559640884, 0.050963666290044785, -0.0016848111990839243, -0.014085112139582634, -0.030514925718307495, -0.007651513442397118, 0.04049351438879967, 0.013262247666716576, -0.016530755907297134, 0.09124042838811874, -0.02895340323448181, 0.1197957992553711, 0.015418009832501411, -0.06774201989173889, 0.020485177636146545, 0.03469496965408325, -0.0178932324051857, -0.03559572622179985, 0.0219799242913723], [0.2880129814147949, -0.1492675393819809, 0.03280787542462349, 0.07685631513595581, 0.0353044755756855, -0.10049670189619064, -0.2523042857646942, -0.09232122451066971, 0.17355212569236755, 0.2796812057495117, 0.05693785473704338, -0.08925521373748779, -0.20702233910560608, -0.021289218217134476, -0.016994301229715347, 0.016673998907208443, -0.031506530940532684, 0.13247890770435333, -0.10056669265031815, -0.011470065452158451, -0.2205648422241211, -0.02028837613761425, 0.060653943568468094, 0.005543029401451349, -0.025951817631721497, 0.011095581576228142, 0.06349625438451767, 0.05646846443414688, -0.15448646247386932, -0.0169454887509346, 0.11473016440868378, 0.02575482614338398, 0.0028608848806470633, -0.05121083930134773, 0.0002647839719429612, -0.02630205824971199, 0.051900263875722885, 0.02482401393353939, 0.007618508767336607, 0.39919036626815796, 0.08676441013813019, -0.04965880885720253, -0.26676687598228455, 0.029535599052906036, -0.015503376722335815, -0.10745120793581009, -0.03029150702059269, 0.054507989436388016], [0.17834889888763428, -0.0074083274230360985, -0.01181175746023655, -0.0950276181101799, 0.06866560131311417, 0.034323446452617645, -0.10819966346025467, 0.06116335093975067, 0.07961463183164597, 0.2290668785572052, -0.015133209526538849, -0.074149489402771, 0.014381448738276958, -0.010712786577641964, 0.06401846557855606, -0.15446174144744873, 0.014116507023572922, 0.07612237334251404, 0.0003550565743353218, 0.017121315002441406, 0.13446184992790222, 0.06946835666894913, -0.08463522046804428, 0.016064954921603203, 0.13336975872516632, 0.008742223493754864, -0.13572688400745392, 0.001185647095553577, 0.04487920179963112, -0.22196850180625916, 0.09103508293628693, -0.028537051752209663, 0.018967116251587868, -0.03566410019993782, 0.018639875575900078, 0.016989605501294136, -0.043524887412786484, -0.05557432770729065, -0.17528623342514038, 0.267240434885025, 0.016381025314331055, 0.12334604561328888, -0.04141774773597717, 0.01650959998369217, 0.05310197174549103, -0.003823495702818036, -0.03490396589040756, -0.1781609207391739], [-0.13577453792095184, -0.024238578975200653, 0.012422192841768265, 0.02864021249115467, -0.1993701457977295, 0.016141731292009354, 0.2658141851425171, -0.1249053031206131, 0.002780758310109377, 0.07636839151382446, -0.0022694941144436598, -0.08893309533596039, -0.09597671031951904, 0.0017751308623701334, -0.012405776418745518, -0.057585421949625015, 0.06716288626194, 0.03224383667111397, 0.015816975384950638, -0.027171004563570023, -0.1094534695148468, 0.06288567930459976, 0.15092000365257263, -0.025783613324165344, 0.027469374239444733, 0.011028912849724293, 0.03214339166879654, 0.00023005067487247288, -0.026407187804579735, -0.01194814220070839, 0.021205546334385872, 0.027233140543103218, -0.006161240395158529, -0.07127127796411514, 0.0006884817266836762, 0.04319833219051361, 0.004456991795450449, 0.02809748239815235, 0.03349696844816208, -0.00693884864449501, 0.08317827433347702, -0.07459650188684464, 0.2279128134250641, -0.0142983328551054, 0.0205947645008564, -0.022795557975769043, -0.060877297073602676, 0.002525610849261284], [0.04959307238459587, 0.01526146475225687, -0.008585482835769653, 0.08530840277671814, 0.016458185389637947, -0.004678336903452873, -0.01239800825715065, 0.0007832122500985861, -0.003808534936979413, -0.1270955204963684, 0.006786576937884092, -0.09859269857406616, 0.1068643182516098, 0.0014029673766344786, -0.009334726259112358, -0.02780016139149666, 0.0257263220846653, 0.03816359117627144, -0.003087742254137993, 0.04124658182263374, -0.1301366239786148, 0.09957617521286011, -0.12261830270290375, 0.005787847563624382, -0.0782795324921608, 0.0026867184787988663, -0.008955980651080608, 0.026693593710660934, 0.01989215612411499, 0.09806320071220398, -0.11336785554885864, 0.011532273143529892, -0.013914067298173904, 0.0675843358039856, -0.009137897752225399, -0.0534144826233387, -0.002639732789248228, 0.07837579399347305, 0.04402569308876991, -0.07880109548568726, 0.005150225013494492, 0.018912173807621002, -0.10800469666719437, 0.0019028846872970462, -0.026604726910591125, 0.01627344638109207, -0.014042799361050129, -0.01155927125364542], [0.018000751733779907, 0.02602488547563553, 0.0012548323720693588, 0.030169272795319557, 0.026719562709331512, -0.013218605890870094, -0.004707127809524536, -0.002594093792140484, 0.0015432648360729218, -0.02800609916448593, 0.0029636449180543423, -0.010883541777729988, 0.06061535328626633, 0.0006963614723645151, 0.00044302010792307556, 0.0032559295650571585, -0.0009287901921197772, 0.031994909048080444, -0.0005815748590976, 0.0352705754339695, 0.04713040590286255, 0.004757451359182596, -0.024225978180766106, -0.004991940688341856, -0.047773346304893494, -0.0005332260625436902, -0.011892193928360939, 0.004813083913177252, 0.006357965990900993, 0.013459792360663414, -0.007393555715680122, -0.016674401238560677, -0.00046650099102407694, 0.0010820769239217043, -0.0012264519464224577, -0.005304805934429169, -0.002268662676215172, 0.023112697526812553, -0.00935195293277502, 0.0018945476040244102, 0.003066853852942586, -0.006016910541802645, -0.010749724693596363, 0.004165089689195156, -9.818809485295787e-05, 0.00372045929543674, -0.002606090623885393, 0.016295695677399635], [-0.11248866468667984, 0.03050951100885868, -0.008710629306733608, -0.034389011561870575, -0.08034767210483551, -0.09923358261585236, 0.026756156235933304, 0.011110981926321983, -0.0788252204656601, -0.029483860358595848, 0.013383794575929642, 0.10482367873191833, 0.010763236321508884, 0.0006447109044529498, -0.0069267298094928265, -0.04039020463824272, -0.005463109817355871, 0.05863437429070473, 0.0053022014908492565, -0.02001785673201084, -0.05799185484647751, -0.07887294888496399, 0.053035397082567215, -0.038713064044713974, 0.0045032198540866375, 0.009324893355369568, 0.03328501805663109, -0.061395201832056046, -0.09359093010425568, -0.0418553426861763, -0.0025799814611673355, 0.0021504005417227745, -0.02805609442293644, -0.07686362415552139, -0.0008154361858032644, 0.004018781241029501, 0.020574413239955902, -0.09565072506666183, 0.058442115783691406, 0.017858635634183884, 0.025318924337625504, -0.04813840240240097, 0.09649283438920975, -0.026364225894212723, 0.08484352380037308, 0.04568885266780853, -0.04609308019280434, 0.00977554451674223], [0.24964933097362518, -0.043306365609169006, -0.03900350257754326, 0.02902226150035858, -0.15353602170944214, 0.07732576131820679, 0.013104688376188278, -0.09319133311510086, 0.033762723207473755, 0.22064948081970215, 0.008005128242075443, -0.15596893429756165, -0.08368729799985886, 0.004249554127454758, -0.014950290322303772, 0.059085529297590256, 0.00218235538341105, 0.11906746029853821, -0.010679666884243488, -0.05279916524887085, -0.10772589594125748, 0.08694321662187576, -0.08918255567550659, 0.027755405753850937, -0.1452832967042923, -0.0007044589146971703, -0.0271622184664011, 0.0918751060962677, 0.11489987373352051, 0.039200060069561005, 0.2532203495502472, 0.024946244433522224, -0.026362711563706398, -0.01908927969634533, 0.036503296345472336, 0.09891711175441742, 0.05073007941246033, 0.061316464096307755, -0.040199410170316696, 0.03067786432802677, 0.11138436943292618, 0.08155686408281326, 0.011244109831750393, -0.035793960094451904, 0.0641997903585434, 0.04975694790482521, -0.08296816051006317, 0.03743239492177963], [0.0033055548556149006, -0.0007137405918911099, -0.0008628447540104389, -0.0014901601243764162, 0.002233194885775447, -0.0003743535198736936, -0.011430892162024975, 0.007236517500132322, 0.0022249137982726097, -0.015661947429180145, 0.0013436897424980998, -0.0045790234580636024, 0.009436314925551414, 1.5618330508004874e-05, 0.0003150012926198542, -0.006792743690311909, -0.0016642342088744044, 0.0003367424360476434, 0.0002783968229778111, 0.0028734973166137934, 0.005225531756877899, 0.005516699980944395, -0.0032022232189774513, 0.0015938951401039958, -0.003126049181446433, -0.0003715594648383558, 0.0021088309586048126, 0.00015299569349735975, 0.0049551911652088165, 0.0004108781286049634, 0.0035310531966388226, 0.0008317777537740767, -0.0004088236019015312, -0.0005016980576328933, -9.179397602565587e-05, -0.003639637026935816, 0.0015255229081958532, -0.0011780605418607593, -0.00018919934518635273, 0.007031499873846769, 0.00657923286780715, 0.0028191478922963142, -0.004591990262269974, -0.001533139031380415, -0.0006709537701681256, 0.0029342060443013906, -9.132576815318316e-05, -0.010540811344981194], [0.10117221623659134, 0.0006485636695288122, -0.00015170793631114066, 0.11570923030376434, 0.030539503321051598, 0.05381285771727562, -0.057119742035865784, 0.0005594332469627261, 0.05327853560447693, 0.005824990104883909, 0.0007358493166975677, -0.11887610703706741, 0.006925827823579311, -0.0005657931906171143, -0.0036946909967809916, 0.022331219166517258, 0.028047408908605576, 0.014808486215770245, -0.004680506885051727, 0.00559522258117795, 0.0062466831877827644, 0.1446770280599594, -0.05650351569056511, -0.00313761574216187, -0.02389540523290634, -0.00020338210742920637, -0.0038025614339858294, 0.09311353415250778, 0.061224013566970825, -0.02393196150660515, -0.001013449509628117, 0.0006539241876453161, -0.006856932770460844, 0.047924336045980453, -0.0009989539394155145, -0.00348940072581172, -0.02466565929353237, -0.02653707005083561, -0.011058834381401539, 0.023372601717710495, 0.07856393605470657, 0.15201765298843384, -0.026029713451862335, 0.006910302210599184, 0.010726823471486568, 0.026167917996644974, -0.02146954834461212, -0.021534228697419167], [0.0643039420247078, -0.015693187713623047, 0.018721595406532288, -0.089877650141716, 0.0425911583006382, 0.06154056638479233, 0.026429004967212677, 0.034813765436410904, -0.07388652861118317, 0.021273480728268623, -0.027109939604997635, 0.1053975522518158, -0.057321853935718536, 0.01921537145972252, 0.0012984503991901875, 0.03131644055247307, -0.01660892739892006, 0.002876363694667816, 0.0076188817620277405, -0.07760222256183624, -0.16939130425453186, 0.03229232132434845, 0.08451822400093079, -0.04237505793571472, 0.030899101868271828, 0.01556140836328268, 0.06960804760456085, -0.09050850570201874, 0.04097737371921539, 0.043314378708601, 0.03796481713652611, -0.025006823241710663, -0.02670937404036522, 0.043610792607069016, -0.0013456762535497546, 0.038212552666664124, 0.025465521961450577, 0.11639884859323502, 0.1450084149837494, -0.1913706362247467, 0.05400826781988144, -0.10550573468208313, -0.009306812658905983, -0.037200815975666046, 0.029890453442931175, -0.060611166059970856, 0.06253496557474136, 0.06379631161689758], [0.10707127302885056, -0.012132184579968452, -0.007103598210960627, 0.09034451842308044, 0.02303239144384861, -0.06421946734189987, -0.11296270042657852, 0.019537758082151413, -0.00896033551543951, 0.012140616774559021, 0.005524232983589172, 0.02421608380973339, -0.0028187097050249577, -0.005347137805074453, -0.0029907277785241604, 0.002740994095802307, 0.0017036598874256015, -0.012302080169320107, -0.007626454345881939, 0.00404010945931077, 0.02984519861638546, -0.07028767466545105, -0.004013526253402233, 0.002008448587730527, 0.018652476370334625, -0.0005405556294135749, 0.01399252563714981, 0.061231911182403564, -0.019726306200027466, 0.027338683605194092, -0.008345278911292553, 0.014235937967896461, 0.009280622936785221, -0.019595105201005936, 0.0029457444325089455, -0.043432727456092834, 0.03241267427802086, 0.026019051671028137, 0.029344908893108368, 0.03366689383983612, 0.03388269245624542, -0.05105450376868248, -0.03254124894738197, 0.006938075181096792, -0.004854046739637852, 0.08804888278245926, -0.00393367325887084, -0.019231675192713737], [0.0016973098972812295, 0.010832738131284714, -0.002263489877805114, -0.017474429681897163, 0.006241013295948505, -0.04589402303099632, 0.015783142298460007, 0.015876155346632004, -0.010783888399600983, -0.00895625352859497, -0.00013154516636859626, -0.011232598684728146, 0.0647033154964447, 0.0002306384121766314, -0.0013485229574143887, -0.006292883772403002, 0.010785084217786789, 0.005891779437661171, 0.0023034086916595697, 0.026727641001343727, 0.0024231248535215855, -0.0018911685328930616, 0.015718983486294746, -0.0006594920996576548, -0.017376607283949852, 0.000736115500330925, -0.003585223341360688, -0.006709095556288958, -0.024419240653514862, 0.005441215354949236, -0.003366365795955062, 0.0006935998098924756, -0.0020897018257528543, 0.004799492657184601, -0.002092091366648674, -0.013860567472875118, -0.007701536640524864, 0.004618857987225056, 0.012862075120210648, -0.0501607283949852, -0.00942199770361185, -0.021660199388861656, -0.0015568925300613046, -0.003797621699050069, 0.0037320726551115513, 0.015973396599292755, 7.268243643920869e-05, -0.0418783575296402], [0.01083864364773035, -0.0009116975707001984, 0.0002473474887665361, 0.011856568045914173, -0.05871947854757309, 0.049532450735569, 0.03814049810171127, -0.025620456784963608, -0.004760378040373325, -0.01087726280093193, -0.00965188443660736, 0.03325564041733742, -0.0040675983764231205, 4.805849675904028e-05, 7.7209633673192e-06, -0.0451318584382534, 0.019169265404343605, -0.022676020860671997, 0.0008545807795599103, -0.001212933799251914, -0.0598580427467823, 0.00125509116332978, -0.04647507518529892, -0.0063441358506679535, 0.053457971662282944, 0.00029852078296244144, 0.002728257095441222, 0.06195053085684776, 0.04597289115190506, 0.006134162191301584, 0.0007845810032449663, -0.00206545926630497, 0.0023135158699005842, 0.035867590457201004, -0.00021644801017828286, 0.025131970643997192, -0.025613265112042427, 0.024328092113137245, 0.004671559669077396, 0.0015725991688668728, 0.02255862019956112, -0.035476114600896835, -0.022772008553147316, 0.032201360911130905, 0.0064867353066802025, 0.0035721976310014725, -0.04122496023774147, -0.008653116412460804], [0.09784074127674103, -0.013274976052343845, 9.443862654734403e-05, 0.04780152067542076, 0.01964075304567814, 0.023783018812537193, -0.0056054117158055305, -0.026262735947966576, 0.03787367418408394, 0.04244903102517128, -0.003326995298266411, -0.08131387829780579, -0.02214754931628704, -0.000676330819260329, 0.0001655319647397846, -0.021810462698340416, 0.001001737779006362, 0.027239486575126648, -0.003148117335513234, 0.005784277804195881, -0.03656661510467529, 0.0737868919968605, -0.0406075194478035, 0.0007039063493721187, -0.16628022491931915, 0.00039935740642249584, 0.018890107050538063, 0.06237111613154411, 0.005497141275554895, -0.004805257078260183, 0.043185219168663025, -0.019560836255550385, 0.0005465765716508031, 0.012444082647562027, 0.0018336245557293296, 0.007994689978659153, -0.001159230130724609, 0.08831487596035004, -0.0023109347093850374, 0.08664646744728088, 0.029754938557744026, 0.02494741417467594, -0.09471947699785233, 0.006734839174896479, 0.02026103064417839, 0.0008372364100068808, -0.008779655210673809, 0.006993332877755165], [-0.013257049955427647, 0.016667872667312622, 0.013212024234235287, -0.126624196767807, -0.03884488344192505, -0.1604103296995163, -0.16771896183490753, 0.062201566994190216, 0.03255825489759445, 0.08159142732620239, 0.02061476930975914, 0.01636509783565998, 0.07858794927597046, -0.008409537374973297, 0.021538373082876205, -0.01488005556166172, 0.013975048437714577, -0.0191856250166893, 0.008594202809035778, -0.04247141256928444, -0.12428287416696548, -0.09980381280183792, 0.025601442903280258, 0.04384680837392807, -0.00585933867841959, 0.012260677292943, 0.0395958311855793, -0.050112854689359665, -0.07367975264787674, 0.08504276722669601, -0.020652705803513527, 0.02628028765320778, 0.016529493033885956, -0.05927461385726929, 0.006399768870323896, -0.05086342617869377, -0.0371592715382576, -0.022310325875878334, 0.0191402118653059, 0.05338810756802559, 0.13113786280155182, -0.033830512315034866, 0.00661009456962347, 0.05115674436092377, -0.060204118490219116, -0.04004164785146713, 0.02478782646358013, 0.03506777435541153], [-0.010178390890359879, -0.010903704911470413, 0.003596915164962411, -0.05267947539687157, -0.15294484794139862, -0.09467873722314835, 0.1801965981721878, -0.0013815484708175063, -0.07391232997179031, -0.06637535989284515, 0.0040808143094182014, -0.01271155197173357, -0.06095937639474869, 0.008114694617688656, -0.04449670761823654, 0.06772714853286743, 0.07334231585264206, 0.023059144616127014, -0.038851529359817505, -0.011852758936583996, -0.17340223491191864, 0.003183801891282201, 0.013627280481159687, -0.01929689384996891, -0.014487791806459427, 0.038250189274549484, 0.06695394217967987, 0.10134091228246689, 0.01923317462205887, 0.020885683596134186, 0.005664515774697065, 0.041001096367836, 0.0004957225173711777, 0.01981835812330246, -0.003915130626410246, 0.007605805993080139, 0.00961398333311081, 0.14308783411979675, 0.13535571098327637, -0.04924682527780533, 0.033918917179107666, 0.06670995056629181, 0.08568939566612244, 0.05262894183397293, 0.1582268327474594, 0.036700572818517685, -0.07516829669475555, 0.017004506662487984], [-0.04846758395433426, -0.010357702150940895, 0.017304109409451485, 0.008388258516788483, -0.017438780516386032, -0.12999707460403442, 0.211306631565094, -0.06764071434736252, -0.109669029712677, -0.011586661450564861, -0.0018307821592316031, -0.08369132876396179, -0.1031472310423851, -0.00017890939489006996, -0.05132710561156273, 0.08948194235563278, 0.08081358671188354, -0.03350759670138359, -0.013928496278822422, 0.025362614542245865, -0.05306772515177727, 0.05007726699113846, 0.11629404127597809, -0.026142621412873268, 0.016900453716516495, -0.008993713185191154, 0.0056983111426234245, 0.02610110491514206, -0.002493977779522538, 0.08607976883649826, -0.0053975535556674, 0.024436870589852333, 0.03930032253265381, -0.06924384087324142, -0.010081013664603233, 0.08423948287963867, -0.014001479372382164, -0.018833134323358536, 0.1226363256573677, -0.08060327917337418, -0.04653908684849739, 0.039539869874715805, 0.12583062052726746, 0.046686988323926926, -0.00432807020843029, -0.11962530016899109, 0.04942329227924347, 0.08621629327535629], [0.039287399500608444, 0.006122092250734568, 0.0029375236481428146, -0.01667456142604351, 0.012541544623672962, -0.012509869411587715, -0.009922432713210583, 0.0007950100116431713, 0.010184021666646004, -0.02405509166419506, -0.0035838487092405558, -0.038555823266506195, 0.02031354233622551, 0.0012570458929985762, 0.0017513534985482693, -0.007725157774984837, -0.00057590490905568, 0.007197739090770483, -0.001894141430966556, 0.013494172133505344, 0.02255186066031456, 0.014170405454933643, -0.013042978942394257, -0.0019089257111772895, 0.022435259073972702, -0.0015101456083357334, -0.0010518503841012716, 0.025340979918837547, 0.019761638715863228, -0.035928841680288315, -0.00016240106197074056, -0.00926238764077425, -0.00019341486040502787, 0.005107121076434851, -0.0029382319189608097, -0.01246950775384903, -0.00033343047834932804, 0.009504027664661407, 0.008860889822244644, 0.02761686220765114, 0.00144714314956218, 0.011906479485332966, -0.006587035953998566, 0.0012478734133765101, 0.0030734282918274403, 0.003500184742733836, -0.0018456969410181046, -0.03181411325931549], [-0.07108282297849655, 0.0069850143045187, -0.12730200588703156, -0.15071843564510345, 0.00367082841694355, -0.2952682375907898, -0.08438737690448761, 0.22709588706493378, -0.06769095361232758, 0.04803300276398659, -0.010313693434000015, -0.04441719129681587, -0.06142614409327507, -0.02258865348994732, -0.08844854682683945, -0.03455067798495293, -0.034301284700632095, 0.16128100454807281, 0.017188785597682, 0.07406632602214813, 0.13440579175949097, -0.14171041548252106, -0.05421524867415428, 0.02706545777618885, -0.08967165648937225, -0.016003096476197243, 0.18813574314117432, 0.02819686383008957, -0.08164005726575851, -0.036625612527132034, 0.18488696217536926, -0.061559710651636124, 0.03366774320602417, -0.09523450583219528, 0.01900089718401432, 0.06062553822994232, -0.014485453255474567, 0.04342985153198242, 0.11162547022104263, 0.1317380964756012, 0.030180852860212326, -0.06420360505580902, 0.06777872890233994, -0.0045702806673944, -0.023038225248456, -0.10605151951313019, -0.010241874493658543, -0.13473528623580933], [0.018257981166243553, 0.0026410745922476053, 0.0018110655946657062, 0.01904468610882759, 0.012218290939927101, 0.00907793641090393, 0.002711197128519416, -0.009478947147727013, 0.0022041997872292995, 0.028366312384605408, -0.001413771533407271, -0.019488785415887833, 0.022849276661872864, 0.0015624515945091844, -0.0006421850412152708, -0.0023751382250338793, 0.0005623219185508788, 0.009647459723055363, -0.0009541508043184876, 0.007499668747186661, -0.015644267201423645, 0.0292795542627573, 0.005743693094700575, -0.004566394258290529, -0.013679095543920994, 0.0022824339102953672, -0.008274134248495102, 0.01925184763967991, 0.003280182834714651, -0.04180536046624184, 0.014972186647355556, -0.0017919022357091308, -0.0002650919195730239, 0.0017594012897461653, -0.0018665939569473267, -0.011869290843605995, 0.0018484753090888262, -0.008913502097129822, -0.0259743370115757, 0.04936690628528595, 0.009649133309721947, 0.005238228011876345, -0.020811030641198158, 0.0016282052965834737, 0.0060753352008759975, -0.005521063227206469, -0.012949849478900433, -0.015784038230776787], [0.0018789512105286121, 0.0629010871052742, -0.0002831981983035803, 0.04924645274877548, 0.0539744570851326, 0.02333122305572033, -0.058145344257354736, -0.014000634662806988, 0.004795551300048828, -0.12431912124156952, -0.025988055393099785, -0.0604773685336113, 0.07319832593202591, -0.00360987801104784, -0.002048614202067256, 0.054763346910476685, 0.015762556344270706, 0.009036890231072903, -0.005453260149806738, -0.02263087034225464, -0.14795291423797607, 0.03128829598426819, -0.10536719113588333, 0.0105366762727499, -0.14441673457622528, -0.0059175919741392136, 0.0017414108151569963, 0.024554848670959473, -0.02596781589090824, 0.07308364659547806, -0.04471432417631149, 0.02786869741976261, -0.002896233694627881, 0.022921985015273094, -0.007183272857218981, -0.033449798822402954, -0.02168009802699089, 0.09789938479661942, 0.059020645916461945, -0.01706094667315483, 0.08182092010974884, 0.027532845735549927, -0.07991539686918259, 0.005928094033151865, -0.022027164697647095, 0.01888744905591011, -0.014402247034013271, 0.08803263306617737], [0.07644198089838028, 0.021024148911237717, -0.002240000059828162, -0.0808149203658104, 0.03472089394927025, -0.07388553768396378, 0.004275249782949686, 0.036982256919145584, -0.042719654738903046, 0.019848007708787918, 0.00033517429255880415, 0.025672217831015587, 0.014525322243571281, -0.0005751817370764911, -0.0084428945556283, -0.05858376622200012, 0.04825146496295929, 0.06443469226360321, -0.01857377216219902, 0.06939338147640228, 0.07394012063741684, -0.011602611280977726, 0.04251937195658684, 0.0037570896092802286, -0.022671421989798546, 2.6629073545336723e-05, 0.004901510197669268, 0.005616288632154465, -0.09032784402370453, 0.008440383709967136, 0.003794386750087142, 0.02358892746269703, -0.0347326397895813, -0.04452618584036827, -0.0011372900335118175, 0.013890642672777176, 0.015794429928064346, 0.03476216271519661, 0.02537672594189644, 0.02619071491062641, 0.0016214869683608413, -0.17247742414474487, 0.008514330722391605, -0.05587270110845566, -0.009461277164518833, 0.011533373035490513, -0.03662624955177307, -0.08105853199958801], [0.07744956761598587, 0.0541582852602005, -0.0032966844737529755, 0.06328228116035461, -0.24948681890964508, -0.06268373131752014, 0.12143339961767197, -0.19367054104804993, -0.12865197658538818, 0.010155841708183289, -0.0017941463738679886, -0.01889529451727867, -0.0928620770573616, -0.002591826021671295, -0.06139088049530983, 0.009803971275687218, 0.11691222339868546, -0.0013579328078776598, 0.010950432159006596, -0.004612198565155268, -0.19400981068611145, -0.10891615599393845, 0.11393698304891586, -0.03689160197973251, -0.14251741766929626, -0.0003470697265584022, 0.07324995845556259, 0.06027291715145111, -0.2604248523712158, -0.061815883964300156, 0.018787870183587074, 0.0004201344563625753, -0.06304409354925156, 0.045819010585546494, -0.004110618028789759, 0.07266178727149963, 0.0041130054742097855, -0.04427509009838104, 0.10571227967739105, 0.012860803864896297, 0.0373520627617836, -0.10390570014715195, 0.08179977536201477, 0.0406559482216835, 0.06566662341356277, -0.061503347009420395, -0.04806547239422798, -0.006030774675309658], [-0.00776823190972209, 0.022031515836715698, -0.002663073129951954, 0.012472647242248058, 0.13206404447555542, -0.22655484080314636, 0.012063393369317055, 0.04512791708111763, -0.04889536648988724, -0.1738836020231247, 0.00035148882307112217, 0.05482754856348038, 0.08727039396762848, -0.010672650299966335, -0.009795133024454117, -0.020941179245710373, -0.00781699176877737, 0.009508783929049969, -0.01173434779047966, 0.122453972697258, -0.08263085037469864, -0.09063251316547394, 0.006497202441096306, -0.05023792386054993, -0.07609625160694122, -0.0018727334681898355, 0.10809621959924698, -0.0735212117433548, -0.0666607990860939, 0.10449357330799103, -0.06676697731018066, 0.0347101055085659, 0.01058757770806551, -0.029160955920815468, -0.0064313472248613834, -0.04839382693171501, 0.0012920021545141935, -0.0045731752179563046, 0.18114498257637024, -0.11766230314970016, 0.05267484486103058, -0.10043399035930634, 0.000835064216516912, 0.013995951972901821, 0.06700713187456131, 0.026801159605383873, 0.013621769845485687, -0.10886963456869125], [0.06298570334911346, -0.018386391922831535, 0.03264413774013519, -0.06509901583194733, 0.08744707703590393, -0.0424673818051815, -0.092443086206913, 0.046376485377550125, 0.03591775521636009, -0.0006366732995957136, -0.01537051610648632, 0.012471758760511875, 0.11947312206029892, 0.004810668528079987, 0.0059166173450648785, 0.13168898224830627, -0.0007408514502458274, -0.025936691090464592, -0.0008702455670572817, 0.058363281190395355, -0.13366752862930298, 0.0049010044895112514, -0.044305313378572464, 0.00515409279614687, 0.012271982617676258, 0.002319812076166272, 0.10358571261167526, 0.0002084859588649124, -0.03755642846226692, 0.07228751480579376, -0.026121988892555237, -0.020152663812041283, 0.0016377690481022, 0.03651591017842293, -0.017519904300570488, -0.08046600967645645, -0.0037623425014317036, -0.008485889062285423, 0.08301658928394318, -0.045251764357089996, 0.08997578173875809, -0.040282461792230606, -0.10602196305990219, 0.007754343096166849, -0.047005485743284225, 0.04889579489827156, 0.019861042499542236, -0.015036881901323795], [0.03705304488539696, 0.0059885443188250065, 0.0018354515777900815, 0.0053137531504035, 0.005686489399522543, 0.012195113115012646, 0.006829214282333851, -0.0019519696943461895, 0.002522471360862255, -0.005824540741741657, -0.008249369449913502, -0.019992560148239136, 0.07040200382471085, -7.725531759206206e-05, 0.0009995659347623587, -0.03275604918599129, -0.0028470198158174753, 0.00106076430529356, -0.0009030923247337341, 0.050775956362485886, 0.015031477436423302, 0.019739510491490364, -0.0321507602930069, -0.000759291579015553, -0.06306502968072891, -0.00038417178438976407, -0.009500161744654179, 0.031205568462610245, 0.013775484636425972, 0.0006596117746084929, 0.0045289164409041405, -0.005814674776047468, 0.000725902384147048, 0.007215770427137613, -6.985021900618449e-05, -0.043536774814128876, -0.005076785571873188, -0.011991431936621666, 0.012766173109412193, 0.0561738945543766, -0.018169306218624115, 0.010148135013878345, -0.02414516545832157, 0.0006042405730113387, 0.00925842858850956, -0.0009254445903934538, -0.008275237865746021, -0.020512329414486885], [0.01044252049177885, 0.0017061064718291163, 2.5424014893360436e-08, -0.05541984364390373, -0.007870819419622421, 0.044180963188409805, -0.010034292936325073, -0.03860924392938614, -5.151054665475385e-06, 0.0027501119766384363, 0.0004515478212852031, -0.057130809873342514, 0.019913112744688988, 0.00015596020966768265, -0.0012747033033519983, -0.017235826700925827, 0.003186999587342143, 0.0045736259780824184, -0.000608594564255327, -0.00214192271232605, 0.056786514818668365, 0.05010170862078667, -0.0026233037933707237, -0.0036260432098060846, -0.02203216962516308, -8.784632518654689e-05, -0.003266789484769106, 0.08552221208810806, -0.010706956498324871, -0.02770211175084114, 0.004823292139917612, 0.0015487780328840017, -0.003668377874419093, 0.0326361283659935, -0.0001265898026758805, -8.539171176380478e-06, -0.0048351408913731575, 0.040650561451911926, -0.011121307499706745, 0.013241948559880257, 0.0194549560546875, 0.014127792790532112, 0.02583853341639042, 0.002770772436633706, 0.00831442791968584, 0.005607768893241882, -0.016479693353176117, -0.03873325511813164], [0.05512607470154762, -0.0040468862280249596, -0.0050696744583547115, -0.036257244646549225, 0.0196843184530735, 0.023496929556131363, -0.07104034721851349, -0.0133307334035635, -0.006290137767791748, 6.0617487179115415e-05, 0.00738692469894886, -0.037525322288274765, 0.035982586443424225, -0.0005040651885792613, -0.004165745340287685, -0.05302268639206886, -0.004868040792644024, -0.022510619834065437, 0.0008960827253758907, -0.011777796782553196, 0.07350326329469681, 0.010851708240807056, 0.026932379230856895, 0.005259376484900713, 0.06075724586844444, 0.0018614325672388077, 0.005981180351227522, -0.028694497421383858, -0.04372074455022812, 0.01673358865082264, -0.0029288544319570065, 0.007067372556775808, -0.006983380764722824, 0.022354338318109512, 0.0008107274770736694, -0.020371025428175926, 0.013806835748255253, -0.059632375836372375, 0.02662394382059574, -0.03606471046805382, 0.018674587830901146, -0.052090562880039215, 0.029496749863028526, -0.01899913139641285, 0.0043107797391712666, 0.003903434844687581, -0.005967267788946629, -0.07197914272546768], [0.006405428983271122, -0.002497176406905055, 0.0016957820625975728, 0.015940381214022636, -0.0013322487939149141, 0.009202704764902592, 0.006246448028832674, -0.005640613380819559, 0.005272403359413147, 0.0052285692654550076, -6.799085531383753e-05, -0.009101847186684608, -0.007258368190377951, -0.00023385346867144108, 0.0007589550223201513, 0.010705077089369297, 0.0007718399865552783, -3.7162793887546286e-05, -0.000510961574036628, -0.0026673113461583853, -0.013802845031023026, 0.010969762690365314, -0.002922638552263379, 0.00035178905818611383, -0.006247356534004211, 0.0002398272044956684, 0.002282712608575821, 0.007476123981177807, 0.006409250199794769, 0.0038011306896805763, -0.004223298281431198, 0.0007091707084327936, 0.0006333800847642124, 0.004168401937931776, -0.00014004652621224523, 0.001136431354098022, -0.0006971606053411961, 0.011175640858709812, 0.005924741271883249, -0.0010996272321790457, 0.006488112732768059, 0.009739882312715054, -0.0005447513540275395, 0.0013808627845719457, -0.0027765571139752865, 0.004694472067058086, -0.0007915759342722595, 0.011451994068920612], [0.012708920985460281, -0.02034539356827736, 0.004704660270363092, 0.13662788271903992, -0.16623035073280334, 0.09932354837656021, 0.19026553630828857, -0.12629087269306183, 0.06241660192608833, 0.02680566906929016, 0.004725287202745676, -0.06272093206644058, -0.12586185336112976, 0.0007513770833611488, -0.0007577179931104183, 0.013727777637541294, 0.005419480614364147, -0.013341917656362057, -0.004394218325614929, -0.034593526273965836, -0.0874977633357048, 0.031911883503198624, 0.09752829372882843, 0.00781628955155611, -0.05029686912894249, 0.007387259043753147, 0.00560789043083787, 0.03710430860519409, 0.06099875643849373, -0.018789540976285934, 0.03919908404350281, -0.004168638959527016, -0.007289123721420765, -0.015887025743722916, 0.004284611903131008, 0.06214478239417076, -0.03551507368683815, 0.025814849883317947, -0.036425527185201645, 0.034869857132434845, 0.07679550349712372, 0.11030922830104828, 0.09026011824607849, -0.017513655126094818, 0.015045463107526302, 0.0029961466789245605, -0.028532808646559715, -0.008270645514130592], [0.0001621488918317482, -0.0026172958314418793, 0.0011958720861002803, -0.02320229820907116, -0.007555127143859863, -0.02327016368508339, -0.03556758910417557, 0.02091558277606964, -0.03949057683348656, -0.014988591894507408, 0.0011093831853941083, -0.0010841168696060777, -0.011915333569049835, 0.00034385619801469147, -0.0010089222341775894, -0.06467888504266739, 0.0026083604898303747, 0.0031214063055813313, 0.0016302105505019426, 0.0006330954493023455, 0.04980820417404175, -0.08072496205568314, 0.042815882712602615, 0.0040722074918448925, -0.0043035103008151054, 0.0008107796311378479, 0.007080672308802605, -0.049625422805547714, -0.04504522308707237, -0.02708585187792778, -0.0003035237023141235, -0.0021179281175136566, -0.0029054582118988037, -0.045994821935892105, -0.0045607504434883595, -0.01248606014996767, -0.00042366841807961464, -0.03456175699830055, 0.006749113090336323, -0.0008992089424282312, -0.03709324821829796, -0.04399124160408974, -0.010403620079159737, -0.014883410185575485, -0.0061777555383741856, -0.043100982904434204, 0.0011226023780182004, -0.021654615178704262], [-0.03650692105293274, -0.0265867430716753, 0.007623500656336546, 0.061574745923280716, -0.04518793150782585, 0.058213166892528534, -0.07147789746522903, 0.12030812352895737, -0.023779118433594704, 0.028031790629029274, -0.04320859909057617, -0.013017638586461544, 0.006559708155691624, 0.0021611482370644808, -0.012864194810390472, -0.050256963819265366, 0.031809620559215546, 0.015658637508749962, -0.008694467134773731, 0.04414493590593338, 0.04835712909698486, -0.11059145629405975, -0.042110320180654526, -0.016846617683768272, -0.11245425045490265, 0.016007645055651665, 0.03009871020913124, -0.08771741390228271, -0.0664435625076294, -0.013559787534177303, -0.03366447240114212, -0.033013083040714264, -0.010125932283699512, 0.05621244013309479, -0.0005544498562812805, 0.09681448340415955, -0.018934601917862892, 0.06994008272886276, 0.0645580068230629, -0.1159687265753746, 0.09737074375152588, -0.10034946352243423, 0.005215206649154425, 0.027450427412986755, -0.0711287185549736, -0.020548973232507706, 0.07835086435079575, -0.049150966107845306], [0.04631836339831352, 0.05516102537512779, -0.03549143299460411, 0.13066507875919342, 0.10198546946048737, 0.017083831131458282, -0.06356151401996613, 0.11319185793399811, -0.014141463674604893, -0.1827402561903, -0.01687598042190075, -0.12067289650440216, 0.19101090729236603, -0.010420993901789188, -0.0021809153258800507, -0.04223049059510231, 0.033904701471328735, 0.06578715890645981, -0.0013339731376618147, 0.1328696459531784, 0.1146678626537323, 0.07925762981176376, -0.0965309739112854, 0.03186113014817238, -0.129379004240036, -0.02743666060268879, -0.08849199116230011, 0.08871463686227798, -0.05401303246617317, 0.08369628340005875, -0.1272190362215042, -0.041689492762088776, -0.021025551483035088, 0.06683554500341415, -0.005417186766862869, -0.15128836035728455, -0.00644847983494401, -0.04849967360496521, -0.03810463100671768, 0.06868721544742584, 0.17472760379314423, 0.10152995586395264, -0.03345154970884323, -0.011991390958428383, 0.05565090849995613, 0.04232611134648323, -0.008128764107823372, 0.0742776170372963], [0.029003998264670372, 0.12166153639554977, 0.046161968261003494, -0.03177940845489502, 0.413392037153244, -0.11839538812637329, -0.2538338303565979, 0.2536725699901581, -0.07012495398521423, -0.015832355245947838, -0.0823262631893158, 0.0078203696757555, 0.39213788509368896, -0.031189657747745514, 0.07051916420459747, -0.10754544287919998, 0.04422023892402649, -0.08089601248502731, 0.033763688057661057, 0.19647161662578583, 0.30551475286483765, 0.01604006439447403, -0.37031689286231995, -0.039646074175834656, 0.33088505268096924, 0.08272954076528549, -0.054769083857536316, 0.028126340359449387, -0.07121767848730087, -0.14636103808879852, -0.21479791402816772, -0.14649808406829834, -0.005681497044861317, 0.10346962511539459, -0.055646467953920364, -0.24190367758274078, -0.2834102213382721, -0.12453003972768784, -0.09024050086736679, -0.2245970517396927, -0.06696286797523499, -0.037086788564920425, -0.14391255378723145, 0.11477647721767426, 0.10159667581319809, 0.11126358807086945, 0.13924401998519897, -0.12407692521810532], [-0.15857943892478943, 0.045080021023750305, -0.005121829453855753, 0.11433481425046921, -0.0571809746325016, -0.054218702018260956, 0.10216786712408066, -0.09481732547283173, 0.014376462437212467, -0.12177065759897232, 0.027974825352430344, -0.005165826063603163, -0.0389399416744709, -0.0005708938115276396, -0.019962161779403687, 0.08861887454986572, -0.005431243218481541, 0.011479278095066547, 0.03099549375474453, -0.03335633873939514, -0.0707462877035141, -0.1309407353401184, 0.03588728979229927, -0.00891007762402296, -0.006827950477600098, -0.022618135437369347, 0.12492073327302933, 0.004068686161190271, -0.03217770531773567, 0.05344967171549797, -0.013535339385271072, 0.013206676580011845, 0.02620629593729973, -0.042554307729005814, -0.0029979904647916555, 0.07257603108882904, -0.02373170107603073, 0.05825801566243172, 0.10320771485567093, -0.06229616329073906, -0.07620270550251007, -0.11731892824172974, 0.01993160881102085, -0.038104113191366196, 0.04989736154675484, -0.1134142205119133, -0.02509555220603943, 0.04624804109334946], [-0.16862905025482178, -0.009408071637153625, 0.023545557633042336, 0.1213676854968071, -0.13988447189331055, 0.02754175290465355, 0.2586967647075653, -0.13152757287025452, 0.04075852781534195, -0.03003598004579544, -0.03362617269158363, 0.04897135868668556, -0.04397710785269737, -0.006956562865525484, -0.17637977004051208, 0.13235029578208923, 0.022274166345596313, -0.005616102367639542, -0.009978578425943851, 0.006208029575645924, -0.0443277470767498, 0.03889104351401329, 0.1675771027803421, -0.07497435808181763, -0.005023414734750986, -0.0011028720764443278, 0.02718914858996868, 0.14768217504024506, -0.15954691171646118, 0.07215132564306259, -0.024815721437335014, 0.01337505504488945, -0.07152804732322693, 0.03723972290754318, -0.004775299225002527, 0.09925133734941483, -0.11808477342128754, 0.002839442575350404, 0.18612945079803467, -0.09581686556339264, 0.1317697912454605, -0.16781653463840485, 0.19326485693454742, -0.07569587975740433, 0.08698475360870361, 0.043684933334589005, -0.03160981461405754, 0.08287770301103592], [0.04026529937982559, -0.03017290122807026, 0.029601356014609337, 0.13424628973007202, -0.18615803122520447, 0.09747670590877533, 0.23659393191337585, -0.0506955124437809, 0.0735149011015892, -0.032694488763809204, -0.0007930625579319894, -0.031198658049106598, -0.19093731045722961, 0.01407561544328928, -0.013433004729449749, -0.011710934340953827, -0.023977048695087433, 0.041486408561468124, -0.0015530209057033062, -0.07314743846654892, -0.17277508974075317, 0.026588253676891327, -0.14168187975883484, -0.05175846815109253, -0.05079767480492592, -0.00614507682621479, -0.003418333362787962, 0.11972526460886002, 0.09146945923566818, 0.05622994154691696, -0.030910301953554153, 0.007223679684102535, -0.03780907392501831, 0.051238663494586945, -0.020757220685482025, 0.15457677841186523, 0.057540301233530045, 0.12592396140098572, 0.030112771317362785, 0.026660868898034096, 0.06342393159866333, 0.20447075366973877, 0.14168380200862885, -0.026805808767676353, 0.018546629697084427, 0.0008124866872094572, -0.013055955059826374, 0.017614837735891342], [-0.05118608474731445, 0.008111929520964622, 0.0037358489353209734, -0.05217533931136131, 0.025269562378525734, 0.03115738555788994, 0.08461027592420578, -0.04865424335002899, -0.069923534989357, -0.061962079256772995, 0.004484538920223713, -0.009500406682491302, -0.027020590379834175, 0.0034964221995323896, -0.004100792575627565, -0.06479066610336304, -0.0006000520661473274, 0.04206964001059532, -0.01777810789644718, 0.013190802186727524, -0.09403479844331741, -0.03920351713895798, 0.01854642853140831, -0.002632258925586939, 0.03584808111190796, -0.0013927548425272107, 0.019218269735574722, 0.009275035932660103, -0.08023945987224579, 0.01724083721637726, -0.0020192228257656097, 0.0014711441472172737, 0.01473220530897379, 0.014813942834734917, -0.004943359177559614, 0.013886619359254837, 0.005723938345909119, 0.0711527094244957, 0.061781808733940125, -0.027884017676115036, 0.08699489384889603, 0.012800243683159351, -0.036260467022657394, -0.03074718825519085, 0.006113090086728334, -0.06725960224866867, -0.012018579989671707, 0.009518777951598167], [0.02401166595518589, 0.00609045522287488, 0.0015460599679499865, 0.08348801732063293, -0.010621506720781326, 0.02222317084670067, 0.012195161543786526, -0.0016180555103346705, 0.013865417800843716, -0.0009606285020709038, -0.0007643596036359668, -0.007205067202448845, -0.008914424106478691, -0.00040486984653398395, 0.0002897293015848845, 0.03371246159076691, 0.011927424930036068, 0.00018933873798232526, -0.0005817833007313311, 0.03943023458123207, 0.019443782046437263, -0.006274071056395769, 0.0017375919269397855, -0.002205329015851021, -0.0404827818274498, 0.001257786643691361, -0.010877993889153004, -0.010004820302128792, -0.01038787979632616, 0.019593017175793648, 0.0009178496547974646, -0.0019995667971670628, -0.0024065019097179174, 0.02010994963347912, -0.0005964337615296245, -0.0028587195556610823, -0.00313454307615757, 0.05598004162311554, -0.02372397668659687, 0.03615870699286461, 0.030302295461297035, 0.04365004971623421, 0.01240563951432705, 0.0009356211521662772, 0.03498266637325287, 0.03161277621984482, -0.000946762680541724, 0.025126470252871513], [-0.34930112957954407, 0.0748383030295372, -0.004945096559822559, 0.16047731041908264, -0.16547083854675293, 0.05364731699228287, 0.05626719072461128, -0.10169967263936996, -0.07479002326726913, -0.07487821578979492, 0.00280629750341177, -0.13407817482948303, -0.07653556019067764, 0.0007810503011569381, -0.11081178486347198, 0.10578354448080063, 0.05652085319161415, -0.022692576050758362, -0.002718353411182761, -0.03367259353399277, -0.1236867681145668, 0.07151462137699127, 0.08025145530700684, -0.03456515446305275, -0.12622185051441193, 0.027708658948540688, 0.02477746270596981, 0.027226213365793228, -0.17919494211673737, 0.1508219987154007, -0.06055571883916855, -0.013985133729875088, -0.008744616992771626, -0.02134193293750286, -0.017382478341460228, -0.01283495593816042, -0.04829788580536842, 0.13858993351459503, 0.021208152174949646, -0.14774161577224731, 0.023720262572169304, -0.12455067783594131, 0.34050121903419495, 0.012246185913681984, 0.0033853536006063223, -0.2759377956390381, -0.05920486897230148, -0.0184328593313694], [0.009692427702248096, -0.005602044053375721, -0.001392464735545218, -0.05086098238825798, 0.00463979272171855, -0.039348334074020386, -0.007390341255813837, -0.019876690581440926, 0.028112029656767845, 0.06400269269943237, 0.003479127772152424, -0.009817857295274734, 0.0784207433462143, -0.003751905169337988, 0.0026089169550687075, -0.0193592831492424, 0.023359831422567368, 0.019955703988671303, 0.0010763602331280708, 0.011710818856954575, 0.07354193925857544, 0.04737434536218643, -0.03768293559551239, 0.0019706652965396643, 0.11600460857152939, 0.003758631646633148, -0.023953687399625778, 0.09797637164592743, 0.04255439341068268, -0.02398521639406681, 0.015904564410448074, -0.014617064036428928, 0.0012018540874123573, 0.05546832084655762, 0.0012260793009772897, -0.027769897133111954, -0.011564549058675766, -0.002181106247007847, -0.10296361148357391, 0.10925520211458206, -0.051740169525146484, -0.02127092145383358, 0.016466330736875534, 0.011411466635763645, 0.016142787411808968, -0.028941363096237183, -0.030801789835095406, -0.1130218356847763], [0.04571212828159332, -0.0610816590487957, 0.02139163389801979, -0.020197294652462006, 0.08504769206047058, -0.0757780522108078, 0.15602701902389526, 0.11786515265703201, -0.01017225906252861, -0.027796048671007156, -0.0265498124063015, 0.0034857799764722586, -0.07426009327173233, 0.019698193296790123, -0.03727776184678078, 0.10105718672275543, -0.09877105057239532, -0.043625906109809875, -0.007967174984514713, -0.08852973580360413, -0.026268139481544495, -0.17268520593643188, 0.06780654191970825, 0.06330478191375732, -0.09632375091314316, 0.015862125903367996, 0.060042086988687515, -0.033093422651290894, 0.03337649255990982, 0.062409814447164536, 0.028639545664191246, -0.036900296807289124, 0.04277472570538521, -0.101519875228405, -0.001847410574555397, 0.07115866243839264, 0.035486090928316116, 0.13543270528316498, 0.16816803812980652, -0.029281171038746834, 0.0426776297390461, -0.14208464324474335, -0.10128863155841827, -0.031781889498233795, -0.08753043413162231, -0.08966447412967682, 0.06737256795167923, 0.06093786656856537], [-0.2599973678588867, -0.0022154489997774363, -0.011236186139285564, -0.2204221934080124, -0.24661481380462646, -0.14579078555107117, 0.01227358914911747, 0.015014669857919216, -0.10279672592878342, -0.022303367033600807, -0.04001753032207489, 0.07686414569616318, -0.01035911776125431, 0.0067379409447312355, 0.023634914308786392, -0.06302269548177719, -0.0193457193672657, 0.03062174841761589, 0.09613332152366638, 0.08743889629840851, 0.13505318760871887, -0.18906915187835693, 0.25891587138175964, 0.003395445877686143, 0.11178339272737503, -0.022024981677532196, -0.07852606475353241, -0.21424859762191772, -0.23968669772148132, -0.123536117374897, 0.023149916902184486, 0.01622261293232441, 0.03524613007903099, -0.19334526360034943, -0.012672142125666142, 0.17782866954803467, 0.030876871198415756, -0.045094504952430725, -0.061909694224596024, 0.07090073823928833, -0.08143750578165054, -0.1810893416404724, 0.1914159655570984, -0.19637219607830048, -0.01065147202461958, -0.31632307171821594, -0.04320688173174858, -0.09662952274084091], [-0.021891573444008827, 0.02190880849957466, 0.010393084958195686, 0.01997946947813034, -0.05840471759438515, 0.051025137305259705, 0.0840902179479599, -0.04941301420331001, -0.001950551988556981, 0.0551891028881073, -0.01673857495188713, -0.034608785063028336, -0.036307211965322495, 0.00534956157207489, 0.007384750992059708, 0.04123563691973686, -0.014010625891387463, -0.008107785135507584, -0.002173557411879301, 0.009314744733273983, -0.06843862682580948, 0.0028334560338407755, 0.01818251796066761, -0.01279252115637064, -0.09596829116344452, 0.0014790953136980534, -0.0057876757346093655, 0.027332782745361328, 0.05370215326547623, -0.0027232025749981403, 0.027403678745031357, -0.013962896540760994, 0.004431453067809343, -0.021635660901665688, -0.0011430230224505067, 0.03125465661287308, -0.012109227478504181, -0.021834956482052803, -0.012982151471078396, 0.024769851937890053, 0.03628091886639595, 0.02557462453842163, 0.06317250430583954, 0.006415970623493195, 0.0042515769600868225, 0.00786189641803503, -0.033219385892152786, -0.0035796375013887882], [-0.0055449968203902245, 0.000776030239649117, 0.008700182661414146, 0.019426794722676277, 0.004909920506179333, 0.012530142441391945, -0.00716415885835886, -0.005436834413558245, 0.01622973568737507, -0.002100051147863269, -0.0032755383290350437, -0.005885533057153225, 0.001746279769577086, 0.002207877580076456, 0.0006425646715797484, 0.01435831468552351, -0.004016418009996414, -0.00022646167781203985, -0.003586418926715851, -0.007942947559058666, -0.01956113986670971, 0.007161950692534447, -0.010164902545511723, -0.004890803713351488, -0.012000028975307941, -0.0012263733660802245, 0.005590816959738731, 0.004842402413487434, 0.01736629754304886, -0.007249313406646252, 0.0018749736482277513, -0.0005706963711418211, 0.00022502889623865485, -0.0007009198307059705, -0.004724663216620684, 0.00036762244417332113, -0.0026783908251672983, 0.013747829012572765, 0.010470082983374596, 0.009126686491072178, 0.017616670578718185, 0.00889570452272892, -0.0027243089862167835, 0.002968680812045932, -0.004187723621726036, 0.005040496122092009, -0.000658356468193233, 0.011170543730258942], [-0.024761857464909554, -0.013851653784513474, -0.009643640369176865, -0.17042215168476105, 0.08725366741418839, -0.11042051762342453, -0.239632710814476, 0.19793561100959778, -0.13152028620243073, -0.027218306437134743, 0.07246234267950058, 0.241513192653656, -0.11470693349838257, 0.0023774870205670595, 0.02258376218378544, -0.012214072979986668, -0.13442043960094452, -0.09263651072978973, 0.01976928859949112, 0.053043145686388016, 0.07020276039838791, -0.06750967353582382, 0.021142954006791115, 0.09023762494325638, 0.09933681786060333, 0.02505696937441826, 0.07930220663547516, -0.08486221730709076, -0.1302022933959961, 0.010869352146983147, -0.08794528990983963, 0.03008529171347618, 0.024456322193145752, -0.10030093044042587, -0.033576201647520065, 0.13339713215827942, 0.05562613159418106, -0.005959796719253063, 0.2448793649673462, -0.3231569826602936, -0.007788152899593115, -0.1988150179386139, -0.03701072931289673, -0.06019282341003418, -0.03362758085131645, 0.021708238869905472, 0.08907938748598099, 0.006687858607620001], [-0.06401549279689789, -0.12072344124317169, 0.022472862154245377, -0.1644441932439804, 0.003553933696821332, 0.00855895783752203, 0.07351429760456085, 0.1086607500910759, 0.062292102724313736, 0.006252760533243418, 0.054224032908678055, 0.12830562889575958, -0.198017418384552, 0.021255752071738243, 0.06340868771076202, -0.12817926704883575, -0.16638238728046417, -0.08258021622896194, 0.08133408427238464, -0.136764794588089, 0.04161234572529793, -0.20052434504032135, 0.1428462713956833, 0.026979980990290642, 0.04467947408556938, 0.003988305572420359, 0.05492113530635834, -0.19946205615997314, -0.009212157689034939, -0.019610922783613205, 0.05128174275159836, 0.03820248320698738, 0.07312088459730148, -0.02225973643362522, -0.0007173860212787986, 0.18203558027744293, 0.16390790045261383, -0.13246724009513855, 0.14245560765266418, -0.020901106297969818, 0.01622401550412178, -0.12847600877285004, -0.017310742288827896, -0.12131643295288086, -0.05649910122156143, -0.17247961461544037, -0.013224787078797817, 0.03804609179496765], [-0.0882425308227539, -0.03796965628862381, 0.0174134261906147, -0.07766338437795639, 0.11071723699569702, -0.07883881777524948, -0.06382336467504501, 0.12351809442043304, 0.03393564373254776, 0.1405082792043686, -0.01994754932820797, 0.19941987097263336, -0.0005253840354271233, 0.02596910297870636, 0.004719540011137724, -0.13873325288295746, -0.20288394391536713, -0.09408228099346161, -0.02138066105544567, -0.026370912790298462, 0.026678672060370445, -0.0815037339925766, 0.20291869342327118, 0.047919876873493195, 0.20715875923633575, 0.0062291864305734634, -0.08182727545499802, -0.041325245052576065, -0.19261182844638824, -0.06806311011314392, 0.10244803875684738, -0.053961899131536484, 0.07922099530696869, -0.1422613561153412, 0.004182228818535805, 0.06348694860935211, 0.18183469772338867, -0.08699014037847519, 0.02191443368792534, 0.0073805926367640495, -0.09938926994800568, -0.20892713963985443, -0.1129431426525116, -0.08486820012331009, -0.09564158320426941, -0.12218668311834335, 0.08078069239854813, -0.22729741036891937], [-0.006581500638276339, -0.26270750164985657, 0.07058551907539368, -0.1986164152622223, 0.09963541477918625, -0.11227312684059143, -0.27682527899742126, 0.21323037147521973, -0.07122199982404709, 0.4199990928173065, 0.02683425508439541, 0.1745823323726654, -0.08378659933805466, -0.02244509756565094, 0.15841031074523926, -0.2907034754753113, -0.19981499016284943, -0.016185875982046127, 0.050872500985860825, 0.05884289741516113, 0.30562692880630493, -0.1401522308588028, 0.0914742723107338, 0.10357952862977982, 0.29325535893440247, 0.016586503013968468, -0.13875746726989746, -0.13675273954868317, -0.2130865752696991, -0.17145591974258423, 0.16669204831123352, -0.060834694653749466, 0.15505407750606537, -0.20382854342460632, 0.011494370177388191, -0.029796414077281952, 0.09891403466463089, -0.1890401542186737, -0.21515783667564392, 0.4877896010875702, -0.1555437296628952, -0.06227659061551094, -0.3126779794692993, -0.09439321607351303, -0.11737194657325745, -0.13226823508739471, 0.17881830036640167, -0.16291379928588867], [0.19392062723636627, -0.058108750730752945, -0.004226593300700188, -0.041215088218450546, 0.09213244169950485, 0.002919550286605954, -0.09003288298845291, 0.11717582494020462, 0.03351685777306557, 0.17274609208106995, 0.0014983414439484477, -0.006913943216204643, 0.0662209615111351, -0.01258566789329052, 0.08993179351091385, -0.18580932915210724, -0.089385986328125, 0.014531883411109447, 0.018578538671135902, 0.061880454421043396, 0.17359329760074615, 0.02994409017264843, -0.0766964852809906, 0.019610736519098282, 0.0830327644944191, 0.005890950560569763, -0.10570286214351654, 0.06455989927053452, 0.14235492050647736, -0.09159452468156815, 0.06228553503751755, -0.025123726576566696, 0.022457096725702286, -0.03883616626262665, 0.015813909471035004, -0.015970680862665176, -0.004189774859696627, -0.11075307428836823, -0.19943927228450775, 0.13573579490184784, -0.11972907185554504, 0.04980917274951935, -0.16655923426151276, -0.016487745568156242, -0.007076412905007601, 0.059143152087926865, 0.051919661462306976, -0.1933518946170807], [-0.006631016731262207, -0.015192091464996338, 0.0061376155354082584, -0.02972443774342537, -0.14037461578845978, -0.08022554963827133, 0.19293062388896942, -0.023618554696440697, -0.0008284885552711785, 0.02216433547437191, -0.0034701796248555183, 0.10299620777368546, -0.12019147723913193, -0.00024056619440671057, -0.014535605907440186, -0.11789518594741821, -0.08173202723264694, -0.00848432071506977, -0.0062536802142858505, -0.06313089281320572, -0.040814027190208435, -0.05711112171411514, 0.04970036819577217, -0.026807961985468864, 0.021361682564020157, 0.014958010986447334, -0.001023759599775076, 0.009512047283351421, -0.08674761652946472, -0.012405009008944035, 0.023252809420228004, -0.008022118359804153, -0.016100000590085983, -0.0921759232878685, -0.0022218639496713877, 0.016958480700850487, 0.05815103277564049, 0.02226993814110756, 0.07168179750442505, -0.00708426209166646, -0.01031876914203167, -0.15431129932403564, 0.04303441941738129, -0.10257911682128906, 0.017464468255639076, -0.06211153417825699, -0.04324955865740776, 0.04989588260650635], [-0.09115295857191086, -0.176608607172966, 0.013708780519664288, 0.20057417452335358, -0.23402750492095947, 0.2772282361984253, 0.12184293568134308, -0.1347019374370575, 0.09475937485694885, -0.13370180130004883, 0.11724583804607391, -0.05437912791967392, -0.2763737142086029, 0.016557415947318077, -0.00926364865154028, 0.22258572280406952, -0.01614314876496792, -0.04037505015730858, -0.03491479903459549, -0.25720757246017456, -0.2865665555000305, 0.12500491738319397, -0.007994855754077435, 0.03610604256391525, -0.3679761588573456, 0.019591204822063446, 0.20010365545749664, -0.023464350029826164, 0.11702295392751694, 0.293200820684433, -0.1127827987074852, 0.0983966514468193, -0.011102157644927502, 0.0597735270857811, -0.006771701388061047, 0.2140246331691742, 0.10456620901823044, 0.3206821382045746, 0.2765798568725586, -0.10188472270965576, 0.20143228769302368, 0.10807152837514877, -0.0010758779244497418, -0.03061196766793728, -0.0568280965089798, -0.010505869053304195, -0.06430425494909286, 0.2824659049510956], [0.007570854853838682, 0.020685160532593727, 0.0010252826614305377, -0.01293912623077631, 0.004436158109456301, -0.019629770889878273, -0.0028189625591039658, 2.3501723262597807e-05, 0.00788160040974617, -0.04445207864046097, -0.02317333221435547, -0.003789122449234128, 0.07437597215175629, 0.0003531373222358525, 0.00045060605043545365, 0.0369168259203434, -0.0004265922761987895, 0.031169600784778595, -0.0004962689126841724, 0.03149477764964104, -0.06848303973674774, -0.012941891327500343, -0.007579483091831207, -0.001125328941270709, -0.0538223497569561, -0.0005634147673845291, 0.0100784320384264, 0.03321439400315285, 0.010710310190916061, -0.015930593013763428, -0.01758934184908867, -0.009787686169147491, -0.000750999606680125, 0.008085677400231361, -0.0009006157051771879, -0.053092822432518005, -0.005152575671672821, 0.02487754262983799, 0.037292275577783585, -0.0227466132491827, 0.00020497333025559783, -0.0017543835565447807, -0.0036815456114709377, 0.006300615146756172, -0.006587420590221882, 0.00605054059997201, 0.004584312904626131, 0.039120227098464966], [0.05454900488257408, 0.01874551549553871, -0.009013931266963482, -0.0974440723657608, 0.009516624733805656, -0.1529678851366043, -0.07753901928663254, -0.022782163694500923, -0.08527518808841705, 0.0331045538187027, 0.013430201448500156, 0.0826551616191864, -0.0064781480468809605, -0.0033431735355407, 0.008059700019657612, -0.2117423713207245, -0.02400403842329979, -0.0016561225056648254, -0.0017763822106644511, 0.021817808970808983, 0.20843960344791412, -0.029318928718566895, 0.21216703951358795, -0.03680996596813202, 0.0246282946318388, -0.0029766347724944353, -0.03845885023474693, -0.03628719970583916, -0.18277737498283386, -0.09628663957118988, 0.02575661428272724, -0.045883823186159134, 0.056202441453933716, -0.11363093554973602, 0.0017312803538516164, -0.034293536096811295, 0.10632668435573578, -0.0474039651453495, -0.03151189535856247, 0.052436891943216324, -0.026455845683813095, -0.10651323199272156, 0.11426268517971039, -0.012181625701487064, -0.043773919343948364, 0.04056435823440552, 0.07882282137870789, -0.21203328669071198], [0.04541683942079544, -0.07377034425735474, -0.0178277138620615, 0.048120059072971344, -0.34456413984298706, 0.2470899224281311, 0.1809699833393097, -0.05062508583068848, -0.022788379341363907, 0.2731265127658844, 6.878757267259061e-05, 0.11985912173986435, -0.3459145426750183, 0.03436265513300896, 0.015066017396748066, 0.07155994325876236, -0.0566478967666626, 0.04365364834666252, 0.0035858475603163242, -0.03855191171169281, -0.02743641659617424, 0.03005755878984928, 0.08063472807407379, 0.04603153467178345, -0.19584600627422333, 0.012274188920855522, -0.0475301519036293, -0.015191393904387951, 0.21841642260551453, -0.08615648001432419, 0.29506903886795044, 0.06280729174613953, -0.0068617709912359715, -0.13973969221115112, 0.04466509073972702, 0.1880332976579666, 0.14796899259090424, -0.0033020589035004377, -0.03297318145632744, 0.15196460485458374, -0.00644300552085042, 0.039188433438539505, 0.18362031877040863, -0.09078194946050644, 0.061807531863451004, -0.07408998906612396, -0.07473646104335785, 0.045809775590896606], [0.002806746168062091, -0.0007510369759984314, -0.0007125742267817259, -0.0020078574307262897, 0.0018943741451948881, 0.0014991743955761194, -0.009662263095378876, 0.005962891038507223, 0.0010415363358333707, -0.0130243469029665, 0.0011523845605552197, -0.002070577349513769, 0.007440225686877966, -2.6634847017703578e-05, 0.0002827924326993525, -0.004244567826390266, -0.001269488944672048, 1.6986205082503147e-05, 0.0002368289278820157, 0.0021009657066315413, 0.009697921574115753, 0.0019769533537328243, -0.00024869400658644736, 0.0014015178894624114, -0.00013670593034476042, -0.00033698775223456323, 0.0021713166497647762, 0.0009559281752444804, 0.004996819421648979, 0.0031057398300617933, 0.0025840362068265676, 0.0007802114705555141, -0.0003257397038396448, -0.0007592477486468852, -9.849314665189013e-05, -0.002308667404577136, 0.0011951859341934323, -0.000742862990591675, 0.003289378248155117, 0.0048020645044744015, 0.006666976027190685, 0.004853104241192341, -0.001673063961789012, -0.0011981639545410872, -0.0006680436199530959, 0.001983687048777938, 4.8569261707598343e-05, -0.00392787903547287], [0.015656279399991035, -0.0012478091521188617, 0.00032106763683259487, -0.04390990361571312, 0.005362073890864849, 0.033470842987298965, -0.035675130784511566, 0.009709185920655727, -0.0018362279515713453, 9.2594615125563e-05, 0.0002655845892149955, -0.030414864420890808, 0.011811944656074047, -0.0006493811961263418, -0.0010210867039859295, -0.043755609542131424, 0.0022583992686122656, 0.002377844648435712, -0.0012968297814950347, 0.0004847707168664783, 0.07377135008573532, 0.07497347146272659, -0.027482956647872925, -5.116578540764749e-05, 0.011343651451170444, -0.00017365888925269246, -0.0005974164814688265, 0.026056768372654915, 0.03676079586148262, -0.01246244739741087, -0.0017605916364118457, 4.289823118597269e-05, -0.0010056622559204698, 0.018769128248095512, -0.0007813061820343137, -0.0024887274485081434, 0.002847998635843396, -0.014197885058820248, -0.0036159318406134844, 0.009708724915981293, 0.0201263464987278, 0.0508025698363781, 0.02717951498925686, 0.004326933529227972, 0.0017218239372596145, 0.02821790985763073, -0.0066016060300171375, -0.018131425604224205], [0.05416787043213844, -0.07023400068283081, 0.024915937334299088, -0.19311439990997314, 0.019862601533532143, -0.11047352850437164, -0.09710992872714996, 0.15501166880130768, -0.08369830250740051, 0.026575937867164612, 0.0628737285733223, 0.24291446805000305, 0.04066113010048866, 0.01452283002436161, 0.07948627322912216, -0.03760590776801109, -0.13423588871955872, -0.0852130651473999, -0.006923476234078407, -0.04632171615958214, -0.16992413997650146, -0.12802977859973907, 0.0790620893239975, 0.061198506504297256, 0.1028309240937233, 0.0028824994806200266, 0.09373342990875244, -0.20521369576454163, 0.01820121333003044, 0.10231553763151169, -0.006443704478442669, 0.08294044435024261, 0.009395567700266838, 0.008027764968574047, -0.01718335784971714, 0.061582278460264206, 0.026110241189599037, -0.052704088389873505, 0.13247518241405487, -0.07412159442901611, -0.04362156242132187, -0.08138344436883926, 0.023723099380731583, -0.032958973199129105, -0.018283937126398087, -0.038348615169525146, 0.1518891453742981, -0.08795621246099472], [0.0514407642185688, -0.015187268145382404, -0.006622410379350185, 0.0244063138961792, 0.04742156341671944, 0.03760061413049698, -0.13432151079177856, 0.01643701270222664, -0.001433480647392571, 0.0064204041846096516, 0.006444776896387339, -0.045014914125204086, -0.008180683478713036, -0.005606652703136206, -0.0038076150231063366, 0.031175680458545685, 0.012079034931957722, 0.00032464880496263504, -0.004009941127151251, 0.005614012014120817, -0.04040506109595299, 0.050273433327674866, -0.02453293837606907, 0.004187239333987236, 0.017060648649930954, -0.0002773348824121058, 0.016596196219325066, 0.04168511554598808, 0.008732417598366737, 0.028544366359710693, -0.01098565012216568, 0.01249037217348814, 0.0031085333321243525, 0.06098492071032524, 0.002716055605560541, -0.037718888372182846, 0.010468821041285992, 0.07478022575378418, 0.028970161452889442, 0.022359145805239677, 0.059244174510240555, 0.001918690511956811, -0.11199582368135452, -0.002402749378234148, -0.00800120085477829, 0.0456397719681263, -0.0028259854298084974, 0.00413499167189002], [-0.0006022987072356045, 0.0051414440385997295, -0.0015863397857174277, -0.003114036750048399, 0.004674379713833332, -0.034477416425943375, 0.008982451632618904, 0.011400586925446987, -0.020239893347024918, -0.0007323405588977039, -7.74750060372753e-06, -0.01575426012277603, 0.04471966251730919, 0.00018721737433224916, -0.000913316966034472, -0.010871575213968754, 0.00824068021029234, 0.0024526414927095175, 0.00211596698500216, 0.018059290945529938, 0.0030489920172840357, 0.014266700483858585, 0.018172314390540123, -0.0005149164935573936, -0.008966371417045593, 0.0005060576368123293, -0.004399627447128296, 0.02648487687110901, -0.022106781601905823, 0.010110271163284779, -0.0020984418224543333, -0.0016636099899187684, -0.001740112085826695, -0.00016564244288019836, -0.0019990140572190285, -0.008648374117910862, -0.007177730556577444, 0.01619732566177845, -0.004350540228188038, -0.043388985097408295, -0.0110619580373168, -0.03397608920931816, 0.00499868206679821, -0.0021710500586777925, 0.0035374616272747517, -0.00904951710253954, 0.00020734663121402264, -0.013529532589018345], [-0.03691718727350235, -0.003830488072708249, 5.418699947767891e-05, 0.05096869543194771, -0.03946889191865921, -0.04779863730072975, 0.03667093813419342, 0.0031245574355125427, -0.06344582885503769, 0.0014652367681264877, -0.002225067699328065, -0.07390152662992477, 0.006733928807079792, -0.00012618396431207657, 0.0003076396242249757, -0.061680182814598083, 0.019124682992696762, 0.0064596314914524555, -0.013813350349664688, -0.02796606905758381, 0.05558190122246742, -0.020310010761022568, -0.022864380851387978, 0.0012720869854092598, -0.06195356696844101, 0.0004354708071332425, 0.002792763989418745, 0.002432208275422454, 0.01273561455309391, -0.007097058463841677, -0.0004749901418108493, -0.02464381419122219, 4.819816967938095e-05, -0.050399310886859894, -0.0003838521079160273, 0.030273104086518288, -0.005450299941003323, -0.04426390677690506, -0.00022784392058383673, -0.010480119846761227, 0.04139524698257446, -0.017190832644701004, 0.07498611509799957, 0.021321820095181465, 0.0008166873012669384, 0.026656564325094223, -0.007634507957845926, -0.00841800682246685], [0.040618445724248886, -0.0035677733831107616, -0.000284668174572289, 0.053647223860025406, -0.018977032974362373, 0.009235602803528309, 0.03432237356901169, -0.03029756434261799, 0.03983499854803085, 0.01312828529626131, -0.009489759802818298, -0.03299981728196144, -0.06011836230754852, -0.0008311996352858841, 0.00038256720290519297, 0.027175776660442352, -0.003262430662289262, 0.02037898451089859, -0.0029728503432124853, -0.0035238813143223524, -0.012965718284249306, 0.032809194177389145, -0.06106280907988548, -0.0011626742780208588, -0.1226852759718895, 0.0007245295564644039, -0.003331907792016864, 0.04264340177178383, 0.006628705188632011, -0.07088968902826309, 0.052491847425699234, -0.03142412006855011, 0.0007120146183297038, 0.008583121933043003, 0.0024737119674682617, 0.005852023605257273, 0.004209461621940136, 0.02912217564880848, 0.06334271281957626, 0.0383332297205925, 0.11256919056177139, 0.036843858659267426, -0.0788927897810936, 0.0004808383819181472, 0.006265929900109768, 0.02310304343700409, 0.0023050587624311447, 0.041105128824710846], [-0.07492709159851074, -0.15874147415161133, 0.0815805122256279, -0.17066854238510132, 0.0754605084657669, 0.074510857462883, -0.06300415098667145, 0.10337824374437332, 0.09674135595560074, -0.02252926677465439, 0.010056783445179462, 0.08838634192943573, -0.156403049826622, 0.016398850828409195, 0.11974730342626572, 0.021683236584067345, -0.08572591096162796, 0.003969200421124697, -0.07208202034235, 0.003117655636742711, -0.15363168716430664, -0.19711004197597504, 0.04092207923531532, 0.0906701385974884, -0.01628202572464943, 0.01523008942604065, 0.022618241608142853, -0.15804386138916016, 0.027306731790304184, 0.20694376528263092, -0.08586456626653671, 0.06923277676105499, 0.07111535966396332, -0.13889573514461517, 0.014855366200208664, 0.136452317237854, 0.03722388669848442, 0.0812196433544159, 0.23984239995479584, -0.20012108981609344, 0.061213865876197815, 0.07613668590784073, -0.14905081689357758, 0.05510452017188072, -0.1377117931842804, 0.03769688308238983, 0.0427553616464138, 0.05130891129374504], [0.1124541163444519, -0.09481438994407654, 0.007141877431422472, -0.171367809176445, 0.06025009974837303, -0.2722817063331604, -0.1812889575958252, 0.19245240092277527, -0.08048557490110397, -0.041281990706920624, 0.03443159535527229, 0.12531152367591858, 0.16406583786010742, -0.0012126786168664694, -0.0052013820968568325, -0.1644134670495987, -0.07891959697008133, -0.013561656698584557, 0.08245453238487244, 0.02477281354367733, 0.22787907719612122, -0.21194559335708618, 0.09892622381448746, 0.04141458496451378, 0.17585648596286774, -0.010941370390355587, -0.08643191307783127, -0.15794828534126282, -0.12232748419046402, -0.10972429066896439, 0.02382950857281685, -0.03034183196723461, 0.13727137446403503, -0.18085764348506927, 0.015108968131244183, 0.0637287050485611, 0.13536278903484344, -0.12383665889501572, 0.08124533295631409, -0.12088523805141449, -0.19667284190654755, -0.24886870384216309, -0.06885088235139847, -0.04211316630244255, -0.11481954902410507, 0.020749786868691444, 0.13766837120056152, -0.2740955650806427], [-0.13403962552547455, -0.05079653859138489, 0.03706968203186989, -0.11308763176202774, -0.06685502827167511, -0.1773538440465927, -0.06036835536360741, 0.011296694166958332, -0.09316255897283554, -0.16139572858810425, -0.006294396705925465, 0.19016915559768677, -0.1255510151386261, -0.0024824615102261305, 0.0748937577009201, -0.12938135862350464, -0.06257911771535873, -0.046239763498306274, 0.11009477078914642, -0.061673738062381744, 0.18481898307800293, -0.16513299942016602, 0.20965389907360077, 0.06387267261743546, 0.10779566317796707, -0.05008767917752266, 0.05223109573125839, -0.04885505884885788, -0.17546315491199493, 0.11508243530988693, 0.02176874317228794, 0.07524806261062622, 0.13690239191055298, -0.1394861936569214, 0.005715852603316307, 0.04718340188264847, 0.11164119839668274, -0.18859073519706726, 0.13596971333026886, -0.2694210708141327, -0.19621829688549042, -0.2210484892129898, -0.06439467519521713, -0.024103311821818352, -0.21682706475257874, 0.028146235272288322, 0.1922798752784729, -0.03550931066274643], [0.011424276977777481, 0.002198251662775874, 0.0024696749169379473, 0.00942712277173996, 0.005753639154136181, 0.013454402796924114, -0.007758506573736668, -0.0031861388124525547, 0.0016430666437372565, -0.013031981885433197, -0.0005355064058676362, -0.014475005678832531, 0.01952314004302025, 0.0008928664610721171, 0.0016530450666323304, -0.01691952534019947, -0.0029304474592208862, -0.0008476994116790593, -0.0014332039281725883, -0.0028391301166266203, 0.0033526357728987932, -0.006848116405308247, -0.014294161461293697, -0.001543610356748104, -0.018926016986370087, -0.0012777490774169564, 0.0014048190787434578, 0.03332598879933357, 0.00510395597666502, -0.031537435948848724, 2.7838606911245733e-05, -0.0050685773603618145, 0.00034971119021065533, -0.005630361381918192, -0.0023055742494761944, -0.01075846329331398, 0.0010173501214012504, 0.009814324788749218, -0.006879421882331371, 0.019699381664395332, 0.0067094494588673115, -0.004736834205687046, -0.002403540536761284, 0.0019277929095551372, 0.004182086791843176, 0.0025947040412575006, -0.007716727908700705, -0.018853405490517616], [-0.10633258521556854, -0.282809317111969, -0.047082241624593735, -0.14139334857463837, -0.05115542188286781, 0.01702032797038555, -0.21056339144706726, 0.0603829026222229, 0.010349147953093052, -0.18031015992164612, 0.09227398037910461, 0.08744798600673676, -0.40468811988830566, 0.014088228344917297, 0.07252538204193115, -0.03738436847925186, -0.18778352439403534, -0.1007617712020874, -0.07716473191976547, -0.2822399139404297, -0.05539633706212044, -0.05664828419685364, 0.08440932631492615, 0.12302042543888092, -0.10991401225328445, -0.007876303978264332, 0.26629123091697693, -0.22843223810195923, 0.1168472096323967, 0.3545672297477722, -0.0021049550268799067, 0.14847618341445923, 0.04088306054472923, -0.14155171811580658, 0.05055512487888336, 0.308803528547287, 0.1090141162276268, 0.0765012577176094, 0.2588439881801605, 0.03561726212501526, 0.16019251942634583, -0.0035744935739785433, -0.02703702449798584, -0.06767959147691727, -0.17301157116889954, -0.037760328501462936, -0.004063368774950504, 0.23025694489479065], [0.004860871005803347, 0.0006565951625816524, 0.0011838425416499376, 0.012297272682189941, 0.005256638862192631, 0.0021149050444364548, 0.008794473484158516, -0.007772198412567377, 0.0010522824013605714, 0.022511133924126625, -0.0007515507750213146, -0.012013116851449013, 0.012048332951962948, 0.0010068928822875023, -0.00033767943386919796, -0.004760833457112312, -9.228458657162264e-05, 0.0022461507469415665, -0.0004736719711218029, 0.00020791978749912232, -0.0021333079785108566, 0.016050612553954124, 0.0008428983273915946, -0.002871997654438019, -0.025831101462244987, 0.0015779457753524184, -0.004655885044485331, 0.011259328573942184, 0.002062348648905754, -0.025597287341952324, 0.009671944193542004, -0.0006185009842738509, -2.5207542421412654e-05, 0.0027159983292222023, -0.001019234536215663, -0.005532659590244293, 0.0017002209788188338, 0.001093403436243534, -0.01638161763548851, 0.03023536130785942, 0.0003348436439409852, 0.005397307686507702, 0.0014810715802013874, 2.8170450605102815e-05, 0.004162426572293043, -0.003444407135248184, -0.00938969012349844, -0.010020884685218334], [0.018539177253842354, -0.0034951469860970974, -0.005783420521765947, 0.12086798250675201, 0.010532342828810215, 0.05259104073047638, -0.031072352081537247, -0.023831520229578018, 0.04628805071115494, -0.15023867785930634, 0.04445645585656166, -0.022557491436600685, -0.11585396528244019, -0.0027403286658227444, -0.005175410769879818, 0.13044123351573944, 0.009858766570687294, -0.005073897540569305, -0.007213138043880463, -0.06559934467077255, -0.0969528928399086, 0.055541228502988815, -0.12328723818063736, 0.00887260027229786, -0.09273488819599152, -0.009761389344930649, 0.09475129097700119, 0.009023485705256462, 0.013163707219064236, 0.08964023739099503, -0.1085900291800499, 0.06880764663219452, -0.0007831240072846413, 0.026240091770887375, -0.004003545735031366, -0.05696392059326172, -0.003082352690398693, 0.16558168828487396, 0.15580910444259644, 0.0062129623256623745, 0.06355375796556473, 0.006486441940069199, -0.03217446431517601, 0.008231857791543007, 0.022977814078330994, 0.023171721026301384, 0.00501703517511487, 0.012237738817930222], [-0.09077237546443939, -0.00145371921826154, -0.005504509434103966, 0.014397701248526573, -0.06969817727804184, -0.15012811124324799, -0.08607614040374756, -0.06111503764986992, -0.14025375247001648, 0.032317910343408585, 0.016010446473956108, -0.02648404985666275, -0.021216172724962234, -0.0005084228469058871, -0.004297160543501377, -0.1140233650803566, 0.0212759580463171, -0.06779098510742188, 0.02055349200963974, -0.022055229172110558, -0.039958108216524124, -0.11897116899490356, 0.02672726847231388, -0.02983398176729679, 0.15663771331310272, -0.004895602818578482, 0.030983619391918182, -0.09461162984371185, -0.06195758655667305, -0.08319022506475449, 0.010216237977147102, 0.03818808123469353, -0.008977322839200497, -0.028240323066711426, -0.003463736269623041, 0.0637253150343895, 0.08854261785745621, -0.054460540413856506, 0.029946226626634598, 0.022987421602010727, -0.030607417225837708, -0.09889822453260422, 0.14771686494350433, -0.09819675981998444, 0.03608459606766701, -0.1084851324558258, -0.04323837533593178, -0.13772648572921753], [0.05436940863728523, 0.01672237738966942, -0.010716470889747143, -0.2707347869873047, 0.051116425544023514, -0.13939976692199707, -0.20988349616527557, 0.08343429118394852, -0.14528338611125946, 0.10514077544212341, -0.022265521809458733, 0.23885926604270935, -0.009688514284789562, -0.008479482494294643, 0.011889888904988766, -0.06250990927219391, 0.0077005838975310326, -0.019772838801145554, 0.013354040682315826, 0.04786479473114014, 0.13186252117156982, -0.3223625123500824, 0.3153195381164551, 0.06633227318525314, 0.12521114945411682, -0.01113167405128479, 0.017756134271621704, -0.2483828365802765, -0.16093719005584717, -0.08074481040239334, 0.0682704746723175, -0.03517795354127884, 0.05433252081274986, -0.15529224276542664, 0.009431572631001472, 0.03016994521021843, 0.13514788448810577, -0.019197139889001846, 0.0644233450293541, 0.04215250164270401, -0.18170249462127686, -0.31768614053726196, -0.07652614265680313, -0.04408316686749458, -0.016186803579330444, -0.2400321066379547, 0.023544827476143837, -0.12809725105762482], [-0.07557099312543869, -0.09657122939825058, -0.017891602590680122, 0.12731219828128815, -0.04138440638780594, -0.1535860002040863, -0.11208681017160416, 0.120413638651371, -0.039481714367866516, -0.25994426012039185, 0.07958538085222244, 0.11096042394638062, 0.030692780390381813, -0.024172602221369743, -0.044449713081121445, 0.21554554998874664, -0.01701132394373417, 0.03413917124271393, -0.04215933382511139, -0.035863425582647324, -0.04027767479419708, -0.1383843868970871, -0.017798924818634987, 0.08669144660234451, -0.09024875611066818, -0.0028711638879030943, 0.09582024812698364, -0.011325569823384285, -0.15947067737579346, 0.2436361461877823, -0.1333322674036026, -0.023007864132523537, -0.022642957046628, -0.0024266776163131, -0.010046304203569889, -0.024774769321084023, 0.10179822146892548, 0.10852278023958206, 0.26251187920570374, -0.1706717312335968, 0.22876417636871338, -0.03931821137666702, 0.05730777233839035, 0.05123676732182503, -0.10543205589056015, 0.05509373918175697, 0.01771811954677105, 0.15886928141117096], [0.035447027534246445, -0.028716260567307472, 0.0637350082397461, 0.1320188343524933, 0.11148421466350555, 0.14815838634967804, -0.08827082067728043, -0.0094146728515625, 0.03865252807736397, 0.013368171639740467, -0.04229634255170822, -0.024907618761062622, -0.006775196176022291, 0.0009437011904083192, 0.006717863958328962, 0.19512049853801727, 0.01208682544529438, -0.03319654241204262, -0.03510366752743721, -0.0630996897816658, -0.1394021213054657, 0.01193452998995781, -0.07703894376754761, -0.0275790523737669, 0.028472598642110825, 0.0007997243665158749, 0.11944190412759781, 0.001733512501232326, 0.052803944796323776, 0.2033454328775406, 0.015097849071025848, 0.040430501103401184, 0.002737003145739436, 0.07408849149942398, -0.021104682236909866, -0.03655816987156868, 0.005978110712021589, 0.06164492666721344, 0.10816847532987595, -0.11860717087984085, 0.08049149066209793, 0.07454845309257507, -0.14481121301651, 0.04367254674434662, 0.01428066287189722, 0.09378600865602493, 0.005138985812664032, 0.21634958684444427], [0.020321205258369446, 0.002815617248415947, 0.0015384062426164746, 0.015010314993560314, 0.0012793262721970677, 0.004669997375458479, -0.0014577745459973812, -0.0008922676206566393, 0.006547353230416775, 0.0010181276593357325, -0.0021280909422785044, -0.004005481954663992, 0.02505422942340374, -0.00016675403458066285, 0.0007869132095947862, 0.01360268983989954, -0.002178874099627137, 0.005834219045937061, -0.0006329196039587259, 0.03505944833159447, 0.06607652455568314, 0.0018548739608377218, -0.011885849758982658, 0.0009946260834112763, -0.020641185343265533, -0.0002383833925705403, -0.0016654552891850471, 0.01913592219352722, -0.0018574842251837254, -0.053242240101099014, 0.00200476311147213, -0.012905518524348736, 0.0006936339195817709, 0.003871454857289791, -6.909455987624824e-05, -0.016493402421474457, -0.0021232289727777243, 0.00758044607937336, 0.0016305787721648812, 0.029382960870862007, 0.03294064477086067, 0.012245885096490383, -0.010322775691747665, 0.0015854077646508813, 0.002213080180808902, 0.0053999037481844425, -0.002117785159498453, -0.03267902135848999], [0.02340037375688553, -0.0003401889989618212, 0.00019674621580634266, 0.02024844102561474, 0.003070587757974863, -0.00495979143306613, -0.006202636286616325, -0.01865922287106514, -0.0024274333845824003, -0.00048204496852122247, 0.0001917032350320369, -0.03892266005277634, 0.007193061523139477, 0.00012595234147738665, -0.0003747044538613409, -0.021573616191744804, 0.004055296070873737, 0.004392605274915695, 4.740061285701813e-07, -0.0003430926299188286, 0.04924732819199562, 0.0595194511115551, -0.014719747938215733, -0.00048594133113510907, -0.005937250796705484, -2.0061350369360298e-05, -6.546054646605626e-05, 0.01979660987854004, -0.0005636116256937385, -0.015662863850593567, 0.003141687484458089, -0.0005517247482202947, -0.0007935859030112624, 0.003437252249568701, -0.0001410076511092484, -0.002488094614818692, 0.004579545464366674, 0.005778820253908634, -0.003097167471423745, 0.005382014904171228, 0.004782464820891619, 0.02617047354578972, 0.012719633989036083, -0.0015022619627416134, 0.0025564113166183233, 0.007947790436446667, -0.008970020338892937, -0.004725567530840635], [-0.04700879752635956, -0.010689240880310535, -0.006177776027470827, -0.11631017178297043, 0.026001567021012306, -0.0637514665722847, -0.14742057025432587, -0.007769373711198568, 0.022544045001268387, -0.03238265588879585, 0.011793949641287327, 0.11691306531429291, 0.0019056244054809213, 0.00045342385419644415, -0.008391504175961018, -0.06961533427238464, 0.006699743214994669, -0.022622453048825264, -0.006223968230187893, -0.04426410794258118, 0.030263183638453484, 0.020783530548214912, -0.03638533875346184, 0.01401034276932478, 0.04806159436702728, 0.004396772012114525, 0.0073203518986701965, -0.0947970598936081, -0.10958508402109146, 0.04259171709418297, 0.0012108365772292018, 0.027851024642586708, 9.483724716119468e-05, 0.012610156089067459, 0.00042719143675640225, 0.021240234375, 0.05227147042751312, -0.06350304931402206, 0.01751980371773243, -0.03650116175413132, 0.02047938108444214, -0.04280615225434303, -0.0051527684554457664, -0.030209962278604507, -0.011322660371661186, -0.05994926020503044, 0.026252400130033493, 0.018134603276848793], [0.0025440105237066746, -0.002265102928504348, 0.0014335354790091515, 0.010435924865305424, -0.0014833700843155384, 0.009401348419487476, 0.0054814014583826065, -0.005035000387579203, 0.00375906890258193, 0.005139966495335102, -9.568761743139476e-05, -0.005060763098299503, -0.006753429304808378, -0.00023784255608916283, 0.0007147893775254488, 0.008246652781963348, 0.0006924854242242873, -0.00020253118418622762, -0.0004356089048087597, -0.0031019283924251795, -0.011801183223724365, 0.007965953089296818, -0.0024970483500510454, 0.00029501720564439893, -0.003112537320703268, 0.00021508859936147928, 0.0018631800776347518, 0.003671507118269801, 0.004790334030985832, 0.0030442827846854925, -0.0038342440966516733, 0.0006517134024761617, 0.000604284752625972, 0.0031299185939133167, -6.722217221977189e-05, 0.0013048409018665552, -0.000584541994612664, 0.006961367093026638, 0.005127490032464266, -0.0012215978931635618, 0.004496026784181595, 0.00810203142464161, -0.00018453330267220736, 0.001204709056764841, -0.0024550154339522123, 0.0023605923634022474, -0.0005433792830444872, 0.00902640726417303], [-0.01663080044090748, 0.008265173062682152, 0.005935581400990486, 0.046421583741903305, -0.06394965946674347, 0.10993140935897827, 0.124228335916996, -0.12126009911298752, -0.0659988671541214, 0.019834250211715698, 0.0006894720136187971, 0.018253877758979797, -0.11663908511400223, -0.0028788854833692312, 0.001002645236440003, -0.05693075433373451, 0.008669848553836346, 0.029479563236236572, 0.042891114950180054, -0.03911330923438072, 0.004532389342784882, 0.024739326909184456, 0.022195586934685707, 0.015883030369877815, -0.023712454363703728, 0.005315342452377081, 0.005177846644073725, -0.0061023784801363945, -0.007440495770424604, -0.018751952797174454, 0.014252726919949055, -0.0021021494176238775, 0.012485729530453682, 0.07696697115898132, 0.00648424681276083, -0.0029587680473923683, -0.05049378052353859, -0.05523444712162018, 0.08244781941175461, 0.003555131843313575, 0.008217358961701393, 0.07154735922813416, 0.16408880054950714, 0.007065118756145239, 0.008394387550652027, -0.09420695900917053, -0.010142290964722633, 0.0006581455236300826], [0.006586964707821608, 0.003076623659580946, -0.001169964554719627, -0.09210699051618576, 0.040290869772434235, -0.02780117467045784, -0.04661017656326294, 0.027012674137949944, -0.0457644946873188, -0.01775991916656494, -0.0017245251219719648, 0.09912452846765518, -0.0034602570813149214, -0.0015550905372947454, 0.0005499055259861052, -0.10054396837949753, -0.002221072092652321, 0.03253663703799248, -0.002181675285100937, 0.002173471497371793, 0.025078849866986275, -0.013157488778233528, 0.11585093289613724, 0.0073822494596242905, -0.011738554574549198, -0.0007134466432034969, 0.0024538126308470964, 0.010065409354865551, -0.06492311507463455, -0.0059327492490410805, -0.0005716492887586355, -0.012632360681891441, 0.0019284088630229235, -0.0064757708460092545, -0.003983615897595882, 0.0012501729652285576, 0.021381357684731483, -0.06507696956396103, 0.01398499310016632, 0.005367123521864414, -0.04317755624651909, -0.06942659616470337, -0.0012885573087260127, -0.03221207857131958, -0.007047981955111027, -0.019014835357666016, -0.009803986176848412, 0.012430481612682343], [-0.08522234112024307, -0.12543417513370514, 0.010231946595013142, -0.1542106717824936, -0.026670796796679497, -0.050338264554739, -0.04866060987114906, 0.02306784875690937, 0.004323284607380629, -0.018895257264375687, 0.06917458772659302, 0.11568494886159897, -0.11393249034881592, 0.015164150856435299, 0.06215747445821762, 0.11029327660799026, -0.05405166745185852, -0.028538623824715614, 0.03188032656908035, -0.14568954706192017, -0.10901457071304321, 0.021595243364572525, -8.603271271567792e-05, -0.012262445874512196, 0.1367451250553131, 0.01964539848268032, 0.07537563890218735, 0.012661980465054512, 0.021850310266017914, 0.2134798914194107, 0.0011303314240649343, -0.032004982233047485, 0.06245340406894684, -0.11716914176940918, 0.00373338651843369, -0.027835486456751823, 0.03545653447508812, 