{"model_data": {"model": "SimpleRNN", "input_size": 2, "skip": true, "output_size": 1, "unit_type": "LSTM", "num_layers": 1, "hidden_size": 48, "bias_fl": true}, "state_dict": {"rec.weight_ih_l0": [[-0.0014005001867190003, 0.0010818233713507652], [7.917841867310926e-05, 1.1410926163080148e-05], [0.0028939174953848124, 0.0021403408609330654], [-0.0283120758831501, -0.031209545210003853], [0.0447072833776474, 0.08471459895372391], [-0.05197429656982422, -0.027320127934217453], [0.012930314987897873, 0.0801752358675003], [-0.015185586176812649, 0.0625319629907608], [-0.004366885405033827, 0.03798545524477959], [0.0898481011390686, -0.06468777358531952], [0.0013395261485129595, 0.0012159844627603889], [-0.005096826236695051, 0.0007081397343426943], [0.0063224053010344505, 0.023903511464595795], [0.00022471703414339572, -0.00018129260570276529], [-0.06490817666053772, 0.044434498995542526], [-0.07325304299592972, -0.008323382586240768], [0.001877598580904305, 0.003694142447784543], [0.0006472534732893109, 0.000729232793673873], [-0.0018593193963170052, 0.0007526403642259538], [0.0006758368690498173, -0.0001968274882528931], [0.002632741117849946, 0.05379164218902588], [-0.08911999315023422, -0.02691659890115261], [-0.006608691066503525, 0.015778303146362305], [-0.0001340950111625716, -2.5493907742202282e-05], [-0.1216699406504631, -0.11044435203075409], [4.7259127313736826e-05, 0.0004525241383817047], [-0.0003898327995557338, -0.0001941866212291643], [-0.0005931293708272278, -0.0006502520409412682], [0.00640792865306139, 0.12523424625396729], [0.12095560133457184, -0.0383191853761673], [0.059087783098220825, 0.002006896771490574], [-0.000195558721316047, 0.0008366145775653422], [0.0004886228125542402, 0.0001917275949381292], [0.00014039660163689405, 3.7669920857297257e-05], [0.000382266502128914, -3.283584374003112e-05], [0.002659648424014449, 0.02764066495001316], [0.00205390271730721, 0.004696323070675135], [-0.020382722839713097, -0.006403272971510887], [0.1081472709774971, 0.041876170784235], [0.035385627299547195, 0.05316537991166115], [-0.007437587715685368, 0.07478686422109604], [-0.033174995332956314, 0.02872920036315918], [-0.11018462479114532, -0.030719725415110588], [-0.001739530242048204, 0.0014660884626209736], [-0.003286259714514017, 0.000731303240172565], [-0.15959063172340393, 0.047764431685209274], [0.0019686452578753233, 0.0001658693654462695], [-0.0020204102620482445, -0.07669010013341904], [-0.000947133987210691, 0.0008502122364006937], [0.00022316703689284623, -0.00014915777137503028], [0.0035884324461221695, 0.002027572365477681], [-0.04388539493083954, -0.028065340593457222], [0.0321778729557991, 0.09031888842582703], [-0.1436624675989151, 0.014590311795473099], [-0.08320266753435135, 0.14205974340438843], [-0.03627031669020653, 0.10768981277942657], [-0.0020669300574809313, 0.04475980997085571], [0.23550276458263397, -0.09323689341545105], [0.002182864584028721, 0.0009474543621763587], [-0.005135676823556423, 0.000642323459032923], [-0.07259130477905273, 0.02169978804886341], [0.0005299407057464123, -0.0005722747882828116], [-0.13904458284378052, 0.03305797278881073], [-0.11688753217458725, -0.05451129004359245], [0.0020729058887809515, 0.0036776040215045214], [0.0008749178959988058, 0.0005970534984953701], [-0.0015958233270794153, 0.0004118055512662977], [0.0008656401187181473, -0.0004463875957299024], [0.1308419406414032, 0.0228881798684597], [-0.42775261402130127, 0.03049197979271412], [-0.02090105228126049, 0.010153640061616898], [-0.00010150665912078694, -5.456967483041808e-05], [0.09227471798658371, 0.03490302711725235], [0.00012150405382271856, 0.00026580377016216516], [-0.0003550225228536874, -0.0001980038796318695], [-0.000443070923211053, -0.0008908403688110411], [-0.0031769464258104563, 0.09854920953512192], [0.3051806092262268, -0.05207774415612221], [0.10686523467302322, -0.003629622282460332], [0.0003138426400255412, 0.00015418176189996302], [0.0006439154967665672, 2.545369352446869e-05], [0.00014673973782919347, 2.9878288842155598e-05], [0.00043925753561779857, -0.0001532469759695232], [0.005288662854582071, 0.0276147723197937], [0.003504448337480426, 0.0032802652567625046], [-0.01092256885021925, 0.015088162384927273], [0.2854679524898529, 0.026144078001379967], [0.30321645736694336, -0.02989943139255047], [0.20327362418174744, 0.016644176095724106], [-0.1655578762292862, 0.06165201961994171], [-0.33887720108032227, 0.006756485905498266], [-0.001162409782409668, 2.3509797756560147e-05], [-0.003151451237499714, 0.00040485511999577284], [-0.29384490847587585, -0.016131523996591568], [0.002763357711955905, -0.001253505703061819], [-0.1713247001171112, -0.02172040194272995], [-0.004773094784468412, -0.007224605418741703], [0.015455237589776516, 0.001978431362658739], [0.06318087130784988, -0.023307153955101967], [0.11916445940732956, -0.07015642523765564], [0.28732186555862427, -0.020447637885808945], [0.06631755083799362, -0.032553330063819885], [-0.3121738135814667, -0.10239745676517487], [0.26985442638397217, -0.03348042070865631], [0.13765864074230194, -0.06338236480951309], [-0.19193725287914276, 0.07735995948314667], [-0.035269834101200104, 0.012257951311767101], [-0.01203360315412283, 0.0002649367961566895], [0.23908911645412445, -0.10827187448740005], [-0.020611198619008064, -0.00902604777365923], [0.11156770586967468, -0.129727303981781], [0.3394860029220581, -0.051906175911426544], [-0.007291598245501518, 0.018466820940375328], [-0.015721051022410393, 0.010665113106369972], [0.017903370782732964, 0.009229736402630806], [0.012142503634095192, 0.007271328940987587], [-0.22822776436805725, 0.04271390289068222], [0.24313534796237946, 0.00937802717089653], [-0.28726476430892944, -0.010321596637368202], [0.005356949288398027, 0.0005202522734180093], [-0.12778878211975098, 0.004796801134943962], [0.005610902328044176, -0.01688665710389614], [0.002936670323833823, -0.0014448616420850158], [-0.001505499123595655, -0.019909001886844635], [0.02646544575691223, 0.046940796077251434], [0.20756377279758453, 0.032694026827812195], [-0.33230698108673096, -0.02006034180521965], [-0.02236640639603138, -0.004211725667119026], [0.009079677984118462, 0.002559959189966321], [-0.007743685506284237, 0.003450277727097273], [0.012226440012454987, 0.005563756451010704], [-0.12985657155513763, -0.03450745344161987], [-0.07801274210214615, -0.013159346766769886], [0.22425924241542816, 0.1358654797077179], [0.1279144138097763, -0.022256601601839066], [-0.22207427024841309, 0.04151488095521927], [0.29927322268486023, -0.04399057850241661], [0.2271645963191986, 0.017555303871631622], [-0.25595518946647644, -0.06031247228384018], [0.060368333011865616, 0.005601025652140379], [0.008337466046214104, 0.0072397212497889996], [0.1488455832004547, 0.010545190423727036], [0.11522401124238968, -0.017526762560009956], [0.3090388774871826, 0.02535444125533104], [-0.0007648357423022389, 0.0010816603899002075], [0.000115860668302048, 6.499951268779114e-06], [0.002313130535185337, 0.0023860069923102856], [-0.03294659033417702, -0.032264310866594315], [0.03560914844274521, 0.07175615429878235], [-0.05670935660600662, -0.011333460919559002], [-0.010561397299170494, 0.03505730628967285], [-0.0034891755785793066, 0.11149736493825912], [-0.01057389285415411, 0.04629768803715706], [0.1400568187236786, -0.050332143902778625], [0.0006412322400137782, 0.0013588040601462126], [-0.0011703523341566324, 0.000629782909527421], [0.0009422338334843516, -0.008382251486182213], [0.0004511822771746665, -0.00020091050828341395], [-0.0559149794280529, 0.03988446667790413], [0.009803478606045246, 0.0245225690305233], [0.0015903270104900002, 0.003770325565710664], [0.0004504034295678139, 0.0007529736612923443], [-0.0003652531886473298, 0.0007963660755194724], [0.00035412758006714284, -0.0002029832248808816], [0.1206437200307846, 0.052061669528484344], [-0.15584705770015717, -0.005607728846371174], [-0.01436721719801426, 0.016802119091153145], [7.651726627955213e-05, -3.05372777802404e-05], [-0.010607368312776089, 0.03605269640684128], [0.0005919575341977179, 0.0004436057060956955], [-0.00019380742742214352, -0.00020767591195181012], [0.0005522261490114033, -0.0006850612699054182], [-0.018187670037150383, 0.11956608295440674], [0.19216741621494293, -0.015431815758347511], [0.0613672137260437, 0.0024503155145794153], [0.0014123377623036504, 0.0007785192574374378], [0.00015121654723770916, 0.0001967034040717408], [0.0003482984902802855, 3.379774352652021e-05], [0.0001744587643770501, -3.411422221688554e-05], [-0.003993503283709288, 0.02822970412671566], [0.0013666823506355286, 0.0047586639411747456], [0.016405683010816574, 0.018394002690911293], [0.16480813920497894, 0.010727175511419773], [0.17870460450649261, 0.10855210572481155], [0.003051342675462365, 0.0918976366519928], [-0.11334197223186493, 0.0348736047744751], [-0.2033650279045105, -0.011205232702195644], [0.006579026114195585, 0.0010933673474937677], [-0.001172150718048215, 0.0006828325567767024], [-0.20498862862586975, 0.04691867157816887], [0.004973527975380421, 6.680074147880077e-05], [-0.017341600731015205, -0.003565068356692791]], "rec.weight_hh_l0": [[-0.0001996172359213233, 7.796760473866016e-05, -0.00016852215048857033, -0.0006033158279024065, -7.097292836988345e-05, -0.0007517870399169624, -0.0001995578350033611, -0.00034559558844193816, -0.00043537080637179315, 7.332567474804819e-05, 0.0001820387551560998, 0.00038521960959769785, -0.0002747934777289629, -0.00013257334649097174, 4.0541777707403526e-05, -0.0008051744662225246, -0.00010008419485529885, 0.00012313381012063473, -0.0002561906003393233, 6.76023555570282e-05, 0.0007733643869869411, -0.0015063059981912374, 0.00044538587098941207, 7.207610906334594e-05, 0.0011520801344886422, -0.00014198219287209213, -8.192782843252644e-05, -0.0001900945935631171, -0.0009659371571615338, 0.00034935385338030756, -4.620896288543008e-05, -0.00022252842609304935, 4.891635762760416e-05, -7.626550359418616e-05, 3.222533632651903e-05, -0.00010383595508756116, -0.0002015829086303711, -0.0006111315451562405, -0.00031301143462769687, -0.0004290202632546425, -0.00033633405109867454, -0.0013565828558057547, 0.0018868481274694204, 0.00035700437729246914, -0.0002880765241570771, -0.001423686626367271, 0.00022729308693669736, -0.0009667695267125964], [-5.458149826154113e-05, 1.4464299965766259e-05, 3.3536456612637267e-05, -9.889338980428874e-05, 0.00021101866150274873, -0.00022366680786944926, -0.00022980256471782923, 7.84619987825863e-05, 1.4429006114369258e-05, -0.00015186429664026946, -8.3731792983599e-06, 0.00015160550537984818, -3.2420204661320895e-05, -2.1605581423500553e-05, -3.91810062865261e-05, 2.7750395020120777e-05, -8.558721310691908e-05, -7.569294666609494e-07, -4.789567901752889e-05, -4.929041551804403e-06, -2.499404945410788e-05, -0.0005728960386477411, 4.925632310914807e-05, 2.536115971452091e-05, 0.0002748875704128295, -1.7622849554754794e-05, -2.6302288461010903e-05, -4.164799247519113e-05, -0.00020665193733293563, 0.00044324930058792233, -0.00016221775149460882, -4.866483141086064e-05, -6.660636699962197e-06, -4.230919512338005e-05, -7.5824659688805696e-06, 2.3050390154821798e-05, -3.648757410701364e-05, 2.667451735760551e-05, 0.00017548882169649005, -0.00043145238305442035, 0.0002000655949814245, -0.00043131454731337726, 0.0005806735716760159, 0.00011732440907508135, -7.82513088779524e-05, -0.00033422542037442327, 0.00010011337872128934, -0.00013247849710751325], [4.692553193308413e-05, -0.00019132425950374454, 0.0010409438982605934, 0.0008759527700021863, 0.002868104260414839, 0.001272020279429853, -0.0014292692067101598, 0.002452526008710265, 0.001643985160626471, -0.0017922394908964634, -0.0008762400248087943, 0.0006709321751259267, 0.00018097319116350263, 0.0003167371905874461, 0.0004656979872379452, 0.002691698493435979, -0.0008297573076561093, -0.0004775178385898471, 0.0004730585787910968, -0.00041122897528111935, -0.0028089394327253103, -0.0007608856540173292, -0.00027658918406814337, 5.7529989135218784e-05, -0.00038872272125445306, 0.00022985336545389146, -4.378210724098608e-05, 0.00011912465561181307, 0.0033944968599826097, 0.0038637849502265453, -0.0009225325775332749, 0.00031976797617971897, -0.00035834129084832966, -0.0002941236016340554, -0.0002864925772882998, 0.0011343491496518254, 0.0005925893201492727, 0.0031957903411239386, 0.0032208370976150036, -0.002286852803081274, 0.0031080872286111116, -5.4019270464777946e-05, 0.0007083007367327809, 0.0001236847892869264, 0.00012942153261974454, -0.0006107153603807092, 9.65621366049163e-05, 0.0027101594023406506], [-0.0018036758992820978, 0.0004287248302716762, 0.0002661883772816509, -0.0043046982027590275, -0.0017235428094863892, -0.006142083555459976, -0.001291854539886117, -0.006015555467456579, -0.000952407019212842, -0.0009705812553875148, 0.00025400554295629263, 0.0052235424518585205, -0.008763967081904411, -0.0007237398531287909, 0.017902659252285957, -0.008289025165140629, -0.0030070035718381405, 0.00045742429210804403, -0.0021937077399343252, -4.9782669520936906e-05, -0.004788815043866634, -0.0191446952521801, 0.0063235764391720295, 0.0008391760638915002, 0.008658155798912048, -0.0009684038814157248, -0.0009682502131909132, -0.0015432971995323896, 0.003062603296712041, 0.012419546023011208, -0.00010077223851112649, -0.001836588722653687, -6.822085560997948e-05, -0.0013428034726530313, -0.00018302620446775109, 0.0017500452231615782, -0.0006872512749396265, -0.004860053304582834, 0.0016204864950850606, -0.005113573744893074, 0.002899758517742157, -0.014869912527501583, 0.02282479964196682, 0.004053022712469101, -0.0031929542310535908, -0.015986699610948563, 0.002812964841723442, -0.009946469217538834], [0.001381450449116528, -0.0021290024742484093, 0.00909007154405117, 0.006840907968580723, 0.02181289531290531, 0.014906749129295349, -0.02396850474178791, 0.027608826756477356, 0.018676869571208954, -0.0017644466133788228, -0.008446957916021347, 0.005746910348534584, -0.014277700334787369, 0.0029716661665588617, 0.00969638116657734, 0.027978111058473587, -0.007612993940711021, -0.004387868568301201, 0.004788632970303297, -0.003626270219683647, -0.02728479541838169, 0.004876984283328056, -0.004448298364877701, 0.00038482988020405173, -0.015009388327598572, 0.00121225044131279, -0.0004840029578190297, 0.00023137046082410961, 0.05964529886841774, 0.015496145002543926, 0.0006425179308280349, 0.002976652467623353, -0.0034467775840312243, -0.0024691494181752205, -0.0024799765087664127, 0.011776389554142952, 0.00674097565934062, 0.022028833627700806, 0.030792057514190674, 0.028168795630335808, 0.025861700996756554, 0.018339162692427635, -0.025727730244398117, 0.0017319672042503953, 0.0014629755169153214, 0.01011139526963234, -0.0012104163179174066, 0.0282455962151289], [-0.003784688888117671, 0.0015662845689803362, -0.003733613295480609, -0.018126260489225388, 0.0037676922511309385, -0.032354339957237244, -0.017847012728452682, 0.0009520953753963113, -0.004839908331632614, 0.007983940653502941, 0.004209041129797697, 0.010149521753191948, -0.010156168602406979, -0.0027219229377806187, 0.015861650928854942, -0.02204025350511074, -0.004317745566368103, 0.00226289639249444, -0.0072045461274683475, 0.0013822487089782953, 0.01547130849212408, -0.044403091073036194, 0.010965638794004917, 0.001723153400234878, 0.01453937217593193, -0.0027300878427922726, -0.0023292717523872852, -0.004002633970230818, -0.0042885905131697655, 0.00677687069401145, 0.003159554209560156, -0.005201379302889109, 0.0009152013808488846, -0.0019481375347822905, 0.0004756790876854211, 0.0028449054807424545, -0.0027981216553598642, -0.024140603840351105, -0.00032958859810605645, -0.016088368371129036, -0.001710014184936881, -0.033895689994096756, 0.02472127228975296, 0.008514498360455036, -0.008009389042854309, -0.01374359056353569, 0.004602761007845402, -0.03349094092845917], [-0.002557580592110753, -0.0006263947580009699, 0.0015058022690936923, -0.013182776048779488, 0.020233875140547752, -0.008939871564507484, -0.0503888837993145, 0.036808356642723083, 0.007628298364579678, -0.0008259097230620682, -0.0019034986617043614, 0.0175559651106596, -0.025129102170467377, -3.919018490705639e-05, 0.03686947748064995, 0.00425783172249794, -0.011761746369302273, -0.001102230860851705, -0.004049262031912804, -0.0016536811599507928, 0.007122798822820187, -0.008355295285582542, 0.010812822729349136, 0.0021759497467428446, 0.02008875645697117, -0.002777856308966875, -0.003217690857127309, -0.004799460992217064, 0.07013636082410812, 0.02081974782049656, 0.010254588909447193, -0.0030156385619193316, -0.002295335289090872, -0.004166453145444393, -0.0018485618056729436, 0.017095206305384636, 0.004804899916052818, -0.033716484904289246, 0.02954171970486641, 0.0347306989133358, 0.009234930388629436, -0.007356314454227686, -0.01206889282912016, 0.011449509300291538, -0.007774015422910452, -0.012345850467681885, 0.0009443849558010697, -0.0042309449054300785], [0.001535978284664452, -0.002327126218006015, 0.00986246857792139, 0.0026099735405296087, 0.04991061985492706, 0.008114043623209, -0.06644909083843231, 0.08446387201547623, 0.028706589713692665, -0.0023950848262757063, -0.009187395684421062, 0.01170167326927185, 0.010210637003183365, 0.0031098038889467716, -0.00044729156070388854, 0.04179653525352478, -0.012411453761160374, -0.00560351787135005, 0.0022234346251934767, -0.004176842514425516, 0.001673226011916995, 0.011798526160418987, -0.00927642546594143, 0.00108230859041214, 0.008398537524044514, 0.0012530225794762373, -0.0016548115527257323, -0.0006380822160281241, 0.11291982978582382, 0.01576775126159191, 0.000658920151181519, 0.001964161405339837, -0.004343592561781406, -0.00387514173053205, -0.0032008474227041006, 0.019639817997813225, 0.008903582580387592, -0.015968874096870422, 0.03214319050312042, 0.03276411443948746, 0.022880161181092262, 0.030167806893587112, -0.07372836768627167, 0.00548352487385273, -0.0016836761496961117, 0.04839015007019043, -0.0008432690519839525, 0.026463519781827927], [-0.0001664350857026875, -0.00046709939488209784, 0.0021471488289535046, -9.31034519453533e-05, 0.004683922976255417, 0.0024096076376736164, -0.004369071684777737, 0.0032180435955524445, 0.003477123798802495, 0.001619783346541226, -0.0020064054988324642, 0.002531743608415127, -0.007228082977235317, 0.0005867258878424764, 0.002076586475595832, 0.00564871821552515, -0.0023194709792733192, -0.0009139765752479434, 0.0011160030262544751, -0.0009198970510624349, -0.006475657224655151, -0.003889378160238266, 0.0009998170426115394, 0.00024976994609460235, 0.000637914810795337, -1.0040573215519544e-05, -0.00031478313030675054, -0.0003689266159199178, 0.013225351460278034, 0.005108994897454977, 0.0014014247572049499, 0.0005304914084263146, -0.0008822692325338721, -0.000853577395901084, -0.0006366159068420529, 0.003187662921845913, 0.001521246274933219, 0.010465102270245552, 0.0020354408770799637, -0.005308920051902533, 0.0054209111258387566, -0.0031834959518164396, 0.006814724765717983, 0.001012659864500165, -1.692601654212922e-05, -0.009235190227627754, -0.00012972888362128288, 0.004568714182823896], [0.0012723265681415796, -0.0009508131770417094, 0.010421751998364925, 0.00879022479057312, 0.031393568962812424, 0.004331900272518396, -0.021660979837179184, 0.013949987478554249, 0.020520886406302452, -0.01938077062368393, -0.007834947668015957, 0.006060327403247356, 0.014394257217645645, 0.0014942976413294673, 0.010699265636503696, 0.024034129455685616, -0.008847946301102638, -0.0044149975292384624, 0.0017229743534699082, -0.0024277723859995604, -0.03032795898616314, -0.006713830400258303, -0.010614008642733097, 0.0008129826164804399, -0.019747622311115265, 0.0019246478332206607, -0.0009981258772313595, 0.0005025331629440188, 0.039910025894641876, 0.012281558476388454, -0.010895823128521442, 0.0007420674082823098, -0.002347762230783701, -0.0028616427443921566, -0.0016814939444884658, 0.009409060701727867, 0.0037170513533055782, 0.021833648905158043, 0.03538201376795769, 0.0012156600132584572, 0.04139808192849159, 0.013865932822227478, -0.028035229071974754, 0.003951630089432001, -0.0012539454037323594, 0.01889462023973465, 0.004074130207300186, 0.010372486896812916], [-7.81912385718897e-05, -0.00010414707503514364, 0.000755353074055165, 0.00037217207136563957, 0.002094527240842581, 0.0004431931010913104, -0.00130339281167835, 0.0014799567870795727, 0.001082007773220539, -0.00135845597833395, -0.0006028738571330905, 0.000698469637427479, -0.0003649018763098866, 0.00017929244495462626, 0.0005317305331118405, 0.00172021787147969, -0.000700400210916996, -0.00031682668486610055, 0.00025604284019209445, -0.00028957214090041816, -0.001959470333531499, -0.0015914625255391002, 2.2755250029149465e-05, 8.209334191633388e-05, 1.3583939107775223e-05, 0.0001239046105183661, -7.388377707684413e-05, 1.1800952051999047e-05, 0.001970567274838686, 0.0036473535001277924, -0.0008535361266694963, 0.00014197046402841806, -0.0002524155715946108, -0.00026857524062506855, -0.00020828958076890558, 0.000807331467512995, 0.00033791549503803253, 0.002189068589359522, 0.0026120312977582216, -0.0025191770400851965, 0.0025789092760533094, -0.0011443628463894129, 0.0022634302731603384, 0.00026321012410335243, -3.5324723285157233e-05, -0.0015397313982248306, 0.00023004141985438764, 0.0016750762006267905], [-0.0005081821582280099, 0.00023022547247819602, -0.0008189327199943364, -0.002185071585699916, 0.0008156088879331946, -0.002330928109586239, -0.002388524357229471, 0.00032868728158064187, -0.0011593219824135303, 0.0013046645326539874, 0.0007707653567194939, 0.0013325200416147709, 0.00041613372741267085, -0.00042591665987856686, 0.0020994015503674746, -0.00311178807169199, -0.0003617354959715158, 0.00043150465353392065, -0.0010675297817215323, 0.0002812372986227274, 0.004469222389161587, -0.0026453568134456873, 0.001426282455213368, 0.00021799169189762324, 0.005017613992094994, -0.000509376754052937, -0.00029557093512266874, -0.0006332893390208483, -0.00022052516578696668, -0.0007616668590344489, 0.0008084672736003995, -0.0007816793513484299, 0.00018777795776259154, -0.000203878284082748, 0.00012865076132584363, 0.00012944528134539723, -0.0004650199261959642, -0.004212124738842249, -0.00176195555832237, -0.00035096736974082887, -0.0022719246335327625, -0.002307172864675522, 0.001249593566171825, 0.0012199990451335907, -0.0010753024835139513, -0.000732086249627173, 0.0004718494601547718, -0.004183315206319094], [0.0011116857640445232, -0.0030219783075153828, 0.015204097144305706, 0.021852966398000717, -0.027822677046060562, 0.03516186773777008, 0.03688645735383034, -0.03330734744668007, 0.018179243430495262, 0.038272544741630554, -0.014000440947711468, 0.006192400120198727, -0.07989693433046341, 0.004540043883025646, 0.02109641768038273, 0.03188324719667435, -0.00910439807921648, -0.005225436296314001, 0.00828018318861723, -0.005899905692785978, -0.06556881964206696, -0.001476575736887753, 0.008313404396176338, 0.00034034368582069874, -0.07701612263917923, 0.0015517614083364606, 0.00035846911487169564, 0.0007213515928015113, 0.03193318471312523, 0.0027457340620458126, 0.013164080679416656, 0.0046255760826170444, -0.004870337899774313, -0.003686739131808281, -0.0035305568017065525, 0.010141967795789242, 0.008024036884307861, 0.03762187063694, 0.04056129977107048, 0.07398048043251038, 0.03600695729255676, 0.011004079133272171, 0.009096949361264706, 0.001981010427698493, 0.0030458178371191025, -0.01831047609448433, 0.0014995727688074112, 0.050275031477212906], [-0.00014117761747911572, 3.102283881162293e-05, 0.00010307366756023839, -0.00022482687199953943, 0.0003761185798794031, -0.00045972579391673207, -0.0004444468067958951, 4.4865380914416164e-05, 3.0721643270226195e-05, -0.0004867789975833148, -4.046793037559837e-05, 0.00039268581895157695, -0.00018411218479741365, -4.4719599827658385e-05, 0.000132608154672198, 6.511316314572468e-05, -0.00022906280355527997, -7.014569746388588e-06, -0.00010552275489317253, -2.4107317585730925e-05, -0.00018317408103030175, -0.0013739719288423657, 0.00018415669910609722, 6.503262557089329e-05, 0.0006410301430150867, -4.3341518903616816e-05, -6.550778198288754e-05, -0.00010210354957962409, -0.0003944317577406764, 0.001296801958233118, -0.00040268953307531774, -0.00011289211397524923, -2.488201243977528e-05, -0.00011299739708192647, -2.679389035620261e-05, 7.002785423537716e-05, -7.631934568053111e-05, 0.00011734633153537288, 0.0004882896901108325, -0.0010808063670992851, 0.0005258854944258928, -0.0011263148626312613, 0.0016118482453748584, 0.0002939735713880509, -0.00019075552700087428, -0.0010489076375961304, 0.00025276231463067234, -0.00025648032897152007], [-0.0027000708505511284, 0.0010056177852675319, -0.005962170194834471, -0.01787426695227623, 0.006448783911764622, -0.018063534051179886, -0.02059125155210495, -0.004313820507377386, -0.005790175404399633, 0.02354511246085167, 0.004828586243093014, 0.011280064471065998, -0.005659463349729776, -0.0025532059371471405, 0.01931348629295826, -0.0293462872505188, -0.003985007293522358, 0.0028709678445011377, -0.007714081089943647, 0.0015741416718810797, 0.03326484560966492, -0.01688227429986, 0.012298781424760818, 0.0015278283972293139, 0.03638536110520363, -0.004191246815025806, -0.0023911925964057446, -0.005240185651928186, 0.02007259987294674, -0.013867054134607315, 0.015358060598373413, -0.005288233049213886, 0.0007515869801864028, -0.001755477860569954, 0.0006046247435733676, 0.005500795319676399, -0.0007328630308620632, -0.024967189878225327, -0.013439910486340523, 0.006861834786832333, -0.01501358114182949, -0.0035947824362665415, -0.024533916264772415, 0.009162607602775097, -0.008223729208111763, 0.0062080807983875275, 0.00107683171518147, -0.03750273212790489], [-0.0008048655581660569, -0.0016383733600378036, 0.0026975932996720076, -0.007185804191976786, 0.013075372204184532, 0.006266165990382433, -0.01285437773913145, 0.034110214561223984, 0.005118209403008223, 0.007752831093966961, -0.003206516383215785, 0.010192087851464748, -0.022630633786320686, 0.0024036732502281666, 0.03791201114654541, -0.026040486991405487, -0.008619608357548714, -0.00203470210544765, 4.179805546300486e-05, -0.00292688375338912, -0.030493998900055885, -0.020258544012904167, 0.018917027860879898, 0.0009061559685505927, 0.01242988184094429, -8.125512977130711e-05, -0.001516805263236165, -0.0006099764723330736, 0.0621839314699173, 0.021938834339380264, 0.016936657950282097, 0.001174536650069058, -0.002636959543451667, -0.002490048296749592, -0.002452755579724908, 0.017986319959163666, 0.0075157624669373035, 0.007675759959965944, 0.00549057824537158, -0.018731553107500076, 0.0027554186526685953, -0.02058025822043419, 0.02755679003894329, 0.00309575442224741, -0.002611812436953187, -0.02481238730251789, -0.0029465414118021727, 0.005407643970102072], [8.064685243880376e-05, -8.646535570733249e-05, 0.00039392223698087037, 0.00012945273192599416, 0.00157739722635597, 0.00031891095568425953, -0.001693305792286992, 0.0016380747547373176, 0.0009279182995669544, -4.3027066567447037e-05, -0.00035589406616054475, 0.00029032176826149225, 0.00010180183744523674, 0.00011372917651897296, 0.0007523389649577439, 0.0011560035636648536, -0.00037041169707663357, -0.00020281141041778028, 0.0001799274468794465, -0.0001397310697939247, -0.0007398538291454315, -0.00013448702520690858, -0.00033457516110502183, 1.975177292479202e-05, 0.00010471810674061999, 5.8778387028723955e-05, -3.778376049012877e-05, 4.098636964044999e-06, 0.0030385737773030996, 0.0003387321485206485, 6.649755960097536e-05, 0.00011694346903823316, -0.00014129202463664114, -0.00011067453306168318, -9.597398457117379e-05, 0.0006093974225223064, 0.0003003135207109153, 0.0012502191821113229, 0.0007174283382482827, -0.0001562271936563775, 0.0009857997065410018, 0.0007507876725867391, -0.0014358744956552982, 8.546714525436983e-05, 3.172727519995533e-05, 0.0005174806574359536, -6.382393621606752e-05, 0.0005035180365666747], [-1.7256745195481926e-05, -3.5425782698439434e-05, 0.00024768614093773067, 0.00011446345160948113, 0.0007985521224327385, 0.00018223350343760103, -0.00041610983316786587, 0.0006038948777131736, 0.0004106620908714831, -0.0004485159588512033, -0.00020114138897042722, 0.00024981822934933007, 0.0001785801723599434, 5.807537672808394e-05, 0.0001803229533834383, 0.000631206261459738, -0.0002436110080452636, -0.0001093701139325276, 7.339379226323217e-05, -9.289520676247776e-05, -0.0007332417299039662, -0.00035081058740615845, -3.564731014193967e-05, 2.873311677831225e-05, 0.00020455123740248382, 3.513803312671371e-05, -2.8799786377931014e-05, -2.616337951621972e-06, 0.0008337458712048829, 0.0009892800590023398, -0.0002371264563407749, 4.0353494114242494e-05, -8.439897646894678e-05, -9.144132491201162e-05, -6.733511690981686e-05, 0.00029239803552627563, 0.00012083825276931748, 0.0006854822859168053, 0.00042002799455076456, -0.0009037331328727305, 0.000723425589967519, -0.0001511383306933567, 0.0003383545554243028, 0.00010599142842693254, -2.1256606487440877e-05, -0.00035901268711313605, 6.884469621581957e-05, 0.00046945357462391257], [-0.00035203894367441535, 0.00010256218956783414, -1.80696151801385e-05, -0.0011718978639692068, 0.00223736884072423, -0.0017504934221506119, -0.003008963307365775, 0.0015703433891758323, -2.8855152777396142e-05, -0.0008755300077609718, 0.00012337780208326876, 0.0011084768921136856, 0.001205389155074954, -0.0001743199973134324, 0.0003948802768718451, -0.00062382040778175, -0.0005809542490169406, 5.460850661620498e-05, -0.00048344736569561064, 1.9703062207554467e-05, 0.0012284338008612394, -0.003313482739031315, 0.0005479181418195367, 0.0001775791752152145, 0.002932278672233224, -0.00018149720563087612, -0.0002190335071645677, -0.0003383900912012905, -0.00014582932635676116, 0.002591423923149705, -0.0006812675856053829, -0.00038631705683656037, -1.7016371202771552e-05, -0.00026478266227059066, -3.220176222384907e-05, 0.00042852433398365974, -0.00016360658628400415, -0.0011007939465343952, 0.0009871080983430147, -0.002912072231993079, 0.0006846894393675029, -0.0025362500455230474, 0.0025830299127846956, 0.0008181554730981588, -0.0006411790382117033, -0.0007593726040795445, 0.0004811196413356811, -0.0016065584495663643], [-3.26793706335593e-05, -2.3087517547537573e-05, 0.0002255842846352607, 0.00014958292013034225, 0.0003847481566481292, 8.029846503632143e-05, -0.00015970524691510946, 0.00018451223149895668, 0.00028675090288743377, -0.0005271818372420967, -0.0001731472002575174, 0.00020106456940993667, -0.00025630148593336344, 4.51899686595425e-05, 0.00014243536861613393, 0.0005326789105311036, -0.00019527340191416442, -8.705160871613771e-05, 6.62683742120862e-05, -8.0965954111889e-05, -0.0006971298716962337, -0.0005128328921273351, -1.2123839042033069e-05, 2.5589668439351954e-05, -2.3699931261944585e-05, 3.7793000956298783e-05, -1.8758055375656113e-05, 5.200985924602719e-06, 0.0002677671145647764, 0.0012741643004119396, -0.0003442027955316007, 2.95983518299181e-05, -6.790733459638432e-05, -7.992296741576865e-05, -5.763036460848525e-05, 0.00016967121337074786, 6.556264270329848e-05, 0.0006161540513858199, 0.0007387219229713082, -0.0008993201772682369, 0.0007893596193753183, -0.0003916354908142239, 0.000764502095989883, 9.192524157697335e-05, -1.5990161045920104e-05, -0.0005697970045730472, 0.00011239045124966651, 0.0004221977142151445], [-0.0019302217988297343, -0.0003406935720704496, 0.0016750344075262547, -0.006861290894448757, 0.010465887375175953, -0.000393074587918818, -0.032554127275943756, 0.01514170877635479, 0.006181693635880947, 0.02635716274380684, -0.0018958941800519824, 0.010333370417356491, -0.020839208737015724, -3.8021564250811934e-05, 0.03452244773507118, 0.00658502196893096, -0.007189076393842697, -0.0006616768660023808, -0.0013448824174702168, -0.0010851381812244654, -0.01736440137028694, -0.009858723729848862, 0.009673072956502438, 0.001306117745116353, -0.014073509722948074, -0.001884413417428732, -0.0018314672634005547, -0.002989154774695635, 0.014597998932003975, 0.001399315195158124, 0.009666640311479568, -0.0015839821426197886, -0.0013780136359855533, -0.0025223931297659874, -0.001019619987346232, 0.009743298403918743, 0.0026257706340402365, -0.010960669256746769, 0.010561424307525158, 0.0046382383443415165, 0.01537851057946682, -0.0088881840929389, -0.0015516667626798153, 0.006970223039388657, -0.004137333948165178, -0.02089664340019226, 0.0008426904096268117, -0.012890572659671307], [-0.010988745838403702, 0.0039870948530733585, -0.010564223863184452, -0.014172135852277279, -0.047935184091329575, -0.025485163554549217, 0.05605222284793854, -0.044083524495363235, -0.04124617949128151, 0.0031647870782762766, 0.011150574311614037, 0.01618499867618084, -0.03785538300871849, -0.005753227975219488, -0.0174245648086071, 0.013424425385892391, -0.00013466202653944492, 0.007526012137532234, -0.012049421668052673, 0.0031214149203151464, -0.05942891165614128, -0.06865280866622925, 0.035158880054950714, 0.0030799240339547396, -0.03392314538359642, -0.006628788076341152, -0.0025884537026286125, -0.007301968056708574, -0.12651215493679047, 0.014372051693499088, -0.005182442720979452, -0.0103628970682621, 0.002724268240854144, -0.002631446346640587, 0.0013900961494073272, -0.01434422843158245, -0.012456566095352173, 0.0359148234128952, -0.004849708639085293, -0.04401847720146179, -0.021486354991793633, -0.1029447540640831, 0.1750258356332779, 0.016729259863495827, -0.011735918931663036, -0.0742233619093895, 0.012443595565855503, 0.032822124660015106], [-0.0005412219907157123, -2.375363328610547e-05, 0.000793336657807231, -6.155015580588952e-05, 0.002715756418183446, 0.0012692256132140756, -0.0005680711474269629, 0.0021398214157670736, -6.0090434999438e-05, -0.0030446944292634726, -0.0006190988933667541, 0.001757265767082572, -7.652286149095744e-05, 2.1648786059813574e-05, -0.003681040136143565, 0.00044448152766563, -0.0010636558290570974, -0.0001891482388600707, 1.1691683539538644e-05, -0.00033319639624096453, -0.0021753227338194847, -0.0032953196205198765, 0.001273389090783894, 0.0002485813747625798, 0.0012752340408042073, -0.00018092522805090994, -0.00022185887792147696, -0.0004297230625525117, 0.0005516104283742607, 0.0038634082302451134, -0.0013344200560823083, -0.000189636557479389, -0.00031661149114370346, -0.0005423866678029299, -0.0002507764147594571, 0.0005884608253836632, 6.493027467513457e-05, 0.002250930992886424, 0.0033051068894565105, 0.0032425241079181433, 0.002035577315837145, -0.0023822032380849123, 0.007861764170229435, 0.0011079050600528717, -0.0004843929782509804, -0.0037464916240423918, 0.0007082602824084461, 0.0031728867907077074], [-2.8831915187765844e-05, 1.307650836679386e-05, -2.973146729345899e-05, -9.936987771652639e-05, 1.7763795767677948e-05, -0.00013008591486141086, -9.578826575307176e-05, -1.4489438399323262e-05, -6.269998993957415e-05, 8.338313818967436e-06, 3.244036270189099e-05, 5.7473447668598965e-05, 2.3123024220694788e-05, -2.201695133408066e-05, 3.6744957469636574e-05, -0.00013312541705090553, -1.4506425941362977e-05, 1.944159703270998e-05, -4.536557389656082e-05, 1.2952594261150807e-05, 0.00015078372962307185, -0.00022215487842913717, 5.9207508456893265e-05, 1.0795223715831526e-05, 0.00019699122640304267, -2.1093925170134753e-05, -1.3024994586885441e-05, -2.8418615329428576e-05, -0.00013286841567605734, 1.2863043593824841e-05, -1.1475221072032582e-05, -3.6887897294946015e-05, 9.537834557704628e-06, -1.0315290637663566e-05, 6.531955932587152e-06, -1.5689876818214543e-05, -3.306065627839416e-05, -0.0001393030834151432, -4.7750545490998775e-05, -3.047535392397549e-05, -6.72410023980774e-05, -0.00018863439618144184, 0.0002286994131281972, 5.6029006373137236e-05, -4.7825626097619534e-05, -0.0001379466848447919, 3.5846245737047866e-05, -0.00016502455400768667], [-0.0007577507058158517, -0.0005146395997144282, 0.005294983275234699, -0.01474232692271471, 0.034177251160144806, -0.0487862192094326, -0.07736753672361374, 0.09652386605739594, 0.012917110696434975, 0.011054910719394684, -0.004510091617703438, 0.008486947976052761, 0.007818005047738552, 0.0003940947644878179, 0.02960873208940029, -0.01835489273071289, -0.009100892581045628, -0.002770241815596819, 0.00023900021915324032, -0.0016670594923198223, 0.047107402235269547, -0.036411985754966736, -0.002614250872284174, 0.0012524003395810723, -0.03424246981739998, 0.0001855018053902313, -0.0017693915870040655, -0.0015714148757979274, 0.014781882986426353, 0.02199951745569706, -0.005292034242302179, -0.0005905095604248345, -0.0019831284880638123, -0.0027466677129268646, -0.0014317218447104096, 0.011972828768193722, 0.0031382746528834105, -0.002846510848030448, 0.0786091685295105, 0.013354338705539703, 0.059988755732774734, -0.026688430458307266, 0.0033083122689276934, 0.005926330108195543, -0.0035303879994899035, -0.021991094574332237, 0.00276858638972044, -0.07174719125032425], [-6.080770617700182e-05, -4.1714611143106595e-06, 8.066288864938542e-05, -6.339064566418529e-05, 6.929779920028523e-05, 4.4046279072063044e-05, 3.293506597401574e-05, -0.00017342227511107922, 2.5997000193456188e-05, -0.00037239736411720514, -6.162385398056358e-05, 0.00023076505749486387, -8.954179793363437e-05, 4.48788387075183e-06, 0.0002625094202812761, -3.345836739754304e-05, -0.00014665409980807453, -1.824010905693285e-05, -2.258542190247681e-05, -3.904326513293199e-05, -0.0001767576759448275, -0.0004445727972779423, 0.00019436364527791739, 3.157822720822878e-05, 0.000351650029188022, -2.254016544611659e-05, -3.165627276757732e-05, -4.9309193855151534e-05, 0.0002287535899085924, 0.0008085887529887259, -0.00010684605513233691, -2.938439320132602e-05, -3.547151209204458e-05, -6.802285497542471e-05, -3.146284507238306e-05, 0.00011288160021649674, 2.3983517166925594e-05, 0.00020679994486272335, 0.00023784261429682374, -0.00041782428161241114, 0.00023282988695427775, -0.00037558507756330073, 0.0005850574816577137, 0.00013984544784761965, -8.032336336327717e-05, -0.0006535484571941197, 8.537789108231664e-05, 7.893077963672113e-06], [-4.315835758461617e-05, 2.0376151951495558e-05, -5.0993941840715706e-05, -0.00019742423319257796, 6.344632129184902e-05, -0.0002627597423270345, -0.00027060869615525007, 3.526703949319199e-05, -7.414435094688088e-05, 5.272029011393897e-05, 5.488984606927261e-05, 0.00010394737182650715, 5.8915473346132785e-05, -3.6253502912586555e-05, 0.0001722468587104231, -0.0002277023741044104, -3.434207974351011e-05, 3.0111006708466448e-05, -8.295432780869305e-05, 2.193224099755753e-05, 0.00025786677724681795, -0.0004130456654820591, 0.00010009382822318003, 1.8632532373885624e-05, 0.00036442760028876364, -3.561201083357446e-05, -2.51709388976451e-05, -4.921730578644201e-05, -0.00011507427552714944, -1.462616751268797e-06, 2.219161979155615e-05, -6.327425944618881e-05, 1.4957126950321253e-05, -1.863721445261035e-05, 1.051579511113232e-05, 1.9634469481388805e-06, -4.4128748413641006e-05, -0.0002668358210939914, -9.625928214518353e-05, -4.369919406599365e-05, -9.94507790892385e-05, -0.0003051155945286155, 0.00028783033485524356, 9.59602912189439e-05, -8.780029020272195e-05, -0.00014191665104590356, 5.1257120503578335e-05, -0.0003698621003422886], [-0.00016552972374483943, 5.118101034895517e-05, -5.6061217037495226e-05, -0.0004583727568387985, -8.229553350247443e-05, -0.0005063329008407891, -0.00022671227634418756, -0.0004676615644712001, -0.00024721043882891536, -0.0002694431459531188, 8.478702511638403e-05, 0.0004053401353303343, -3.691469464683905e-05, -8.72107339091599e-05, 0.0005053530912846327, -0.0005771851283498108, -0.00017278363520745188, 6.861091242171824e-05, -0.00020813952141907066, 2.2737622202839702e-05, 0.00037986630923114717, -0.0014072807971388102, 0.00044311941019259393, 6.84932601870969e-05, 0.0009962767362594604, -0.00010247400496155024, -7.730567449470982e-05, -0.0001518777571618557, -0.00040644712862558663, 0.0006845921161584556, -9.344460704596713e-05, -0.00017549678159411997, 1.3332712114788592e-05, -9.559327008901164e-05, 2.775224857032299e-06, 1.1070386790379416e-05, -0.00011673294648062438, -0.0004027631366625428, -2.02791670744773e-05, -0.0003737139923032373, -7.821680628694594e-05, -0.0011854891199618578, 0.001499291742220521, 0.00033168718800880015, -0.0002634082338772714, -0.0011383761884644628, 0.00022307228937279433, -0.000771376071497798], [-0.0036264071241021156, 0.000909966416656971, 0.00035926810232922435, -0.012831980362534523, 0.04558636248111725, -0.012242652475833893, -0.04525977000594139, 0.020675044506788254, 0.005904709454625845, 0.008322854526340961, 0.00032518821535632014, 0.01781674288213253, 0.020431846380233765, -0.002237695036455989, -0.00308993156068027, 0.003517427481710911, -0.00944191962480545, 0.00018020732386503369, -0.007314794231206179, 6.445816688938066e-05, 0.021442117169499397, -0.028208358213305473, 0.0009520265739411116, 0.0025628579314798117, 0.06779767572879791, -0.0036872662603855133, -0.0033075737301260233, -0.00613936223089695, 0.00711065623909235, 0.0023700606543570757, -0.005404328927397728, -0.005906600039452314, -0.0009269262664020061, -0.004178957547992468, -0.0005496646626852453, 0.007305437233299017, -0.0006379488622769713, 0.0005613029934465885, 0.0021167260129004717, -0.0076482235454022884, -0.0030272856820374727, -0.004138333257287741, -0.03498663753271103, 0.014301378279924393, -0.009748026728630066, 0.038265157490968704, 0.005425496958196163, -0.011882289312779903], [0.003966469317674637, -0.003050772473216057, 0.021846435964107513, 0.024396764114499092, 0.0467960424721241, 0.019510023295879364, -0.036034468561410904, 0.036971453577280045, 0.03946550190448761, -0.08445345610380173, -0.01744072325527668, 0.005218939855694771, 0.03548175469040871, 0.005424196831882, 0.009196283295750618, 0.059429798275232315, -0.014115432277321815, -0.010560037568211555, 0.009395028464496136, -0.006131966598331928, -0.037532079964876175, 0.010758226737380028, -0.029100630432367325, 0.0005005926359444857, -0.008431036956608295, 0.006147017702460289, -0.0002642293693497777, 0.004443822894245386, 0.05400344729423523, 0.0935046598315239, -0.03958294540643692, 0.005738771520555019, -0.005442929454147816, -0.00411205692216754, -0.004183447454124689, 0.014643996953964233, 0.00857749953866005, 0.05169106647372246, 0.07204984128475189, -0.10168968886137009, 0.07136313617229462, 0.025707392022013664, -0.020358894020318985, 0.0021812596824020147, 0.004143761936575174, 0.01715826615691185, 0.004322935361415148, 0.03736596927046776], [-0.0004499521164689213, 0.00022037242888472974, 0.0035544969141483307, -0.0006092189578339458, 0.018056849017739296, -0.005227881949394941, -0.01676832139492035, 0.009714649990200996, 0.00878288596868515, -0.004246402066200972, -0.0022683332208544016, 0.005126069765537977, 0.009151294827461243, -0.0004696254327427596, -0.002251141471788287, 0.010938619263470173, -0.004361117724329233, -0.0012252946617081761, -0.0010392203694209456, -0.0003770377079490572, -0.005894191097468138, -0.016260609030723572, -0.00599503330886364, 0.0008158630225807428, 0.008627290837466717, -9.467620839131996e-05, -0.0009891364024952054, -0.0011625796323642135, 0.01957464963197708, 0.004148448817431927, -0.006538410671055317, -0.0013116023037582636, -0.0005968182813376188, -0.0017111558699980378, -0.0003168836992699653, 0.002755302470177412, -0.0001750601950334385, 0.00857245922088623, 0.0036450775805860758, 0.0005648916703648865, 0.013968774117529392, 0.004423164296895266, -0.015337567776441574, 0.004286997951567173, -0.0024233150761574507, 0.015602309256792068, 0.0035755846183747053, -0.003192051313817501], [-0.0002957542019430548, 7.953309977892786e-05, 4.629415343515575e-05, -0.0007119335932657123, 0.000950222194660455, -0.0009858430130407214, -0.0012920727021992207, 0.0003408983175177127, -0.00010332203237339854, -0.0006423825398087502, 4.275092578609474e-05, 0.0007967077544890344, 0.00010971201118081808, -0.00012880344002041966, 0.0004985000705346465, -0.0003728369192685932, -0.0004107144777663052, 4.312846067477949e-05, -0.00029546997393481433, 8.168362910510041e-07, 0.00047628022730350494, -0.002401673933491111, 0.00045733340084552765, 0.00013292342191562057, 0.0018341183895245194, -0.00013884030340705067, -0.00014629629731643945, -0.00025080679915845394, -0.000459270115243271, 0.0020292086992412806, -0.0005988293560221791, -0.00027673665317706764, -1.6056179447332397e-05, -0.00020394021703395993, -2.5312601792393252e-05, 0.00015167573292274028, -0.00017869958537630737, -0.0003424925380386412, 0.0005511242197826505, -0.0018600530456751585, 0.0005348630365915596, -0.002074626972898841, 0.002935894997790456, 0.0006177873001433909, -0.0004343180335126817, -0.0018773040501400828, 0.00043832059600390494, -0.0008682505576871336], [-1.0607972399157006e-05, -1.8906150216935202e-05, 0.00015745958080515265, 0.00010923414811259136, 0.0003536367148626596, 6.21270592091605e-05, -0.00017250646487809718, 0.0002466005098540336, 0.00022914385772310197, -0.0003027276834473014, -0.00012376064842101187, 0.00011938172247027978, -0.00011023310798918828, 3.450442454777658e-05, 1.3794980077364016e-05, 0.00041322538163512945, -0.0001280213618883863, -6.526290235342458e-05, 5.668709127348848e-05, -5.5294927733484656e-05, -0.00048265609075315297, -0.0002797346387524158, -5.201363092055544e-05, 1.4180941434460692e-05, -5.05502539454028e-05, 3.015982838405762e-05, -1.064575099007925e-05, 8.90975115908077e-06, 0.00027688039699569345, 0.0007443657959811389, -0.00021457142429426312, 2.939599107776303e-05, -4.760047158924863e-05, -4.984611223335378e-05, -3.8781574403401464e-05, 0.00012852635700255632, 5.4457213991554454e-05, 0.0004621170519385487, 0.0004584029084071517, -0.0006067773210816085, 0.0005444364505819976, -0.00017434859182685614, 0.0003753563214559108, 4.75352571811527e-05, 2.3742320536257466e-06, -0.00030255818273872137, 5.843317921971902e-05, 0.00030229188269004226], [-9.411641258338932e-06, 9.077753020392265e-07, 1.6898651665542275e-05, -2.557973493821919e-05, 0.0001077924098353833, -2.9389904739218764e-05, -0.00013350190420169383, 0.00010288767953170463, 2.9781587727484293e-05, -2.8446474971133284e-05, -1.10217979454319e-05, 4.7170087782433257e-05, 3.0278106351033784e-05, -2.4923360797401983e-06, 4.8278376198140904e-05, 1.1511304364830721e-05, -3.316048241686076e-05, -4.45739715360105e-06, -9.537616278976202e-06, -4.2232941268594e-06, 2.4506283807568252e-05, -0.00013998750364407897, 1.2166031410743017e-05, 6.528857738885563e-06, 6.525068602059036e-05, -4.499486294662347e-06, -8.229134436987806e-06, -1.1690352039295249e-05, 9.34275594772771e-05, 3.56063392246142e-05, -1.2138170859543607e-05, -9.22783056012122e-06, -5.040792075305944e-06, -1.3042339560342953e-05, -3.7603304008371197e-06, 3.2815965823829174e-05, 4.219719357934082e-06, 3.4421820600982755e-05, 9.367362508783117e-05, 2.5857891159830615e-05, 4.493923916015774e-05, -3.956572254537605e-05, 3.2847838156158105e-05, 3.103224662481807e-05, -2.10932830668753e-05, -1.0579852641967591e-05, 1.6671197954565287e-05, -3.1182436941890046e-05], [-6.545658379764063e-06, -1.3047035281488206e-05, 0.00010682509309845045, 9.210689313476905e-05, 0.00017165859753731638, 5.4476826335303485e-05, -5.3579893574351445e-05, 0.00010865558579098433, 0.00014458433724939823, -0.00026426074327901006, -8.406489359913394e-05, 7.876610470702872e-05, -9.627718100091442e-05, 2.4695516913197935e-05, 1.9585158952395432e-05, 0.0002877390943467617, -8.438609074801207e-05, -4.381357939564623e-05, 3.7973317375872284e-05, -3.834549352177419e-05, -0.0003405427560210228, -0.00015922394231893122, -3.2854492019396275e-05, 9.03903492144309e-06, -5.8680692745838314e-05, 2.1724648831877857e-05, -5.666250672220485e-06, 8.806448931863997e-06, 0.0001609972823644057, 0.0005665366188623011, -0.0001609135651960969, 2.0335090084699914e-05, -3.222343002562411e-05, -3.3325217373203486e-05, -2.687357300601434e-05, 7.785751222399995e-05, 3.568355896277353e-05, 0.00027651709388010204, 0.00033956937841139734, -0.0004295847029425204, 0.0003589678381104022, -0.00010403718624729663, 0.00022166209237184376, 3.16682671837043e-05, 3.0854585020279046e-06, -0.00018122779147233814, 4.3417097913334146e-05, 0.0002124714810634032], [-0.00013698152906727046, -7.877979805925861e-05, 0.0008743359940126538, -0.001357591594569385, 0.004448732826858759, -0.0027896766550838947, -0.006546041928231716, 0.0034039553720504045, 0.0024870161432772875, 0.0009752495680004358, -0.0007396379369311035, 0.0020470661111176014, -0.0016128841089084744, -1.6316060282406397e-05, -0.002213281812146306, 0.00392313115298748, -0.0014757767785340548, -0.00037645132397301495, -0.00011369095591362566, -0.00025249141617678106, -0.0007298525888472795, -0.005090619903057814, -0.001046417048200965, 0.00026215851539745927, 0.00320607190951705, -0.00021702291269320995, -0.00037054502172395587, -0.0005850882735103369, 0.006722228601574898, 0.003450127085670829, -5.043511191615835e-05, -0.00024018641852308065, -0.0003537702723406255, -0.0005796814220957458, -0.00020985915034543723, 0.0017309384420514107, 0.00046541367191821337, 0.002364077605307102, -5.10778627358377e-05, -0.0046524894423782825, 0.0027641989290714264, 0.0009769531898200512, -0.006332769524306059, 0.001298110350035131, -0.0006573730497621, 0.0034651339519768953, 0.00033987354254350066, -0.0025800580624490976], [-0.0003635453758761287, 8.137177064782009e-05, 0.0003913955297321081, -0.000642593833617866, 0.0018188314279541373, -0.0015937587013468146, -0.0019054774893447757, 0.0006467620260082185, 0.00048730705748312175, -0.000816575950011611, -0.0002041233383351937, 0.0012135630240663886, -0.0005722821224480867, -0.00013400634634308517, -0.0010759651195257902, 0.0010953476885333657, -0.0007402023766189814, -7.035306771285832e-05, -0.0002711028209887445, -7.701983122387901e-05, -0.00045685077202506363, -0.004209380596876144, 4.462363722268492e-05, 0.00019876251462846994, 0.0020105456933379173, -0.00013576318451669067, -0.0002109612396452576, -0.00033892958890646696, -0.00048256307491101325, 0.0032433054875582457, -0.001141155487857759, -0.0003249125147704035, -9.863326704362407e-05, -0.0003560522454790771, -7.961086521390826e-05, 0.00032388270483352244, -0.00017960561672225595, 0.0008953144424594939, 0.000997900147922337, -0.0032582287676632404, 0.001685159862972796, -0.002373291412368417, 0.002645252039656043, 0.0009113888954743743, -0.0005474078352563083, -0.0015181503258645535, 0.0007115699118003249, -0.0008421996608376503], [-0.0011813355376943946, -0.0006485326448455453, 0.0027241259813308716, -0.005585946142673492, 0.028909215703606606, 0.005242713261395693, -0.031527817249298096, 0.03169902414083481, 0.011213243938982487, 0.015566174872219563, -0.0022769926581531763, 0.009987713769078255, -0.0025519924238324165, 0.0007344303885474801, 0.03783327713608742, 0.01761741004884243, -0.008115803822875023, -0.0017991374479606748, -0.0015410196501761675, -0.0014536221278831363, 0.009978681802749634, -2.0241250240360387e-05, 0.005797538440674543, 0.0011751031270250678, 0.016601933166384697, -0.0006949829403311014, -0.0017578828847035766, -0.0015723879914730787, 0.052762024104595184, 0.0033702263608574867, 0.007324961945414543, -0.0008944855071604252, -0.0016701726708561182, -0.002456804970279336, -0.0014265599893406034, 0.01243543904274702, 0.0038515995256602764, -0.012151297181844711, 0.0012268745340406895, -0.017004655674099922, 0.0091915437951684, -0.00903888139873743, 0.011264906264841557, 0.006076029967516661, -0.0038321297615766525, -0.013699928298592567, 0.00027737775235436857, -6.329156167339534e-05], [0.0029378344770520926, -0.0026539911050349474, 0.014411582611501217, 0.014488831162452698, 0.023936545476317406, 0.018357260152697563, -0.024522166699171066, 0.02027381956577301, 0.026051638647913933, -0.02060544304549694, -0.01252624299377203, 0.003061108523979783, 0.004295474849641323, 0.0040912264958024025, 0.012786878272891045, 0.040166858583688736, -0.008437064476311207, -0.006777006201446056, 0.00822372641414404, -0.004607760813087225, -0.03391452506184578, 0.016590533778071404, -0.015500319190323353, 2.86268495983677e-05, -0.03162294626235962, 0.003456277772784233, 0.00014025927521288395, 0.0023707852233201265, 0.051870424300432205, 0.038197264075279236, -0.014375021681189537, 0.004967467859387398, -0.004190619569271803, -0.0025616793427616358, -0.0029606677126139402, 0.010538095608353615, 0.0072244154289364815, 0.039301540702581406, 0.05643024668097496, -0.01365878526121378, 0.06679769605398178, 0.016309157013893127, -0.021476205438375473, -0.00019729566702153534, 0.004174958914518356, 0.005315469577908516, 0.000246856187004596, 0.02748045139014721], [0.003133042249828577, -0.004072957206517458, 0.014938159845769405, 0.011635291390120983, 0.09332536160945892, 0.026110634207725525, -0.0788995549082756, 0.11562918871641159, 0.030839476734399796, -0.05878927931189537, -0.01377677172422409, 0.0074005452916026115, 0.08012349158525467, 0.006930908653885126, -0.017465632408857346, 0.040942490100860596, -0.012791096232831478, -0.009523921646177769, 0.009597672149538994, -0.006948287133127451, 0.08600209653377533, 0.028784027323126793, -0.012800022959709167, 0.0002773586893454194, 0.04208671301603317, 0.0053310636430978775, -0.00043649220606312156, 0.00438308110460639, 0.10460752248764038, 0.0697946697473526, -0.016793470829725266, 0.007584888022392988, -0.006280780769884586, -0.003301688702777028, -0.005348111502826214, 0.0247096698731184, 0.013424203731119633, -0.029703665524721146, 0.08290503174066544, -0.06489317119121552, 0.026394175365567207, 0.028070636093616486, -0.02176758646965027, -0.0012823780998587608, 0.005090081132948399, 0.024373793974518776, -0.004250523168593645, 0.03848579153418541], [0.0006564893992617726, -0.0015702703967690468, 0.010803194716572762, 0.008224483579397202, 0.025190170854330063, 0.010462001897394657, -0.012442345730960369, 0.016363315284252167, 0.013619447126984596, -0.03372223675251007, -0.009191303513944149, 0.001556740840896964, 0.010303459130227566, 0.0026260982267558575, -0.007087099365890026, 0.020589131861925125, -0.00541674392297864, -0.004609663039445877, 0.007495945319533348, -0.003439057618379593, -0.03590375557541847, -0.0063821966759860516, -0.01007584948092699, 0.0001899248454719782, -0.011231468990445137, 0.0026458119973540306, 0.00011425766570027918, 0.001636427128687501, 0.03984956070780754, 0.0486551932990551, -0.02403319627046585, 0.003792513394728303, -0.0029873026069253683, -0.0019856656435877085, -0.002194575732573867, 0.004208511672914028, 0.0036821800749748945, 0.04616464674472809, 0.052895572036504745, -0.013502219691872597, 0.05541357025504112, -0.006922121159732342, 0.027370860800147057, -0.0010713397059589624, 0.003987562842667103, -0.019551627337932587, 0.0012452253140509129, 0.021229462698101997], [-0.007326388265937567, 0.0029828697443008423, -0.008842811919748783, -0.021746955811977386, -0.012931598350405693, -0.030616814270615578, 0.02069077081978321, -0.02735568955540657, -0.023889120668172836, 0.0048221079632639885, 0.008653359487652779, 0.011887440457940102, -0.02568880282342434, -0.005067558027803898, -0.002962408820167184, -0.038666363805532455, -0.001423449837602675, 0.005668155383318663, -0.00962264183908701, 0.0030451714992523193, 0.013198502361774445, -0.05493813008069992, 0.019882285967469215, 0.0023262088652700186, -0.002359474543482065, -0.005528809502720833, -0.0027041041757911444, -0.006785273086279631, -0.07860029488801956, 0.013688194565474987, -0.00016567712009418756, -0.008113915100693703, 0.0023776832967996597, -0.0019171974854543805, 0.0015806207666173577, -0.005879112519323826, -0.007992347702383995, -0.01618773303925991, -0.0047235749661922455, -0.01896585524082184, -0.016505803912878036, -0.07234342396259308, 0.16895844042301178, 0.011791083961725235, -0.01010474655777216, -0.058195922523736954, 0.00717367185279727, -0.026801737025380135], [-0.005800552200525999, 0.00196942500770092, -0.009390822611749172, -0.02598143368959427, -0.01225136499851942, -0.03381238505244255, 0.0029156815726310015, -0.022216234356164932, -0.018868060782551765, 0.022483112290501595, 0.008085540495812893, 0.015584193170070648, -0.03162853419780731, -0.004215747583657503, 0.032236043363809586, -0.06866756826639175, -0.005093357991427183, 0.0057838354259729385, -0.011744444258511066, 0.002275318605825305, 0.022706666961312294, -0.08711231499910355, 0.03161539137363434, 0.0023926591966301203, 0.02982255071401596, -0.006336749531328678, -0.003540359204635024, -0.007804074324667454, 0.017216620966792107, -0.005933022126555443, 0.025788918137550354, -0.007980906404554844, 0.0015944892074912786, -0.002676981035619974, 0.0009926656493917108, 0.0069780233316123486, -0.0022378878202289343, -0.027570178732275963, -0.0074201105162501335, 0.022054893895983696, -0.01900262013077736, -0.04280756786465645, 0.03528311848640442, 0.011773321777582169, -0.012965169735252857, -0.04045826941728592, 0.002984544960781932, -0.06119096279144287], [-0.0006668264395557344, 0.00022637835354544222, -0.0005325967213138938, -0.0019938533660024405, 0.00046813359949737787, -0.0019516043830662966, -0.0018579933093860745, -0.00028972572181373835, -0.0011703032068908215, -0.00010428775567561388, 0.000568826450034976, 0.0016683944268152118, -7.152013859013095e-05, -0.0003886271733790636, 0.001794013543985784, -0.002431401750072837, -0.0005941980052739382, 0.00035198763362132013, -0.0009802954737097025, 0.00016653587226755917, 0.0038074799813330173, -0.002977319760248065, 0.001598214847035706, 0.00027418939862400293, 0.004952124785631895, -0.0004861365014221519, -0.0003177666221745312, -0.0006554803112521768, -0.000999815994873643, 0.0014718837337568402, -0.00021601749176625162, -0.0007782981847412884, 0.00010144257976207882, -0.00033553934190422297, 4.6387212933041155e-05, 0.00010429947724333033, -0.0005081486306153238, -0.0033072771038860083, -0.0004958844510838389, -0.001962715294212103, -0.001489604590460658, -0.003429695498198271, 0.004263519775122404, 0.0014206974301487207, -0.0011042918777093291, -0.0030970813240855932, 0.0007617330993525684, -0.002866944996640086], [-0.00046198745258152485, 0.0001980224478757009, -0.00043046317296102643, -0.001802130718715489, 0.0013051927089691162, -0.002426328370347619, -0.0027844379656016827, 0.0006611832650378346, -0.0007267310284078121, 4.024110694444971e-06, 0.00048303784569725394, 0.0010965033434331417, 0.0009552286355756223, -0.00034649833105504513, 0.000997072784230113, -0.0020902955438941717, -0.00038836122257635, 0.0002702141064219177, -0.0007560851518064737, 0.00018842196732293814, 0.0023904377594590187, -0.003931871615350246, 0.0009056336712092161, 0.00019674396025948226, 0.0036695622839033604, -0.000343669526046142, -0.0002522685390431434, -0.0004903071676380932, -0.0010830281535163522, 0.0010733861709013581, -0.0002118786214850843, -0.0006047351052984595, 0.00012139543105149642, -0.00021236043539829552, 8.007625001482666e-05, 5.002436228096485e-05, -0.00043800630373880267, -0.002245197305455804, -0.00042144552571699023, -0.0016361504094675183, -0.0005547399050556123, -0.003126828232780099, 0.0033724349923431873, 0.0009742112597450614, -0.0008358392515219748, -0.0016623962437734008, 0.0005495614605024457, -0.003152219345793128], [-0.009124234318733215, 0.0035619859118014574, -0.01704685017466545, -0.037694185972213745, -0.030930832028388977, -0.04235034063458443, 0.034052617847919464, -0.045088205486536026, -0.03482735529541969, 0.030927114188671112, 0.01461099088191986, 0.01908569596707821, -0.03940465301275253, -0.006841977126896381, 0.013152316212654114, -0.07920300215482712, -0.0027122930623590946, 0.009318046271800995, -0.016593128442764282, 0.004512459505349398, 0.046481139957904816, -0.087677501142025, 0.042082950472831726, 0.003095850581303239, 0.039514824748039246, -0.009326905943453312, -0.004400669597089291, -0.010883323848247528, -0.059513796120882034, -0.010153474286198616, 0.02837931364774704, -0.011702434159815311, 0.0033734540920704603, -0.002451561624184251, 0.0022208690643310547, 0.002155644353479147, -0.006769889499992132, -0.05404559522867203, -0.02393777295947075, 0.0036766475532203913, -0.042639341205358505, -0.06412583589553833, 0.12139207869768143, 0.015868913382291794, -0.016779523342847824, -0.08602098375558853, 0.004357387311756611, -0.060377608984708786], [-0.0004798391892109066, 0.00024725557886995375, -0.00023236623383127153, -0.0015471382066607475, 0.002197279129177332, -0.0028996693436056376, -0.003201541490852833, 0.0018293524626642466, -0.0002582281013019383, -0.00039328279672190547, 0.0003912517277058214, 0.00119681260548532, 0.0017115701921284199, -0.0003994721919298172, -0.0009895763359963894, -0.0004851209814660251, -0.0004891742137260735, 0.00020239679724909365, -0.0008042072877287865, 0.00020406002295203507, 0.0021461574360728264, -0.0045035844668745995, 5.1162376621505246e-05, 0.00022942645591683686, 0.0037596053443849087, -0.0003002168668899685, -0.0002724654914345592, -0.0004953283932991326, -0.0017990031046792865, 0.00048075985978357494, -0.0011159391142427921, -0.0006820355192758143, 0.00012688762217294425, -0.0002686703228391707, 9.256530756829306e-05, -0.00010752780508482829, -0.0006012130761519074, -0.0022168804425746202, -0.00034856173442676663, -0.0020626571495085955, -0.00020812975708395243, -0.0024761485401540995, 0.0021644963417202234, 0.0011496564839035273, -0.0008968497277237475, -0.0002031479962170124, 0.0008651200332678854, -0.0031732521019876003], [-0.004153813701122999, 0.0017986689927056432, 0.001201451988890767, -0.014580516144633293, 0.018736086785793304, -0.03466299921274185, 0.003286149352788925, 0.021191541105508804, 0.004808181896805763, -0.011081546545028687, 0.001256109680980444, 0.01211457047611475, -0.01635602116584778, -0.0029991541523486376, 0.018108641728758812, -0.007992153987288475, -0.00726114260032773, 0.0011772233992815018, -0.005927972495555878, 0.0009267492569051683, -0.01616457663476467, -0.08692394942045212, 0.0038613302167505026, 0.002251185942441225, -0.020212547853589058, -0.0021201169583946466, -0.0028564485255628824, -0.004234427586197853, 0.035938944667577744, 0.03305729851126671, -0.013670599088072777, -0.005514694377779961, 0.0004907959955744445, -0.0031368157360702753, 0.00021948762878309935, 0.00428275391459465, -0.0034904188942164183, 0.026515096426010132, 0.011893387883901596, -0.038516659289598465, 0.020955240353941917, -0.03167687729001045, 0.010519204661250114, 0.010440561920404434, -0.008408190682530403, -0.022119253873825073, 0.008155508898198605, -0.008803950622677803], [-0.0002020141255343333, 8.600188448326662e-05, -0.00016431025869678706, -0.0006114876596257091, 8.611097291577607e-05, -0.0008479267125949264, -0.00037027502548880875, -0.0001430168777005747, -0.00040058966260403395, -3.611074134823866e-05, 0.00018787466979119927, 0.00038692037924192846, -0.00010971606388920918, -0.00014269835082814097, -2.7585077987168916e-05, -0.0007339232251979411, -0.00010224510333500803, 0.0001204798390972428, -0.0002691304835025221, 7.597335934406146e-05, 0.0008384352549910545, -0.0015157177112996578, 0.00034636814962141216, 7.489303970942274e-05, 0.0012386407470330596, -0.00013788479554932564, -8.454931958112866e-05, -0.00018994486890733242, -0.0009712382452562451, 0.0004123589023947716, -0.00017530130571685731, -0.0002355405449634418, 5.4995387472445145e-05, -7.741388253634796e-05, 3.7293953937478364e-05, -0.00013309874339029193, -0.00022766483016312122, -0.0006633252487517893, -0.0002934706280939281, -0.0005784963141195476, -0.00029497870127670467, -0.0013269432820379734, 0.0018002705182880163, 0.00037402319139800966, -0.00029738328885287046, -0.0012414699885994196, 0.000259487540461123, -0.0010457009775564075], [-5.230243914411403e-05, 1.7288040908169933e-05, 2.9327202355489135e-05, -9.295917698182166e-05, 0.00023062466061674058, -0.0002508473990019411, -0.00024311595188919455, 0.00011852772877318785, 1.3521121218218468e-05, -0.00018919077410828322, -2.2294609607342863e-06, 0.00013323756866157055, 2.453771958244033e-05, -2.4588298401795328e-05, -7.048324914649129e-05, 3.4628381399670616e-05, -7.360289600910619e-05, 3.4501806567277526e-07, -4.8625413910485804e-05, -1.8147231628518057e-07, -1.3333129572856706e-05, -0.0005485994042828679, 1.1064712452935055e-05, 2.3770040570525452e-05, 0.0002783044765237719, -1.4091908269620035e-05, -2.39933688135352e-05, -3.689448567456566e-05, -0.00026190478820353746, 0.00045297463657334447, -0.0002038652019109577, -4.965406333212741e-05, -2.2408494260162115e-06, -3.7544057704508305e-05, -4.086644821654772e-06, -5.074214755040884e-07, -4.7780817112652585e-05, 2.1727375496993773e-05, 0.00017980382835958153, -0.0004746465419884771, 0.00020393877639435232, -0.0004183619166724384, 0.0005618108552880585, 0.00011029525921912864, -7.365069177467376e-05, -0.0002840147935785353, 0.0001053359083016403, -0.00015796051593497396], [4.086375338374637e-05, -0.0002006421855185181, 0.001145755872130394, 0.000965562358032912, 0.003445629496127367, 0.0013702133437618613, -0.0019379670266062021, 0.003117598360404372, 0.001886913669295609, -0.00195459951646626, -0.0009520591120235622, 0.0008094501681625843, 0.00039718675543554127, 0.0003361857670824975, 0.0005493467324413359, 0.0032068130094558, -0.0009507763315923512, -0.0005336493486538529, 0.00047375651774927974, -0.00044410943519324064, -0.002870546653866768, -0.0006846506148576736, -0.00042201793985441327, 7.337599527090788e-05, 8.428734872722998e-06, 0.0002493069914635271, -5.899593452340923e-05, 0.00012102543405489996, 0.0037451705429702997, 0.004134808201342821, -0.0011088723549619317, 0.0003179186605848372, -0.0003918398870155215, -0.0003367943863850087, -0.00031407710048370063, 0.0012556363362818956, 0.0006256300839595497, 0.0031407466158270836, 0.003421564819291234, -0.002818201668560505, 0.0033417849335819483, 3.862794255837798e-05, 0.0005292919813655317, 0.00021423968428280205, 9.983779455069453e-05, -0.0003430976939853281, 0.00015784002607688308, 0.0030475729145109653], [-0.0023819284979254007, 0.0006729498854838312, -0.000511086662299931, -0.0069385310634970665, -0.001870984211564064, -0.010474813170731068, -0.006198808550834656, -0.004199876915663481, -0.002275956328958273, 0.0003198437043465674, 0.001000847201794386, 0.006688578519970179, -0.010759261436760426, -0.001171159092336893, 0.02065672166645527, -0.012337472289800644, -0.00344078429043293, 0.0008740628836676478, -0.0032574401702731848, 0.00021638834732584655, 0.004099157638847828, -0.02321786992251873, 0.007681927178055048, 0.001078447443433106, 0.019228776916861534, -0.001481302548199892, -0.0012741312384605408, -0.0022126282565295696, -0.0012730876915156841, 0.01274628285318613, 0.0003076252469327301, -0.0026560008991509676, 0.00010403290798421949, -0.001581028220243752, -6.395651871571317e-05, 0.0017020433442667127, -0.0012591802515089512, -0.011418331414461136, 0.0007389397360384464, -0.006462007761001587, 0.0011601828737184405, -0.018959999084472656, 0.027360333129763603, 0.005436050705611706, -0.0043198284693062305, -0.018325548619031906, 0.0034568619448691607, -0.017337577417492867], [0.0012596057495102286, -0.001973823644220829, 0.008766671642661095, 0.005705852992832661, 0.029712717980146408, 0.015480016358196735, -0.033074069768190384, 0.03872288763523102, 0.020264657214283943, -0.003344825468957424, -0.008129873313009739, 0.007148890756070614, -0.007599727716296911, 0.002618133556097746, 0.016323871910572052, 0.029983170330524445, -0.008423149585723877, -0.004410619381815195, 0.0038506928831338882, -0.003345562145113945, -0.022910356521606445, 0.008384058251976967, -0.0064445436000823975, 0.0005982264992780983, -0.00495509710162878, 0.0008233374683186412, -0.0008055002545006573, -0.00032855887548066676, 0.07339867949485779, 0.010030473582446575, -6.483534525614232e-05, 0.002205375349149108, -0.0033707439433783293, -0.002684731036424637, -0.0023698555305600166, 0.012434311211109161, 0.006491357460618019, 0.016416044905781746, 0.029176199808716774, 0.03454035520553589, 0.02157294563949108, 0.022564928978681564, -0.03766757622361183, 0.003465997288003564, 0.0004792652325704694, 0.01592409238219261, -0.0007380128372460604, 0.03006852976977825], [-0.0061417389661073685, 0.002871517790481448, -0.00818394124507904, -0.03044120967388153, 0.009927484206855297, -0.05053381994366646, -0.04071170836687088, 0.019946852698922157, -0.011916447430849075, 0.011295052245259285, 0.008458143100142479, 0.01559746079146862, -0.009993989020586014, -0.005022458266466856, 0.019272595643997192, -0.05363068729639053, -0.005109780002385378, 0.004564263857901096, -0.012548764236271381, 0.0029855037573724985, 0.050137389451265335, -0.06798146665096283, 0.016158459708094597, 0.0026454783510416746, 0.08359085023403168, -0.004971765447407961, -0.0035719044972211123, -0.006887129042297602, -0.021797386929392815, 0.004378089215606451, 0.0037186520639806986, -0.009078423492610455, 0.0020742283668369055, -0.0026212946977466345, 0.0013162551913410425, 0.0011225179769098759, -0.005990087054669857, -0.05858926475048065, -0.00887081865221262, -0.022313645109534264, -0.013714298605918884, -0.048231568187475204, 0.007501048967242241, 0.014070829376578331, -0.013131920248270035, -0.01595769077539444, 0.0074407621286809444, -0.09034445136785507], [-0.003543478436768055, 0.0001251228095497936, -0.007500169798731804, -0.02768532559275627, 0.033661361783742905, -0.016960617154836655, -0.08964446932077408, 0.08526251465082169, 0.003130913944914937, 0.012076778337359428, 0.004881344735622406, 0.02548401616513729, -0.021010112017393112, -0.001962529495358467, 0.0702175498008728, -0.025981880724430084, -0.014144313521683216, 0.0012526735663414001, -0.01224043034017086, 0.0003738383238669485, 0.09188089519739151, 0.01153438538312912, 0.01755591295659542, 0.0031029770616441965, 0.12011177092790604, -0.005949804559350014, -0.005240336526185274, -0.00825460720807314, 0.10847979038953781, 0.003999663516879082, 0.024871256202459335, -0.007454050239175558, -0.001304162316955626, -0.004551764577627182, -0.00119312503375113, 0.024035396054387093, 0.005167369265109301, -0.09731660038232803, -0.0003118965250905603, 0.03831634297966957, -0.029667958617210388, 0.003992524929344654, -0.08272111415863037, 0.018513400107622147, -0.014812364242970943, 0.0010973953176289797, -0.0006914710975252092, -0.038590844720602036], [0.0008908816962502897, -0.0016910338308662176, 0.002684249309822917, -0.011051280423998833, 0.07407696545124054, 0.0033328693825751543, -0.1104857325553894, 0.1430344432592392, 0.03409443795681, 0.01254536397755146, -0.004158537834882736, 0.018439309671521187, 0.03362634405493736, 0.001673617516644299, 0.016965940594673157, 0.034373920410871506, -0.015463694930076599, -0.0043212068267166615, -0.004733805079013109, -0.002787897130474448, 0.06097550317645073, 0.0280088372528553, -0.007558863144367933, 0.0018644307274371386, 0.06635122746229172, -0.0006065569468773901, -0.003288115141913295, -0.0030406820587813854, 0.1884138435125351, 0.0020085182040929794, 0.013404102995991707, -0.001407858682796359, -0.0037590572610497475, -0.004338515922427177, -0.002813573693856597, 0.027216093614697456, 0.009527832269668579, -0.07206206768751144, 0.013233335688710213, 0.04652021825313568, -0.0074514662846922874, 0.04401145502924919, -0.1375352293252945, 0.011064678430557251, -0.007667694706469774, 0.0723494365811348, -0.0016827340004965663, 0.008909654803574085], [-0.00040374213131144643, -0.0003742074768524617, 0.0025389078073203564, -0.0005992114311084151, 0.00880704540759325, 0.0007897691684775054, -0.009043175727128983, 0.006855863146483898, 0.004542434588074684, 0.0005752439028583467, -0.0021941647864878178, 0.003674783743917942, -0.005816308781504631, 0.0004230004851706326, 0.0003899659786839038, 0.007407496217638254, -0.0030518467538058758, -0.0010573085164651275, 0.0007941756048239768, -0.00093366316286847, -0.005783842410892248, -0.006337288301438093, -0.00023554984363727272, 0.00043393875239416957, 0.004167329054325819, -0.00011247341171838343, -0.0005222217296250165, -0.0006846639444120228, 0.014250724576413631, 0.006899440661072731, -0.0005156683037057519, 0.00016359151049982756, -0.000959321390837431, -0.0011760141933336854, -0.0006789942272007465, 0.0034138821065425873, 0.0012731916503980756, 0.010583972558379173, 0.0021626234520226717, -0.008704748004674911, 0.006649359129369259, -0.0033607156947255135, 0.005374419502913952, 0.002015485893934965, -0.0005480331601575017, -0.00671183317899704, 0.0006079713930375874, 0.003989870660007], [0.0028028918895870447, -0.0021213500294834375, 0.01856984943151474, 0.016800111159682274, 0.05291672796010971, 0.01583489589393139, -0.03930186852812767, 0.02913402020931244, 0.036535222083330154, -0.026758046820759773, -0.014437572099268436, 0.00894174538552761, 0.02015824429690838, 0.0033155966084450483, 0.022263430058956146, 0.053310755640268326, -0.014666823670268059, -0.0080832839012146, 0.0048370943404734135, -0.004542551003396511, -0.06709415465593338, 0.0006961359176784754, -0.01793973334133625, 0.0010581661481410265, -0.041139401495456696, 0.0036240273620933294, -0.001349804806523025, 0.0015208413824439049, 0.07721510529518127, 0.014995678327977657, -0.014164269901812077, 0.00255962903611362, -0.004340948536992073, -0.004482428077608347, -0.003092351835221052, 0.017172254621982574, 0.007635382004082203, 0.0441407710313797, 0.06475906819105148, 0.008781620301306248, 0.07302933931350708, 0.024249030277132988, -0.04426221549510956, 0.005183201748877764, -0.0004306926275603473, 0.02479250729084015, 0.004905994050204754, 0.041497599333524704], [-9.093707922147587e-05, -0.00010240855772281066, 0.0008289953111670911, 0.0004448412510100752, 0.002492074389010668, 0.000449300860054791, -0.001646830583922565, 0.0019234844949096441, 0.0012428064364939928, -0.001513207796961069, -0.0006487492355518043, 0.0007957357447594404, -0.00021722207020502537, 0.00018232309957966208, 0.0005187988863326609, 0.0020900096278637648, -0.0007797153666615486, -0.0003515906573738903, 0.00024530309019610286, -0.0003055115812458098, -0.002010371070355177, -0.0016058024484664202, -0.0001250540226465091, 9.580858022673056e-05, 0.0003235856129322201, 0.00013657155795954168, -8.508653263561428e-05, 9.77538093138719e-06, 0.0020568056497722864, 0.0038754488341510296, -0.001075824722647667, 0.00012699581566266716, -0.00026934765628539026, -0.0002998786512762308, -0.00022237088705878705, 0.0008442609687335789, 0.00033060944406315684, 0.002171276370063424, 0.002748356433585286, -0.0029593307990580797, 0.0027584789786487818, -0.0011004161788150668, 0.0021899265702813864, 0.0003429195494391024, -6.463070894824341e-05, -0.0013089182320982218, 0.00030774803599342704, 0.0018623453797772527], [-0.0005257159355096519, 0.00023775490990374237, -0.0008335576858371496, -0.0022461588960140944, 0.0009314509807154536, -0.002399625489488244, -0.002551123034209013, 0.0004685290332417935, -0.0011613508686423302, 0.0013212156482040882, 0.0007887777173891664, 0.0013916825409978628, 0.0004883064539171755, -0.00043844443280249834, 0.0021807225421071053, -0.003125410294160247, -0.0003877418639604002, 0.00043795700185000896, -0.0011044091079384089, 0.0002878321101889014, 0.004617726430296898, -0.002692845417186618, 0.00143785763066262, 0.0002272415440529585, 0.005270726513117552, -0.000522512593306601, -0.00030717288609594107, -0.000652431626804173, -0.00016346457414329052, -0.0007786335190758109, 0.0007912517176009715, -0.0008089902112260461, 0.00019090846762992442, -0.00021517732238862664, 0.0001301882293773815, 0.00014409357390832156, -0.0004799909656867385, -0.004372503608465195, -0.001809708890505135, -0.0004917857004329562, -0.002318890066817403, -0.0023696294520050287, 0.0012800281401723623, 0.0012726958375424147, -0.0011145477183163166, -0.0006987174856476486, 0.0004983621765859425, -0.004290418233722448], [0.0012886477634310722, -0.0041100578382611275, 0.019437288865447044, 0.033004261553287506, -0.0623660683631897, 0.06040129065513611, 0.07686971127986908, -0.061640284955501556, 0.017986277118325233, 0.07277493923902512, -0.01837851107120514, 0.00842394307255745, -0.13878624141216278, 0.006175732705742121, 0.04519878327846527, 0.03610769286751747, -0.011370281688869, -0.006109222304075956, 0.010735319927334785, -0.00790832843631506, -0.08387549221515656, 0.009076666086912155, 0.02090037241578102, 0.000325742264976725, -0.09218046069145203, 0.001461138017475605, 0.0008107653120532632, 0.0007950562285259366, 0.0372944138944149, -0.014496518298983574, 0.026900116354227066, 0.006022043991833925, -0.006357335485517979, -0.004776284098625183, -0.00462127523496747, 0.012470521964132786, 0.010697065852582455, 0.04100519046187401, 0.04055279493331909, 0.11469621956348419, 0.028274640440940857, 0.01651788502931595, 0.027262305840849876, 0.0031809858046472073, 0.003934372682124376, -0.03710539638996124, 0.0018938641296699643, 0.07123467326164246], [-0.0001355665735900402, 3.731256219907664e-05, 9.147440869128332e-05, -0.00020903180120512843, 0.0003861513396259397, -0.0005259449826553464, -0.0004478264891076833, 0.00010305994510417804, 1.8960414308821782e-05, -0.0005632066749967635, -2.5081904823309742e-05, 0.0003430631186347455, -7.827851368347183e-05, -5.075973240309395e-05, 5.5297430662903935e-05, 6.925699562998489e-05, -0.00019645468273665756, -3.591154609239311e-06, -0.0001047799305524677, -1.3238621249911375e-05, -0.00016909383703023195, -0.00131986232008785, 0.00010053921869257465, 6.0346916143316776e-05, 0.0006264845724217594, -3.41984377882909e-05, -5.872011752217077e-05, -8.90160517883487e-05, -0.0005652221734635532, 0.0013235709629952908, -0.0004936435143463314, -0.00011299092875560746, -1.4215683222573716e-05, -0.00010022967035183683, -1.8543811165727675e-05, 1.0330772056477144e-05, -0.00010269931954098865, 0.0001146945942309685, 0.0005150053766556084, -0.001171291689388454, 0.0005395932821556926, -0.001117601408623159, 0.0016016146400943398, 0.0002717811439651996, -0.00017649555229581892, -0.0009543357300572097, 0.00026222123415209353, -0.0003216524492017925], [-0.004931327421218157, 0.0019604137632995844, -0.011421282775700092, -0.03272628039121628, 0.012484079226851463, -0.03481309860944748, -0.033045634627342224, -0.006518053822219372, -0.01068593468517065, 0.038182031363248825, 0.009508052840828896, 0.020655356347560883, -0.0025270916521549225, -0.004674087278544903, 0.03734942898154259, -0.05533529072999954, -0.00741327041760087, 0.005313521716743708, -0.015143431723117828, 0.0029828548431396484, 0.06217297539114952, -0.034581512212753296, 0.02366909570991993, 0.0028070134576410055, 0.07271896302700043, -0.007354492321610451, -0.004421953111886978, -0.009174708276987076, 0.025615612044930458, -0.023449240252375603, 0.028216369450092316, -0.009915404953062534, 0.0015332400798797607, -0.003155830781906843, 0.0010903271613642573, 0.010885768570005894, -0.0013250074116513133, -0.05396582558751106, -0.027133461087942123, 0.008435568772256374, -0.029214177280664444, -0.008668889291584492, -0.043747298419475555, 0.016614381223917007, -0.015674378722906113, 0.016220897436141968, 0.002230407204478979, -0.06978560239076614], [-0.0031941004563122988, -0.000552002398762852, 0.002416557166725397, -0.023583972826600075, 0.02742551825940609, -0.037310969084501266, -0.04700266197323799, 0.07216193526983261, 0.00450493860989809, -0.005071855150163174, -0.0015949575463309884, 0.01699220761656761, -0.014887458644807339, 0.0007903907680884004, 0.042036931961774826, -0.04621509462594986, -0.012001749128103256, -0.001316538662649691, -0.00404809694737196, -0.0023216656409204006, -0.023453479632735252, -0.07023075222969055, 0.0206623375415802, 0.0020443121902644634, 0.07207798212766647, -0.0010360712185502052, -0.0027826912701129913, -0.002506088465452194, 0.05621853098273277, 0.040414806455373764, 0.0063914088532328606, -0.00202309456653893, -0.0022502560168504715, -0.003973815124481916, -0.002318884013220668, 0.017624972388148308, 0.0045685130171477795, -0.034399520605802536, 0.013994883745908737, -0.04381680116057396, 0.006212861277163029, -0.04858728498220444, 0.040720384567976, 0.009435268118977547, -0.007311937864869833, -0.028184691444039345, 0.0023254486732184887, -0.05165671929717064], [8.113095100270584e-05, -8.671224350109696e-05, 0.00040950372931547463, 0.0001414393336744979, 0.0016828769585117698, 0.00032575943623669446, -0.0017830885481089354, 0.0017437463393434882, 0.0009710020967759192, -7.464643567800522e-05, -0.00036654729046858847, 0.00030676735332235694, 0.00016573483298998326, 0.00011464178533060476, 0.0007607687148265541, 0.0012416505487635732, -0.00038641903665848076, -0.00021083244064357132, 0.00017913449846673757, -0.0001425158407073468, -0.0007355862180702388, -0.00011219136649742723, -0.0003715422353707254, 2.2007301595294848e-05, 0.0001702229492366314, 6.145983934402466e-05, -4.01591751142405e-05, 3.8873399716976564e-06, 0.0030993360560387373, 0.00035146778100170195, 2.9822018404956907e-05, 0.00011516865197336301, -0.00014473352348431945, -0.00011620851000770926, -9.831436909735203e-05, 0.0006224688841030002, 0.000302200234727934, 0.0012527331709861755, 0.0007153038750402629, -0.0002200931921834126, 0.0010134412441402674, 0.0007926271646283567, -0.0015174137661233544, 9.891128866001964e-05, 2.716433664318174e-05, 0.0005813670577481389, -5.23849630553741e-05, 0.0005308444960974157], [-2.322530053788796e-05, -3.085675052716397e-05, 0.0002552717342041433, 0.00010825585195561871, 0.0008982105064205825, 0.00011206651834072545, -0.000536356819793582, 0.0007268248591572046, 0.00043765539885498583, -0.000511662510689348, -0.00020099747052881867, 0.00027260396745987236, 0.0002343920205021277, 5.245784996077418e-05, 0.00013794604456052184, 0.0006933679687790573, -0.000257981097092852, -0.00011265892680967227, 6.072025280445814e-05, -9.092129039345309e-05, -0.0006962096667848527, -0.0003881515294779092, -8.433772018179297e-05, 3.2975840440485626e-05, 0.00029982763226144016, 3.6263885704101995e-05, -3.3067572076106444e-05, -6.1443529375537764e-06, 0.0008416897617280483, 0.0010731066577136517, -0.0003146553644910455, 2.924516775237862e-05, -8.370001887669787e-05, -9.762337867869064e-05, -6.710890011163428e-05, 0.00028828223003074527, 0.00010764721810119227, 0.0006410976639017463, 0.0004746413615066558, -0.0010145542910322547, 0.0007713186205364764, -0.00015353498747572303, 0.00030855752993375063, 0.000129438703879714, -3.536693111527711e-05, -0.00026524177519604564, 9.464408503845334e-05, 0.000408103340305388], [-0.0003723121481016278, 0.00011254337732680142, -1.7617567209526896e-05, -0.001192995347082615, 0.0024152209516614676, -0.0018355647334828973, -0.0032364807557314634, 0.0018348726443946362, 4.4955713747185655e-06, -0.00087925506522879, 0.00013498065527528524, 0.0011779667111113667, 0.0012741810642182827, -0.0001873237342806533, 0.0004617067170329392, -0.0005086322198621929, -0.0006164051592350006, 5.298440737533383e-05, -0.0005236818105913699, 2.5140740035567433e-05, 0.0013399680610746145, -0.0033449153415858746, 0.000494777166750282, 0.00018878994160331786, 0.0032719052396714687, -0.00018810955225490034, -0.0002304415829712525, -0.0003528203524183482, -0.0002253848797408864, 0.00262436643242836, -0.0007680576527491212, -0.0004181475087534636, -1.51020703924587e-05, -0.00028004933847114444, -3.219363861717284e-05, 0.0004282779118511826, -0.00019088370027020574, -0.0012797870440408587, 0.000989652588032186, -0.003239823505282402, 0.0006776108639314771, -0.002598874270915985, 0.0026459647342562675, 0.0008872132748365402, -0.0006836520042270422, -0.0007180270622484386, 0.000533197307959199, -0.0016735456883907318], [-2.8172507882118225e-05, -2.0514864445431158e-05, 0.00022352956875693053, 0.00017078156815841794, 0.0003904612676706165, 5.92041906202212e-05, -0.00015553130651824176, 0.00021783822739962488, 0.0002874738711398095, -0.0005739966873079538, -0.00016827721265144646, 0.0001715102989692241, -0.00020198481797706336, 4.37997150584124e-05, 0.00010417117300676182, 0.0005552239599637687, -0.00017785461386665702, -8.756160968914628e-05, 7.009046385064721e-05, -7.652203203178942e-05, -0.000708845560438931, -0.0004639825492631644, -6.501040479633957e-05, 2.244236384285614e-05, -3.2248331990558654e-05, 4.5029737520962954e-05, -1.396647985529853e-05, 1.5112677829165477e-05, 0.00016310432692989707, 0.0012943504843860865, -0.0003997136664111167, 3.210139402654022e-05, -6.318488158285618e-05, -7.279928104253486e-05, -5.406280979514122e-05, 0.00013753915845882148, 5.277962191030383e-05, 0.0006249322323128581, 0.0007628534222021699, -0.0009596747695468366, 0.000808863842394203, -0.0003812069771811366, 0.000760282389819622, 7.733510574325919e-05, -4.765476205648156e-06, -0.0005177540588192642, 0.00011744510265998542, 0.00041752608376555145], [-0.0017268352676182985, -0.0011028371518477798, 0.004980889614671469, -0.006069464609026909, 0.021450188010931015, 0.002029690658673644, -0.05686716362833977, 0.03983224183320999, 0.015292956493794918, 0.028363201767206192, -0.004694035742431879, 0.014800520613789558, -0.05820213258266449, 0.0012591189006343484, 0.06227254122495651, 0.019152004271745682, -0.011850136332213879, -0.002636161632835865, -0.0010934890015050769, -0.0025108936242759228, -0.044890813529491425, 0.0021480072755366564, 0.008829453960061073, 0.0016622705152258277, 0.005718746222555637, -0.0012862945441156626, -0.002209796104580164, -0.0025204564444720745, 0.022457070648670197, 0.01335906982421875, 0.006052803713828325, -0.0012266971170902252, -0.0027429508045315742, -0.0036957026459276676, -0.0021987135987728834, 0.015366815030574799, 0.005271599628031254, -0.017414120957255363, 0.03790074586868286, -0.027841323986649513, 0.03694137930870056, -0.009187856689095497, -0.0556449256837368, 0.010654528625309467, -0.005053611006587744, -0.02710978128015995, 0.001478942227549851, -0.009047027677297592], [-0.0156693197786808, 0.007185669615864754, -0.023218007758259773, -0.08441837131977081, 0.055774036794900894, -0.17237333953380585, -0.11377895623445511, 0.10050754249095917, -0.025267092511057854, 0.030280496925115585, 0.023000946268439293, 0.04564874246716499, 0.030509287491440773, -0.012240206822752953, 0.027593402191996574, -0.11789734661579132, -0.013645232655107975, 0.011703654192388058, -0.03444929048418999, 0.007610148750245571, 0.2142569124698639, -0.19693419337272644, 0.042203303426504135, 0.006888622883707285, 0.222040593624115, -0.013746414333581924, -0.008962705731391907, -0.017493100836873055, -0.007989287376403809, -0.027655355632305145, 0.01902054436504841, -0.024226771667599678, 0.004857642576098442, -0.006919216830283403, 0.0030268586706370115, 0.0026286127977073193, -0.015841685235500336, -0.18022285401821136, -0.05623498931527138, -0.07619071751832962, -0.08992403745651245, -0.11518745124340057, -0.01708417944610119, 0.0415840819478035, -0.03508642315864563, -0.012888542376458645, 0.020304765552282333, -0.21737626194953918], [-0.0005744498339481652, 7.436529267579317e-05, 0.00042121458682231605, -0.0003181060601491481, 0.0020839748904109, 0.00025100362836383283, -6.553667481057346e-05, 0.001869500381872058, -0.0009699848014861345, -0.0043223765678703785, -0.00025929170078597963, 0.0012661300133913755, 0.000992583460174501, -0.0001065030592144467, -0.004539600573480129, -0.0018049735808745027, -0.0006138354656286538, -1.2954225894645788e-05, -0.00010172980546485633, -0.00016403662448283285, -0.0005740046035498381, -0.0038115759380161762, 0.0011423875112086535, 0.0002099263365380466, 0.0014323941431939602, -0.0001799870078684762, -0.00016753548698034137, -0.0003795443335548043, -0.003963131923228502, 0.004213837441056967, -0.0020053156185895205, -0.0002727084211073816, -0.00015126469952519983, -0.00039017494418658316, -0.00013008755922783166, -0.00015131908003240824, -0.0002912243362516165, 0.001141546294093132, 0.003629275830462575, 0.002264181151986122, 0.0015392437344416976, -0.0036542692687362432, 0.009680313989520073, 0.0008989489870145917, -0.0004334668046794832, -0.00455803656950593, 0.0007694645319133997, 0.0014495912473648787], [-2.8096412279410288e-05, 1.3499364285962656e-05, -3.0190447432687506e-05, -9.752865298651159e-05, 2.2337871996569447e-05, -0.00013419229071587324, -9.840395796345547e-05, -4.9580776249058545e-06, -6.252648745430633e-05, -9.13536553071026e-07, 3.328280581627041e-05, 5.2941482863388956e-05, 3.6344641557661816e-05, -2.2353138774633408e-05, 2.9128870664862916e-05, -0.00013048754772171378, -1.1838548743980937e-05, 1.941109621839132e-05, -4.479970084503293e-05, 1.3742977898800746e-05, 0.00015118985902518034, -0.000215198437217623, 5.06951728311833e-05, 1.0344849215471186e-05, 0.0001946902193594724, -2.0080909962416627e-05, -1.2395836165524088e-05, -2.708293504838366e-05, -0.00014240044401958585, 1.542420250189025e-05, -2.1060372091596946e-05, -3.6566467315424234e-05, 1.0313653547200374e-05, -9.215415957442019e-06, 7.154049853852484e-06, -2.04341922653839e-05, -3.503952029859647e-05, -0.00013765430776402354, -4.519459980656393e-05, -4.137968790018931e-05, -6.512978870887309e-05, -0.00018597448070067912, 0.00022623313998337835, 5.380687798606232e-05, -4.618669117917307e-05, -0.00012659793719649315, 3.6474400985753164e-05, -0.00016813998809084296], [-0.0009620636119507253, -0.001087983837351203, 0.011235347017645836, -0.011949542909860611, -0.01490275003015995, -0.008095529861748219, -0.07248552143573761, 0.023889413103461266, 0.022112056612968445, 0.06680384278297424, -0.008658956736326218, 0.0155564546585083, -0.13250301778316498, 0.0009266225970350206, 0.07398330420255661, 0.003449348034337163, -0.014081930741667747, -0.0035602604039013386, 8.980697020888329e-05, -0.002937633777037263, -0.07956340163946152, -0.04295358806848526, 0.007911543361842632, 0.0018525199266150594, -0.06853695213794708, -0.0005116612883284688, -0.002137190895155072, -0.00285478588193655, 0.08224177360534668, 0.012123293243348598, 0.015653157606720924, -0.0014542726567015052, -0.0031279504764825106, -0.004696390125900507, -0.002134633483365178, 0.011539820581674576, 0.0044160145334899426, 0.03468327596783638, 0.12348513305187225, 0.09697990119457245, 0.10173895210027695, -0.023246506229043007, -0.021741200238466263, 0.01576096937060356, -0.006402685772627592, -0.033663053065538406, 0.005943755619227886, 0.05025249719619751], [-5.9868245443794876e-05, -2.209254034823971e-06, 8.031444303924218e-05, -6.741228571627289e-05, 0.00011241996253374964, -4.6266532081062905e-06, -3.4140968637075275e-05, -9.785489237401634e-05, 3.87148538720794e-05, -0.0004126436251681298, -5.8052315580425784e-05, 0.0002271810226375237, -3.692967220558785e-05, 2.9913287562521873e-06, 0.000243199392571114, -3.096006821579067e-06, -0.0001457124890293926, -2.0145058442722075e-05, -2.6408868507132865e-05, -3.6772875319002196e-05, -0.00015044008614495397, -0.00043670207378454506, 0.00015910802176222205, 3.1533454603049904e-05, 0.00038808080716989934, -1.8303204342373647e-05, -3.1624855182599276e-05, -4.54574910691008e-05, 0.00021862017456442118, 0.0008529413025826216, -0.00014454287884291261, -3.10938194161281e-05, -3.3616179280215874e-05, -6.67299100314267e-05, -3.0474828236037865e-05, 0.00010807933722389862, 1.8200902559328824e-05, 0.00016852456610649824, 0.0002912885684054345, -0.0004837973101530224, 0.0002665630599949509, -0.00038080266676843166, 0.0005607696366496384, 0.0001395844592479989, -8.116029493976384e-05, -0.0005854139453731477, 9.134478750638664e-05, -3.757300873985514e-05], [-4.2262807255610824e-05, 2.0435238184290938e-05, -5.118796616443433e-05, -0.00019457978487480432, 6.124822539277375e-05, -0.00026283180341124535, -0.0002723847865127027, 3.77145734091755e-05, -7.308582280529663e-05, 5.4325053497450426e-05, 5.51030934730079e-05, 0.00010126947745447978, 5.914265784667805e-05, -3.622123404056765e-05, 0.00017167700571008027, -0.0002224638155894354, -3.2727588404668495e-05, 2.993647831317503e-05, -8.245489880209789e-05, 2.2318996343528852e-05, 0.0002569663047324866, -0.00040023415931500494, 9.318081720266491e-05, 1.8251119399792515e-05, 0.00036216157604940236, -3.505812492221594e-05, -2.4659331756993197e-05, -4.835909203393385e-05, -0.0001252847578143701, -6.0833317547803745e-06, 1.830865949159488e-05, -6.293192564044148e-05, 1.5298295693355612e-05, -1.7894499251269735e-05, 1.0851251317944843e-05, -8.40571431126591e-07, -4.4906122639076784e-05, -0.0002660660829860717, -9.697925997897983e-05, -5.5247204727493227e-05, -9.874691750155762e-05, -0.000298956292681396, 0.0002754457527771592, 9.487511124461889e-05, -8.655694546177983e-05, -0.0001278662239201367, 5.118274930282496e-05, -0.0003733621269930154], [-0.00016381045861635357, 5.5592881835764274e-05, -6.594420119654387e-05, -0.00046796619426459074, -6.108521483838558e-05, -0.0005818756762892008, -0.0002842384565155953, -0.0004034749581478536, -0.00025008292868733406, -0.0003022405435331166, 9.720031084725633e-05, 0.00038673903327435255, 2.859587038983591e-05, -9.222399967256933e-05, 0.0004700167919509113, -0.0005699077155441046, -0.00015913274546619505, 7.103083771653473e-05, -0.00021457851107697934, 2.999927346536424e-05, 0.00042070538620464504, -0.0013932955916970968, 0.0003933133848477155, 6.71111629344523e-05, 0.0010186668951064348, -9.853996016317979e-05, -7.564206316601485e-05, -0.00014698394807055593, -0.0004833386919926852, 0.0007071454892866313, -0.0001409604010405019, -0.00017947879678104073, 1.979065200430341e-05, -8.975842501968145e-05, 7.544628715550061e-06, -1.564771810080856e-05, -0.00013202644186094403, -0.0004462165234144777, 1.726891059661284e-05, -0.00045183516340330243, -6.050557203707285e-05, -0.001196836237795651, 0.0014711007243022323, 0.0003261766687501222, -0.00026222196174785495, -0.0010561280651018023, 0.00023000843066256493, -0.0008669932140037417], [-0.005539612844586372, 0.0005988060147501528, 0.005372985266149044, -0.003789238864555955, 0.04746227338910103, 0.0043379622511565685, -0.0296859722584486, 0.005863072816282511, 0.013197677209973335, 0.03231139853596687, -0.0035925335250794888, 0.02864343672990799, 0.004227470140904188, -0.0018477607518434525, 0.02047409676015377, 0.029253654181957245, -0.016698185354471207, -0.001220283331349492, -0.009780308231711388, -0.0017834734171628952, 0.005429290235042572, -0.02816525474190712, 0.006021616514772177, 0.003995559178292751, 0.09787795692682266, -0.0050024124793708324, -0.004552615340799093, -0.008532376028597355, -0.025689203292131424, -0.012905405834317207, -0.0031745797023177147, -0.008136443793773651, -0.0027336108032613993, -0.007506742607802153, -0.0019442294724285603, 0.01031946949660778, 0.000387539534131065, 0.02211860753595829, -0.004417081363499165, 0.00023513007909059525, -0.010808533988893032, -0.002305748173967004, -0.022085661068558693, 0.02381674386560917, -0.014576929621398449, 0.04095336049795151, 0.010642407462000847, 0.012045012786984444], [0.007112864870578051, -0.006201182026416063, 0.03928954899311066, 0.04865889623761177, 0.06674476712942123, 0.044860925525426865, -0.045211054384708405, 0.048627935349941254, 0.06793896853923798, -0.14341554045677185, -0.03231476992368698, 0.009170100092887878, 0.030102476477622986, 0.010811143554747105, 0.016923198476433754, 0.13680823147296906, -0.024891819804906845, -0.01848803646862507, 0.018621765077114105, -0.011859897524118423, -0.09629372507333755, 0.02694561518728733, -0.04333598539233208, 0.0006133149727247655, -0.04679188132286072, 0.010554748587310314, -5.377241177484393e-05, 0.007969832047820091, 0.09882356226444244, 0.177613765001297, -0.05578794702887535, 0.011612843722105026, -0.010292069055140018, -0.007276051677763462, -0.00804960634559393, 0.028461650013923645, 0.017554817721247673, 0.1087021604180336, 0.1620296984910965, -0.13710124790668488, 0.1492220163345337, 0.045402105897665024, -0.038416534662246704, 0.002213228726759553, 0.008748834021389484, 0.02781030163168907, 0.004883688874542713, 0.1150951236486435], [-0.00019575840269681066, 0.0002566279435995966, 0.004288961179554462, -0.0010333898244425654, 0.02784268744289875, -0.006822723895311356, -0.026784077286720276, 0.020625129342079163, 0.012660694308578968, -0.0069681741297245026, -0.0026831822469830513, 0.0058908602222800255, 0.01645749807357788, -0.0005572193767875433, 0.0009379797847941518, 0.018399497494101524, -0.005373937077820301, -0.0017066264990717173, -0.001345682772807777, -0.0003134861763101071, -0.0060853539034724236, -0.013978047296404839, -0.009534195996820927, 0.000930791546124965, 0.011515006422996521, 6.200916686793789e-05, -0.0012152682757005095, -0.0011981857242062688, 0.03176112100481987, 0.003726320806890726, -0.008529555052518845, -0.0015673686284571886, -0.0006539710448123515, -0.001925098360516131, -0.00031806377228349447, 0.003931527491658926, -5.5845150200184435e-05, 0.008161654695868492, 0.005053267348557711, -0.004069741815328598, 0.019402964040637016, 0.00808277353644371, -0.02373526804149151, 0.005105918273329735, -0.002890304196625948, 0.020421195775270462, 0.004059388302266598, -0.002829716308042407], [-0.0002905607398133725, 8.955656812759116e-05, 3.705819835886359e-05, -0.0006873011006973684, 0.0010385126806795597, -0.001086670090444386, -0.0013662176206707954, 0.0005283826612867415, -9.832172509049997e-05, -0.0007993993349373341, 6.186141399666667e-05, 0.0007346757920458913, 0.0003205286047887057, -0.00013742587179876864, 0.000407183455536142, -0.0003098978486377746, -0.00037284422433003783, 4.300025830161758e-05, -0.0002956642128992826, 1.5426179743371904e-05, 0.0004997679498046637, -0.0023063896223902702, 0.00031255465000867844, 0.0001280162250623107, 0.0018858241382986307, -0.00012257065100129694, -0.00013808018411509693, -0.0002303033834323287, -0.000674210547003895, 0.0021096784621477127, -0.0007727128104306757, -0.000278721796348691, -1.9403125861572335e-06, -0.00018857464601751417, -1.4897203982400242e-05, 6.974196003284305e-05, -0.0002197336289100349, -0.0003638892958406359, 0.0006230339058674872, -0.0020951225887984037, 0.0005850235465914011, -0.0020840922370553017, 0.0029899959918111563, 0.0005945225129835308, -0.00041659874841570854, -0.0017805378884077072, 0.00046226370614022017, -0.0009369629551656544], [-8.614302714704536e-06, -1.6679716281942092e-05, 0.00015803058340679854, 0.00012026139302179217, 0.00037497124867513776, 3.830247078440152e-05, -0.00018672787700779736, 0.0002824151888489723, 0.000234147984883748, -0.0003467852948233485, -0.0001213605937664397, 0.00010417717567179352, -6.321395630948246e-05, 3.270355227869004e-05, -2.0252520698704757e-05, 0.0004326679336372763, -0.00011961523705394939, -6.604083318961784e-05, 5.7715922594070435e-05, -5.2308478188933805e-05, -0.0004876919847447425, -0.0002652055991347879, -9.070078522199765e-05, 1.2905216863146052e-05, -5.040666292188689e-05, 3.4731507184915245e-05, -8.455954230157658e-06, 1.4264279343478847e-05, 0.000223819850361906, 0.0007718721171841025, -0.0002610483206808567, 2.9479784643626772e-05, -4.462784272618592e-05, -4.648810863727704e-05, -3.651224687928334e-05, 0.00010861035843845457, 4.485016688704491e-05, 0.00046822219155728817, 0.00048296095337718725, -0.0006511952960863709, 0.0005669800448231399, -0.00016780673468019813, 0.00036823752452619374, 4.143825935898349e-05, 7.405226369883167e-06, -0.00025806186022236943, 6.526412471430376e-05, 0.0002919951220974326], [-8.829446414893027e-06, 8.130904234349146e-07, 1.6963918824330904e-05, -2.4584907805547118e-05, 0.0001115470877266489, -2.7716218028217554e-05, -0.00013506719551514834, 0.00010868336539715528, 3.069857484661043e-05, -3.0239223633543588e-05, -1.1103942597401328e-05, 4.535172047326341e-05, 3.661144364741631e-05, -2.261822828586446e-06, 4.842625276069157e-05, 1.3868504538550042e-05, -3.238093631807715e-05, -4.727269697468728e-06, -8.882831934897695e-06, -4.168727627984481e-06, 2.4862049031071365e-05, -0.00013396397116594017, 9.803197826840915e-06, 6.2683734540769365e-06, 6.354426295729354e-05, -4.017031187686371e-06, -7.940211617096793e-06, -1.099263499781955e-05, 9.477193088969216e-05, 3.4241089451825246e-05, -1.3137340829416644e-05, 