{"model_data": {"model": "SimpleRNN", "input_size": 2, "skip": 1, "output_size": 1, "unit_type": "LSTM", "num_layers": 1, "hidden_size": 24, "bias_fl": true}, "state_dict": {"rec.weight_ih_l0": [[-0.15162654221057892, -0.00974934734404087], [-0.16816404461860657, 0.06615746021270752], [0.003955882042646408, 0.03568466380238533], [-0.00016907928511500359, -0.0009992722189053893], [0.08355437964200974, -0.07475608587265015], [-0.11686903238296509, 0.00036583899054676294], [0.024570109322667122, 0.05449898913502693], [-0.0032614523079246283, -0.0005344009841792285], [0.035942379385232925, 0.05073360353708267], [0.00019558581698220223, 1.8026354155153967e-05], [0.0025823547039180994, -0.0013487847754731774], [0.0012352687772363424, 0.08412874490022659], [0.002531185047701001, 0.052988648414611816], [0.16300980746746063, 0.03132857382297516], [-0.02642839401960373, 0.0009014998213388026], [-0.062102850526571274, 0.048629846423864365], [0.0010289745405316353, -0.0007885826635174453], [-0.012545083649456501, 0.037412580102682114], [-0.019960930570960045, -0.028785085305571556], [-0.050136953592300415, 0.20906566083431244], [0.1092856377363205, -0.10117685049772263], [0.003082479117438197, 0.009689545258879662], [-0.0022634451743215322, -0.02096918597817421], [-0.04456549882888794, 0.014725336804986], [-0.1890653371810913, 0.011211615055799484], [0.07073847949504852, -0.02307640202343464], [0.0036351189482957125, 0.0383295938372612], [-6.586727249668911e-05, -0.0011214767582714558], [-0.35139602422714233, 0.06950569897890091], [-0.19234563410282135, -0.045720964670181274], [0.049199339002370834, 0.07682555913925171], [-0.0034148080740123987, -0.0006887457566335797], [0.11650605499744415, -0.016906747594475746], [0.00019302939472254366, 3.409515102248406e-06], [0.002758246613666415, -0.0021388151217252016], [0.035951562225818634, 0.1284382939338684], [-0.11867325752973557, -0.06214400380849838], [0.3617534339427948, -0.014160159975290298], [-0.030487611889839172, -0.0005557526601478457], [-0.08425916731357574, -0.02007763274013996], [0.0016122369561344385, -0.00167153833899647], [0.0032450661528855562, 0.012852203100919724], [-0.08198174089193344, 0.048125192523002625], [-0.06333478540182114, 0.21317331492900848], [0.22518949210643768, -0.10844092816114426], [0.005918584298342466, 0.009802834130823612], [-0.0002176068810513243, -0.02805616334080696], [-0.08931709825992584, 0.00026510818861424923], [0.20046468079090118, 0.018165258690714836], [0.32566890120506287, -0.0312664732336998], [-0.010109388269484043, 0.08217958360910416], [-0.004352523945271969, 0.011327836662530899], [-0.45808714628219604, -0.02736441045999527], [-0.26734602451324463, 0.052001748234033585], [-0.09145128726959229, -0.042938970029354095], [0.018353810533881187, -0.0077523477375507355], [0.18877914547920227, -0.03997437283396721], [0.005282903090119362, 0.0011848966823890805], [0.02613958716392517, -0.01417855266481638], [-0.22754527628421783, 0.03390122950077057], [0.16170941293239594, 0.015808353200554848], [0.19417788088321686, -0.0528482086956501], [-0.06260794401168823, 0.004284185823053122], [-0.24979889392852783, 0.002827246440574527], [-0.03394802659749985, 0.017774546518921852], [-0.27657976746559143, -0.06025862321257591], [0.08171381056308746, -0.022903677076101303], [0.2634138762950897, 0.06343117356300354], [-0.042792122811079025, -0.18851524591445923], [-0.02684280462563038, 0.003203723346814513], [0.021031759679317474, -0.037420853972435], [0.1811576783657074, 0.008530962280929089], [-0.14636340737342834, -0.004384875763207674], [0.05305613577365875, 0.10011961311101913], [-0.012160161510109901, 0.03642083704471588], [-0.0010561530943959951, -0.0014543428551405668], [-0.13062098622322083, -0.00237341970205307], [-0.1320311576128006, -0.014339284040033817], [0.06152954325079918, 0.06939245760440826], [-0.0033235952723771334, -0.0007012317655608058], [0.10723305493593216, -0.003959327936172485], [-1.683393020357471e-05, 2.0798150217160583e-05], [0.001373728271573782, -0.0013225864386186004], [0.02347291074693203, 0.15350283682346344], [-0.028205763548612595, 0.047335993498563766], [0.36609894037246704, 0.0017701572505757213], [-0.019987067207694054, -0.0006185247912071645], [-0.035227347165346146, 0.06027064844965935], [0.002320655854418874, -0.0009040404111146927], [0.02153940312564373, 0.03349032998085022], [-0.009633565321564674, -0.022649146616458893], [-0.00521424412727356, 0.012843359261751175], [0.12000557035207748, -0.08835400640964508], [-0.01906360313296318, 0.011028643697500229], [-0.010376183316111565, -0.020152397453784943], [-0.03402300179004669, -9.422733273822814e-05]], "rec.weight_hh_l0": [[-0.0734456330537796, -0.053130242973566055, -0.0022247398737818003, 0.010289746336638927, 0.027651682496070862, 0.05830338969826698, 0.021503368392586708, -0.009374442510306835, -0.019656801596283913, 0.0001730873918859288, 0.0007488770643249154, -0.030064599588513374, 0.005954325199127197, 0.005412840750068426, 0.026061905547976494, -0.04554180055856705, -0.0034589767456054688, 0.054902080446481705, 0.02973376214504242, -0.010659918189048767, -0.01207859255373478, -1.7417736671632156e-05, 0.001487252302467823, 0.04202185943722725], [-0.02281161956489086, 0.06438686698675156, -0.016673587262630463, 0.006309043616056442, 0.09676631540060043, 0.04332636669278145, 0.006736869923770428, -0.0035932259634137154, -0.0643232986330986, 0.0017501062247902155, -0.008174736052751541, 0.0074725765734910965, -0.04025294631719589, 0.18736666440963745, 0.011073713190853596, 0.003720462555065751, 0.0030117209535092115, 0.019801480695605278, 0.048299793154001236, 0.014611290767788887, -0.022808849811553955, 0.016605764627456665, -0.005141785833984613, -0.021328700706362724], [-0.002422455931082368, 0.006169738247990608, -0.01014462299644947, 0.00683786254376173, -0.008943821303546429, 0.006079547107219696, 0.0028953072614967823, -0.00465271295979619, 0.022870352491736412, 0.0011889913585036993, -0.002961682388558984, 0.01606922410428524, 0.026858927682042122, 0.004746562335640192, 0.005784881301224232, 0.0008890845929272473, 0.0012240409851074219, 0.02870672196149826, 0.01101071946322918, -0.02122226543724537, -0.021787583827972412, 0.01058405265212059, -0.00658533675596118, -0.007073484361171722], [-0.0027938825078308582, -0.0010914711747318506, -0.002747688675299287, 0.0022182657849043608, -0.0037471086252480745, 0.003235149197280407, 0.0020233422983437777, -0.001642042538151145, 0.0035622294526547194, 0.00025896652368828654, -0.00022191258904058486, 0.0020690634846687317, 0.005765069741755724, -0.0041893245652318, 0.002657888690009713, -0.00015019391139503568, -0.00027457880787551403, 0.0095463115721941, 0.004171065520495176, -0.004524354822933674, -0.0033948731143027544, 0.0019586787093430758, -0.000647347595077008, 0.0015750768361613154], [0.09010229259729385, 0.12789371609687805, -0.015402655117213726, 0.010341241955757141, -0.004784136079251766, -0.06243910267949104, -0.0074101039208471775, -0.006112776231020689, 0.06855286657810211, 0.0016192118637263775, -0.0017655951669439673, 0.056871332228183746, 0.006791027262806892, 0.061951830983161926, -0.009874075651168823, 0.1730089634656906, -0.0009460376459173858, -0.10284773260354996, -0.045292939990758896, 0.00011168108903802931, 0.015522200614213943, 0.01920401118695736, 0.0016915146261453629, -0.12613186240196228], [-0.05974516645073891, -0.04870318993926048, -0.0009519370505586267, 0.00947578251361847, 0.02009965293109417, 0.036157574504613876, 0.0021394346840679646, -0.00946865975856781, -0.017386645078659058, 0.00019048080139327794, -7.257983816089109e-05, -0.035203736275434494, 0.007528051733970642, 0.015902725979685783, 0.020901186391711235, -0.0640660896897316, -0.002109760884195566, 0.04022711515426636, 0.030834272503852844, 0.039657995104789734, -0.013383470475673676, 7.309181819437072e-05, -0.0005840098019689322, 0.04957907274365425], [-0.027119522914290428, -0.0070414794608950615, -0.004500743933022022, 0.008827228099107742, -0.0070617045275866985, 0.006869729142636061, -0.005301565397530794, -0.007416266482323408, 0.006616888102144003, 0.0008734030416235328, -0.0011550645576789975, -0.015321046113967896, 0.01564786024391651, 0.022336233407258987, 0.01045361440628767, -0.04211902990937233, -0.0009872418595477939, 0.02158995345234871, 0.028053704649209976, 0.051142819225788116, -0.025777989998459816, 0.004741796292364597, -0.004944196902215481, 0.03927682340145111], [-0.0032082635443657637, -0.0025063820648938417, -0.0009441058500669897, 0.0012461827136576176, -0.001954385545104742, 0.0027439661789685488, 0.0017276552971452475, -0.0010260938433930278, 0.00032519534579478204, 8.586687181377783e-05, 4.1472336306469515e-05, -0.00037547305691987276, 0.003014044603332877, -0.002335822908207774, 0.0019351267255842686, -0.001661348738707602, -0.00026465891278348863, 0.004687020555138588, 0.002100222045555711, -0.0023929416202008724, -0.00018472035299055278, 0.0005938104004599154, -0.00010564735566731542, 0.0022758985869586468], [-0.04067462682723999, 0.03390831500291824, -0.021608537063002586, 0.015994757413864136, -0.023266626521945, 0.0240158773958683, -0.0030438792891800404, -0.011817471124231815, 0.04921193793416023, 0.0025315312668681145, -0.0056360154412686825, 0.0010029514087364078, 0.040740616619586945, -0.001825704937800765, 0.0170307420194149, -0.05901705473661423, 0.0011248582741245627, 0.06523983925580978, 0.015808621421456337, -0.04077131301164627, -0.08384087681770325, 0.020703351125121117, -0.01645422726869583, 0.02896556258201599], [4.3623524106806144e-05, 0.0002613887481857091, -0.00015706343401689082, 7.396905857603997e-05, -0.00017943604325409979, -1.9434563000686467e-05, -4.671938222600147e-05, -4.7803969209780917e-05, 0.00036538217682391405, 1.6960584616754204e-05, -4.70063132524956e-05, 0.0001805109641281888, 0.0003239125944674015, 0.00014361242938321084, 3.308674058644101e-05, 2.077853787341155e-05, 2.6459309083293192e-05, 0.0003203777887392789, 0.00011525500303832814, -9.150140976998955e-05, -0.00025003511109389365, 0.00014535286754835397, -0.00010251757339574397, -0.00013202654372435063], [-0.000573459779843688, 0.0030678485054522753, -0.001957189291715622, 0.0011257495498284698, -0.0028247276786714792, 7.648312748642638e-05, -0.0007004783838056028, -0.0007921189535409212, 0.003955177962779999, 0.00020558761025313288, -0.0005527778412215412, 0.0013277139514684677, 0.004074530676007271, 0.0026515594217926264, 0.0007607275038026273, 3.311503678560257e-05, 0.00026935944333672523, 0.004450807347893715, 0.00200738781131804, 0.001130583812482655, -0.0030042354483157396, 0.0017532455967739224, -0.0012245993129909039, 3.645380638772622e-05], [-0.026888173073530197, -0.028250420466065407, -0.015402087941765785, 0.016780704259872437, -0.028487678617239, 0.025134839117527008, 0.022785376757383347, -0.012534432113170624, 0.031521737575531006, 0.0018539009615778923, -0.0023930943571031094, 0.013488591648638248, 0.06055910140275955, -0.01803003065288067, 0.02183738350868225, -0.018899161368608475, -0.0011720247566699982, 0.06734577566385269, 0.035477083176374435, -0.028187694028019905, -0.025792134925723076, 0.01473606564104557, -0.009808125905692577, 0.005407201591879129], [-0.012008797377347946, 0.0711173340678215, -0.019752828404307365, 0.016820576041936874, 0.1616659313440323, 0.021378645673394203, -0.002029422204941511, -0.012843404896557331, 0.073629230260849, 0.0023480982054024935, -0.0048459917306900024, 0.020375197753310204, -0.041095487773418427, 0.07543239742517471, 0.02591353841125965, -0.00048190547386184335, -0.000419428339228034, -0.034565795212984085, 0.048777125775814056, -0.09443434327840805, -0.043679699301719666, 0.021297473460435867, -0.007184011861681938, 0.017976058647036552], [-0.02248949185013771, 0.02852787636220455, -0.012262781150639057, 0.01466815173625946, -0.04589315876364708, -0.00962196197360754, -0.03519956395030022, -0.013034175150096416, 0.026341065764427185, 0.0028091887943446636, -0.00525243254378438, -0.09078983217477798, 0.0007117122877389193, 0.08121739327907562, 0.010100485756993294, -0.10326652228832245, 0.0011408348800614476, -0.02398751676082611, 0.03336368873715401, 0.11184033751487732, -0.07549353688955307, 0.010346349328756332, -0.019549552351236343, 0.09847480058670044], [-0.019985543563961983, -0.01915217563509941, -0.0008960079285316169, 0.004869544878602028, -0.0034434450790286064, 0.016807053238153458, 0.009915155358612537, -0.004266443196684122, -0.009184054099023342, 7.639845716767013e-05, 0.0011405678233131766, -0.004854769911617041, 0.004930051509290934, -0.01030969899147749, 0.009774425067007542, -0.004309618845582008, -0.00197768141515553, 0.02162676677107811, 0.009451352059841156, -0.007366074714809656, 0.0028708456084132195, -0.00035888879210688174, 0.0021585493814200163, 0.015181881375610828], [-0.04641667380928993, -0.028893541544675827, -0.025105692446231842, 0.023888135328888893, -0.015171348117291927, 0.05372342839837074, 0.034529585391283035, -0.018757812678813934, 0.026070263236761093, 0.0023999069817364216, -0.0032812408171594143, 0.020872367545962334, 0.0782933384180069, -0.06323036551475525, 0.03429798036813736, -0.012497110292315483, -0.0007773776305839419, 0.06960262358188629, 0.03968901187181473, -0.09000609070062637, -0.01944386400282383, 0.02307196706533432, -0.0061567057855427265, 0.004483609460294247], [-0.0018030868377536535, 0.0003531702095642686, -0.0013164744013920426, 0.0011195886181667447, -0.0017889960436150432, 0.0012440802529454231, 0.0003350542683620006, -0.0008503437857143581, 0.0019444538047537208, 0.00013636768562719226, -0.00022129702847450972, 0.0005944198928773403, 0.0026404208038002253, -8.135660209518392e-06, 0.0012489955406636, 0.0001262944715563208, -1.99505975615466e-05, 0.004289165139198303, 0.002048484282568097, 0.000888812995981425, -0.001988547621294856, 0.0010678578400984406, -0.00045179930748417974, 0.0017442223615944386], [-0.049016475677490234, -0.04293615370988846, -0.013200659304857254, 0.018603572621941566, -0.015082390047609806, 0.04396481812000275, 0.03275860846042633, -0.01475533563643694, 0.022144347429275513, 0.0014986336464062333, 0.0014688518131151795, 0.011706357821822166, 0.049407366663217545, -0.07366327941417694, 0.030291976407170296, -0.015060100704431534, -0.005595887545496225, 0.09924571216106415, 0.04235120862722397, -0.040689852088689804, -0.02094419114291668, 0.007877175696194172, 0.001011720160022378, 0.031627386808395386], [-0.05516335368156433, -0.050361983478069305, -0.013121449388563633, 0.018932314589619637, -0.05012371018528938, 0.040013525635004044, 0.020520087331533432, -0.0158999040722847, 0.0034019164741039276, 0.0012081051245331764, 0.002465097000822425, -0.032843902707099915, 0.0458504818379879, -0.06963936239480972, 0.030949464067816734, -0.0539657287299633, -0.0058157118037343025, 0.05902154743671417, 0.05520216003060341, -0.0032005617395043373, 0.0011694286949932575, 0.004743821453303099, -0.002273781457915902, 0.04734564945101738], [-0.06125899776816368, -0.08397046476602554, -0.012352664023637772, 0.024793365970253944, 0.013618504628539085, 0.0646013617515564, 0.044467467814683914, -0.019718362018465996, 0.01597132347524166, 0.001952865393832326, -3.088700395892374e-05, -7.082401862135157e-05, 0.06854741275310516, -0.07048095762729645, 0.04128853604197502, -0.057115595787763596, -0.005377962253987789, 0.09164772927761078, 0.05339263379573822, -0.05287637934088707, -0.04893142357468605, 0.013131861574947834, -0.0019390409579500556, 0.06497413665056229], [0.025135809555649757, 0.08227648586034775, -0.027879541739821434, 0.009015011601150036, -0.0825398862361908, -0.036730993539094925, -0.021505987271666527, -0.0057129026390612125, 0.07418078184127808, 0.00262909266166389, -0.00695536844432354, 0.010432888753712177, 0.050239235162734985, -0.013158257119357586, -0.0045287832617759705, -0.030532481148838997, 0.0056551359593868256, 0.013565942645072937, -0.016829513013362885, 0.04846372827887535, -0.06272505223751068, 0.023094329982995987, -0.021975403651595116, 0.018840676173567772], [0.001023793243803084, 0.007092725485563278, -0.010429700836539268, 0.005955872591584921, -0.013991746120154858, 0.0025808156933635473, 7.036681927274913e-05, -0.004121261183172464, 0.02383308671414852, 0.0010969165014103055, -0.0030295634642243385, 0.011979078873991966, 0.02511213719844818, 0.0068441759794950485, 0.0041988627053797245, 0.006419800221920013, 0.001792644732631743, 0.01748550496995449, 0.0048484825529158115, -0.009423737414181232, -0.01716822199523449, 0.01057941559702158, -0.006535375025123358, -0.008127979934215546], [-0.004206518176943064, 0.009483302012085915, -0.006929223891347647, 0.0038689044304192066, -0.005102792289108038, 0.000879683590028435, -0.004403443541377783, -0.0028572494629770517, 0.01072397455573082, 0.0006643817177973688, -0.001954457489773631, 0.0005039832904003561, 0.011236583814024925, 0.017795812338590622, 0.0030649546533823013, 0.0043776207603514194, 0.0009656790643930435, 0.011463643983006477, 0.008936322294175625, 0.007568965200334787, -0.005648191086947918, 0.0060127112083137035, -0.003190580988302827, 0.0015734345652163029], [-0.04185612127184868, -0.025199582800269127, -0.022900935262441635, 0.020738203078508377, -0.004199343733489513, 0.052480392158031464, 0.03559276834130287, -0.014797661453485489, 0.02347043715417385, 0.002279526088386774, -0.00173351657576859, 0.03854213282465935, 0.045962896198034286, -0.048717036843299866, 0.029717328026890755, 0.03637193515896797, -0.003500702092424035, 0.11173910647630692, 0.03733041509985924, -0.07494762539863586, -0.015871647745370865, 0.01874050311744213, -0.0013503716327250004, -0.017680002376437187], [-0.13706563413143158, -0.09776834398508072, -0.003396199084818363, 0.018642999231815338, 0.0289403535425663, 0.10554074496030807, 0.03859904408454895, -0.0160873681306839, -0.03460005670785904, 0.00041113983024843037, 0.002407775493338704, -0.04088018462061882, 0.017020368948578835, -0.01407634187489748, 0.049217358231544495, -0.05839182808995247, -0.00692170113325119, 0.1005568653345108, 0.06752845644950867, -0.05117754265666008, -0.012305354699492455, 0.0003248845168855041, 0.004194333218038082, 0.0597093291580677], [-0.054727766662836075, 0.10085947066545486, -0.08480621874332428, 0.03484290838241577, -0.017669957131147385, 0.07879715412855148, 0.02730678580701351, -0.019603488966822624, 0.22998715937137604, 0.007318466901779175, -0.016395321115851402, 0.16626127064228058, 0.2359219342470169, 0.09352070093154907, 0.038643598556518555, -0.024860545992851257, 0.002301893662661314, 0.3742271363735199, 0.11909011006355286, -0.14453163743019104, -0.2356831431388855, 0.061820343136787415, -0.026560340076684952, -0.027518579736351967], [-0.0029067466966807842, 0.006679358426481485, -0.01241149753332138, 0.008343467488884926, -0.011807235889136791, 0.0076359957456588745, 0.004346945323050022, -0.00566770089790225, 0.026974139735102654, 0.0014291476691141725, -0.0034152751322835684, 0.020061133429408073, 0.0322553776204586, 0.003258624579757452, 0.007247414439916611, 0.00418277271091938, 0.0013340602163225412, 0.03515985608100891, 0.013068781234323978, -0.02740897610783577, -0.024119284003973007, 0.012754659168422222, -0.007564107421785593, -0.009898276999592781], [-0.0028767024632543325, -0.001148210489191115, -0.00285833771340549, 0.002303639892488718, -0.003900266485288739, 0.003325563622638583, 0.0021006364841014147, -0.0017046986613422632, 0.0037201091181486845, 0.0002690607216209173, -0.00022427950170822442, 0.0021451846696436405, 0.005957311950623989, -0.004455434624105692, 0.00275501050055027, -0.00014455731434281915, -0.00029105041176080704, 0.009869186207652092, 0.0043129208497703075, -0.0046668448485434055, -0.0035051030572503805, 0.0020310310646891594, -0.00066079490352422, 0.0016464440850540996], [-0.2711944580078125, -0.27995017170906067, -0.01488937996327877, 0.04374970868229866, 0.12340401858091354, 0.2673405110836029, 0.12031710892915726, -0.03738328069448471, -0.05256488546729088, 0.0014599827118217945, 0.010095257312059402, -0.043081093579530716, 0.04983366280794144, -0.13420060276985168, 0.13778497278690338, -0.10700611025094986, -0.02219211868941784, 0.31579700112342834, 0.17912212014198303, -0.209380105137825, 0.07870994508266449, 0.005899718031287193, 0.02762516401708126, 0.026219218969345093], [-0.12859579920768738, -0.06982678174972534, -0.006760839838534594, 0.015822485089302063, 0.038960009813308716, 0.09322651475667953, 0.014651307836174965, -0.014698263257741928, -0.02545928582549095, 0.0004833318816963583, 0.0008447918226011097, -0.04628666862845421, 0.016910847276449203, 0.004508024547249079, 0.04393090307712555, -0.07734968513250351, -0.00468786247074604, 0.08643940091133118, 0.07710333168506622, -0.011991058476269245, -0.010224845260381699, 0.001604545395821333, 0.0017436661291867495, 0.0672464594244957], [-0.03255600109696388, -0.006948426831513643, -0.007549006026238203, 0.011952035129070282, -0.012926380150020123, 0.006836331449449062, -0.006131385453045368, -0.009722619317471981, 0.016133133322000504, 0.0013098561903461814, -0.0015759877860546112, -0.016827549785375595, 0.02936914749443531, 0.022728092968463898, 0.01345397625118494, -0.05616774782538414, -0.001465869601815939, 0.03354868292808533, 0.04031961038708687, 0.060652706772089005, -0.038086485117673874, 0.00723861763253808, -0.007221326697617769, 0.04876977950334549], [-0.003314318135380745, -0.0026297075673937798, -0.0009587061358615756, 0.0012760667596012354, -0.002003144007176161, 0.002835553139448166, 0.0018018621485680342, -0.0010530551662668586, 0.0002979920827783644, 8.626413182355464e-05, 5.06312535435427e-05, -0.0004243922885507345, 0.0030819338280707598, -0.002427408006042242, 0.0019943942315876484, -0.0017259122105315328, -0.00027804914861917496, 0.004790055565536022, 0.002146668964996934, -0.0024660895578563213, -0.00012118501035729423, 0.0005927548045292497, -9.505213529337198e-05, 0.0023570212069898844], [-0.054241545498371124, 0.07007775455713272, -0.06213782727718353, 0.03307851776480675, -0.058088455349206924, 0.04016530513763428, 0.003374170046299696, -0.020516691729426384, 0.137498676776886, 0.00603043707087636, -0.012086584232747555, 0.07384160906076431, 0.17197740077972412, -0.04514734074473381, 0.030169114470481873, -0.00831413734704256, 0.002401500241830945, 0.21054796874523163, 0.05116942524909973, -0.2322860062122345, -0.12570953369140625, 0.05404136702418327, -0.03235718607902527, -0.02976389229297638], [4.235448068357073e-05, 0.0002517995599191636, -0.0001599032839294523, 7.624576392117888e-05, -0.0001835704897530377, -1.4918232409399934e-05, -3.863634628942236e-05, -4.926532710669562e-05, 0.0003671369922813028, 1.708030504232738e-05, -4.611944314092398e-05, 0.0001902154617710039, 0.0003295273636467755, 0.00011907899170182645, 3.661648224806413e-05, 4.129898297833279e-05, 2.5204280973412097e-05, 0.0003336873196531087, 0.00011902677942998707, -0.00010599585948511958, -0.00024047323677223176, 0.00014693281264044344, -0.00010043334623333067, -0.00014482556434813887], [-0.00034883111948147416, 0.003331703133881092, -0.0019172867760062218, 0.0010313352104276419, -0.002739917952567339, -7.854870636947453e-05, -0.0007540073129348457, -0.0007106417324393988, 0.003870254848152399, 0.00019760521536227316, -0.0005368710844777524, 0.001426349626854062, 0.0037488224916160107, 0.0026536600198596716, 0.0006282992544583976, 0.0005629401421174407, 0.00026898420765064657, 0.004215464927256107, 0.0018772764597088099, 0.0011137996334582567, -0.002887943061068654, 0.0016974363243207335, -0.0011684501077979803, -0.00028323789592832327], [-0.03101222775876522, -0.041058532893657684, -0.024154968559741974, 0.024645451456308365, -0.05400039628148079, 0.035888608545064926, 0.040122490376234055, -0.0175643153488636, 0.05790496990084648, 0.0027877159882336855, -0.002405312843620777, 0.03769620135426521, 0.10353753715753555, -0.05965602397918701, 0.03135352581739426, -0.014379357919096947, -0.0026689362712204456, 0.11537367850542068, 0.05203373357653618, -0.06515870988368988, -0.03520084545016289, 0.02245786041021347, -0.013499464839696884, -0.003414696315303445], [-0.07881134003400803, -0.019671784713864326, -0.047342099249362946, 0.026804625988006592, 0.050290875136852264, 0.09215942770242691, 0.018082648515701294, -0.01816823147237301, 0.12760700285434723, 0.004064798355102539, -0.008493517525494099, 0.062474094331264496, 0.11585768312215805, -0.02313953824341297, 0.04970425367355347, 0.022983701899647713, -4.2094849050045013e-05, 0.1849953681230545, 0.07458553463220596, -0.23244976997375488, -0.02742244489490986, 0.041529975831508636, -0.005711856298148632, -0.051917169243097305], [-0.023445680737495422, -0.004073685500770807, -0.007522158324718475, 0.013992463238537312, -0.11633015424013138, -0.007909688167273998, -0.014007621444761753, -0.013704716227948666, 0.13022196292877197, 0.0019835529383271933, 0.002431111177429557, -0.022027017548680305, 0.09542522579431534, -0.050241418182849884, 0.010734928771853447, -0.12838883697986603, -0.0051218788139522076, 0.03562643751502037, 0.003475283505395055, 0.041492804884910583, -0.15315905213356018, 0.0005766128306277096, -0.008201888762414455, 0.1428702026605606], [-0.023875845596194267, -0.022976921871304512, -0.0011744840303435922, 0.0058592832647264, -0.0042299856431782246, 0.019824620336294174, 0.011925970204174519, -0.005128076765686274, -0.010657493956387043, 9.513998520560563e-05, 0.0014018777292221785, -0.006296264939010143, 0.0062676044180989265, -0.01298649050295353, 0.011732727289199829, -0.004917191341519356, -0.0024127087090164423, 0.025593550875782967, 0.011908682994544506, -0.008057260885834694, 0.0036759376525878906, -0.0004437569878064096, 0.0025925266090780497, 0.017851892858743668], [-0.08330199867486954, -0.061835311353206635, -0.040520910173654556, 0.03590555116534233, -0.0792812630534172, 0.08389847725629807, 0.04996417835354805, -0.028944123536348343, 0.03778211027383804, 0.0032733522821217775, -0.0038772255647927523, 0.019398998469114304, 0.1706002950668335, -0.09712555259466171, 0.05477505177259445, -0.036810312420129776, -0.0012628954136744142, 0.11740010231733322, 0.0662112832069397, -0.15382584929466248, 0.007711329963058233, 0.03341471403837204, -0.013747412711381912, 0.01610996387898922], [-0.001415099948644638, 0.0008790490683168173, -0.0012286945711821318, 0.0009479352738708258, -0.0015720108058303595, 0.0008817160269245505, 0.00011504235590109602, -0.0007074368186295033, 0.0018707991112023592, 0.00012338763917796314, -0.00021101214224472642, 0.0006491040112450719, 0.002089138375595212, 0.0002228318917332217, 0.0009899026481434703, 0.0004972601891495287, -1.6713540844648378e-06, 0.0037256318610161543, 0.0017868760041892529, 0.0011115402448922396, -0.0020028057042509317, 0.0009710050071589649, -0.0004042793298140168, 0.0014848244609311223], [-0.09031964838504791, -0.0831051915884018, -0.03909014165401459, 0.03862164542078972, -0.06820958107709885, 0.07798703014850616, 0.07056158035993576, -0.027891892939805984, 0.12328711897134781, 0.0037224090192466974, 0.0022181691601872444, 0.05090998485684395, 0.1582755148410797, -0.15805737674236298, 0.05849089473485947, -0.04440388083457947, -0.011536438949406147, 0.23303066194057465, 0.08752941340208054, -0.08398508280515671, -0.0807100236415863, 0.022172681987285614, -0.00037177151534706354, 0.056387148797512054], [-0.13609780371189117, -0.13847941160202026, -0.018296247348189354, 0.03611200675368309, -0.10159636288881302, 0.08169355243444443, 0.03296183422207832, -0.030772874131798744, 0.002387951361015439, 0.0022478632163256407, 0.004050419665873051, -0.0985858142375946, 0.10515802353620529, -0.1397015005350113, 0.061634354293346405, -0.16051854193210602, -0.010955913923680782, 0.13147535920143127, 0.1449420005083084, 0.05068536102771759, -0.021676072850823402, 0.0052622356452047825, -0.009608233347535133, 0.11036631464958191], [-0.06183014437556267, -0.11406664550304413, -0.027645375579595566, 0.033775340765714645, 0.007813929580152035, 0.08166521787643433, 0.07510023564100266, -0.024379795417189598, 0.04905979335308075, 0.0028425923082977533, 0.0020191005896776915, 0.051594559103250504, 0.10666820406913757, -0.16934405267238617, 0.053162582218647, 0.010303917340934277, -0.008536730892956257, 0.17895115911960602, 0.02520446665585041, -0.20480304956436157, -0.04198811203241348, 0.02836592309176922, 0.011902323924005032, 0.05906650796532631], [0.029693327844142914, 0.13058818876743317, -0.05768029764294624, 0.025526849552989006, -0.151764914393425, -0.04971762001514435, -0.02489726059138775, -0.017019659280776978, 0.1553788036108017, 0.0057220784947276115, -0.013429805636405945, 0.035690244287252426, 0.12852780520915985, -0.04157210513949394, 0.004900692496448755, -0.07833266258239746, 0.008723726496100426, 0.0761285349726677, -0.004263447597622871, 0.03150476515293121, -0.13549429178237915, 0.04894159361720085, -0.04340672120451927, 0.03850800171494484], [0.0026748094242066145, 0.00978611409664154, -0.011917014606297016, 0.006480777636170387, -0.016985652968287468, 0.0013561825035139918, -0.0008497473900206387, -0.004399014171212912, 0.02756873145699501, 0.001255158567801118, -0.0035356832668185234, 0.014055076986551285, 0.027846530079841614, 0.008794297464191914, 0.004078756086528301, 0.010083334520459175, 0.0021883754525333643, 0.01813448593020439, 0.00533903855830431, -0.01082503143697977, -0.019914157688617706, 0.01214565522968769, -0.007634961977601051, -0.011647009290754795], [-0.003114901715889573, 0.01319833379238844, -0.008340052329003811, 0.004157097544521093, -0.005244148895144463, 0.0002888241724576801, -0.005130123812705278, -0.0029523379635065794, 0.013055326417088509, 0.0007778987637721002, -0.0022900179028511047, 0.0023271923419088125, 0.012357053346931934, 0.019459616392850876, 0.0028747913893312216, 0.007608463522046804, 0.0011625185143202543, 0.013562512584030628, 0.009775104001164436, 0.007818887010216713, -0.007169254589825869, 0.007101384922862053, -0.0036532923113554716, -0.00043805368477478623], [-0.06599973887205124, -0.0677066445350647, -0.0358215793967247, 0.032317791134119034, 0.0003602908691391349, 0.09109028428792953, 0.06481317430734634, -0.022664319723844528, 0.024984220042824745, 0.003282367717474699, -0.0011539905099198222, 0.0797882005572319, 0.07683880627155304, -0.0962686762213707, 0.050015054643154144, 0.09354368597269058, -0.006885571405291557, 0.18085218966007233, 0.0508350245654583, -0.1431792974472046, 0.002563236514106393, 0.029186123982071877, 0.0028549674898386, -0.06436894088983536], [0.07187313586473465, 0.11069945991039276, -0.023606102913618088, 0.0021401462145149708, -0.14842313528060913, -0.04691512510180473, -0.01918395236134529, -0.0020187068730592728, 0.18924593925476074, 0.0031693766359239817, -0.009394117631018162, 0.10529787093400955, 0.1995156705379486, 0.1025172621011734, -0.012982642278075218, 0.08081058412790298, 0.012206155806779861, -0.1283504068851471, -0.09512636810541153, -0.11759212613105774, 0.023486945778131485, 0.03730032593011856, -0.019439637660980225, -0.08007451891899109], [-0.010368665680289268, 0.3144511282444, 0.038008756935596466, -0.0025502690114080906, -0.10595618188381195, -0.10697229206562042, -0.07508405297994614, -0.007914727553725243, 0.15676800906658173, 0.005021141842007637, -0.030094625428318977, -0.042034149169921875, 0.11138509958982468, 0.22024200856685638, -0.00024133356055244803, 0.00887035857886076, 0.032508958131074905, -0.17551863193511963, 0.011198342777788639, 0.04387322813272476, 0.024446457624435425, -0.07331725209951401, -0.06552539020776749, 0.03461744263768196], [-0.04681864380836487, -0.08445067703723907, 0.05603385716676712, -0.013332104310393333, -0.008793759159743786, 0.021092506125569344, 0.030699247494339943, 0.006619990337640047, -0.13943830132484436, -0.0047060116194188595, 0.01373409852385521, -0.04459201171994209, -0.08393304795026779, -0.05626260116696358, 0.0035429764539003372, 0.01709027774631977, -0.007322485093027353, -0.0481252484023571, -0.0521320141851902, 0.05221756547689438, 0.08016525208950043, -0.043418485671281815, 0.025107907131314278, 0.0816282331943512], [-0.02064407989382744, -0.008915229700505733, -0.017050782218575478, 0.014649322256445885, -0.0204560998827219, 0.024584844708442688, 0.013483171351253986, -0.010723909363150597, 0.0191288311034441, 0.0017308874521404505, -0.0016068514669314027, 0.013977398164570332, 0.03401438146829605, -0.02151157334446907, 0.01789393089711666, 0.002475581830367446, -0.0020069596357643604, 0.06725204735994339, 0.033482566475868225, -0.02946493588387966, -0.025926971808075905, 0.012502479366958141, -0.004264417570084333, 0.01059661153703928], [-0.08895261585712433, 0.05312993749976158, -0.08971931040287018, -0.017134275287389755, 0.39407113194465637, 0.17779800295829773, 0.03632635995745659, 0.020670220255851746, 0.1295664757490158, 0.008794360794126987, -0.032601527869701385, 0.1893034279346466, 0.06981288641691208, 0.15329568088054657, -0.04707033187150955, 0.17162340879440308, 0.026816627010703087, -0.07664958387613297, -0.18107882142066956, 0.005737722385674715, -0.19650417566299438, 0.1031917929649353, 0.004891467280685902, -0.07733964174985886], [-0.11471523344516754, -0.12338381260633469, -0.02980954945087433, 0.01190374419093132, 0.2515258193016052, 0.09782089293003082, 0.05848437547683716, -0.00239342893473804, -0.011756105348467827, 0.0007333504036068916, 0.00240949634462595, 0.129736989736557, 0.003600646276026964, -0.06753735989332199, 0.02823779545724392, 0.08583193272352219, -0.007243986241519451, 0.021581415086984634, 0.09325115382671356, -0.25932568311691284, -0.031216155737638474, 0.01688939891755581, 0.005903101991862059, -0.055852483958005905], [-0.049817487597465515, -0.15016868710517883, -0.032979968935251236, 0.01799127832055092, 0.09493989497423172, 0.08891884237527847, 0.1116066724061966, -0.010651309043169022, 1.3468460565491114e-05, -0.0003140374319627881, 0.012621276080608368, 0.11990826576948166, -0.10442076623439789, -0.1335056722164154, 0.03897498548030853, 0.019846919924020767, -0.01510181650519371, 0.05726104974746704, 0.007353614550083876, -0.25829070806503296, 0.09263236075639725, 0.0001957328204298392, 0.02805381454527378, 0.0034161864314228296], [0.024811524897813797, 0.016250930726528168, 0.009175492450594902, -0.01085518766194582, 0.01645403355360031, -0.020892072468996048, -0.012467948719859123, 0.008729945868253708, -0.005982410628348589, -0.0009622501092962921, 0.0004226058954373002, -0.0005472940392792225, -0.025522815063595772, 0.01734430156648159, -0.015517884865403175, 0.01348576508462429, 0.0017179228598251939, -0.036886055022478104, -0.017682047560811043, 0.016600724309682846, 0.007722239475697279, -0.006776346825063229, 0.0023328824900090694, -0.017627587541937828], [0.1638561636209488, 0.24745480716228485, -0.05010589584708214, -0.0067999293096363544, -0.004485395736992359, -0.19289791584014893, -0.06990747898817062, 0.0005357973277568817, 0.05721388757228851, 0.0032899954821914434, -0.009691224433481693, -0.05045448616147041, 0.2293168157339096, 0.006492388900369406, -0.03582806885242462, -0.2550077736377716, -0.0001957245694939047, 0.002803016221150756, 0.027862198650836945, -0.2424006462097168, -0.1961362659931183, 0.023659124970436096, -0.022612756118178368, -0.03471652790904045], [0.00389153347350657, 0.008694147691130638, -0.005323078483343124, 0.0019155247136950493, -0.0007959844660945237, -0.002528073266148567, -0.0032255863770842552, -0.0011390030849725008, 0.01327365543693304, 0.0005649766535498202, -0.001716296304948628, 0.005710800178349018, 0.008633799850940704, 0.005195441655814648, 8.510977932019159e-05, -0.0006717018550261855, 0.0010096209589391947, 0.007303430233150721, 0.00513148820027709, -0.0031882089097052813, -0.00952153280377388, 0.0048540374264121056, -0.0034558651968836784, -0.0073400442488491535], [-0.029598252847790718, -0.04451712965965271, 0.019121767953038216, -0.0023014619946479797, -0.0008664653287269175, 0.02497563324868679, 0.02434246987104416, 0.0004833465500269085, -0.06147564575076103, -0.0019951947033405304, 0.00874602235853672, -0.007401970215141773, -0.0383673794567585, -0.07050397992134094, 0.008705809712409973, 0.010079148225486279, -0.007315258029848337, 0.012817041017115116, -0.003389590885490179, -0.007375150453299284, 0.03412159904837608, -0.020532693713903427, 0.018672624602913857, 0.04620412364602089], [0.18823081254959106, 0.14357958734035492, -0.03664273023605347, 0.009329965338110924, 0.028496388345956802, -0.13948361575603485, -0.12090566009283066, 0.012159137986600399, 0.28624504804611206, 0.006084395572543144, -0.017616532742977142, 0.18839217722415924, 0.20669147372245789, 0.02112879417836666, -0.10293110460042953, 0.2230941504240036, 0.013130759820342064, 0.11617663502693176, -0.07774093747138977, -0.14675378799438477, -0.1660599559545517, 0.04472169652581215, -0.021830152720212936, -0.15783865749835968], [0.027202866971492767, 0.18041695654392242, -0.050586771219968796, 0.009810836985707283, -0.1666187345981598, 0.025279365479946136, -0.05094088613986969, -0.002216438064351678, 0.23055678606033325, 0.00424178084358573, -0.013536845333874226, -0.028045209124684334, 0.30009639263153076, -0.0381326749920845, 0.0064270575530827045, -0.23364706337451935, 0.006432138849049807, 0.11038980633020401, 0.0071390485391020775, -0.034356798976659775, -0.0903337374329567, 0.02748459205031395, -0.07780711352825165, 0.11546768993139267], [0.04416744410991669, 0.30528172850608826, -0.013389823026955128, -0.01270683016628027, 0.12727956473827362, -0.08850076794624329, -0.1453818380832672, 0.022474104538559914, 0.07858944684267044, 0.0008879189845174551, 0.0058410074561834335, -0.19065366685390472, -0.06739744544029236, 0.33856627345085144, -0.036652468144893646, -0.01793428137898445, -0.005804979708045721, -0.18173927068710327, 0.16922003030776978, 0.20487752556800842, -0.05226445198059082, -0.09376390278339386, 0.013543178327381611, -0.016374094411730766], [-0.06912412494421005, -0.06651534140110016, -0.0035654811654239893, 0.016328372061252594, 0.022091222926974297, 0.0722210630774498, 0.0477636456489563, -0.013639131560921669, -0.04433486983180046, 0.0003547503729350865, 0.00531290378421545, 0.0009073583642020822, 0.0012256873305886984, -0.04466300085186958, 0.03620235249400139, -0.01564241573214531, -0.008959075435996056, 0.09712699055671692, 0.045112814754247665, -0.0768192782998085, 0.00910983793437481, -0.003174206940457225, 0.010912967845797539, 0.050659842789173126], [0.10763058811426163, 0.1337176114320755, 0.0057288785465061665, 0.01713591441512108, 0.01446906104683876, -0.0785793587565422, -0.006551543716341257, 0.00673550134524703, 0.12865497171878815, 0.002414526417851448, 0.0019464150536805391, 0.2707996666431427, 0.14393384754657745, -0.017614923417568207, -0.007924365811049938, 0.46076229214668274, 0.001971519785001874, 0.09737816452980042, -0.1418100893497467, -0.08832082897424698, 0.08574228733778, 0.033544860780239105, 0.03919139504432678, -0.18027205765247345], [0.03470277413725853, 0.04588203504681587, -0.011596609838306904, -0.001432594726793468, -0.02436085417866707, -0.032560139894485474, -0.02426495961844921, 0.001770610106177628, 0.05337604507803917, 0.0013726333854719996, -0.007767134346067905, 0.0056037334725260735, 0.041017383337020874, 0.05707279592752457, -0.012749488465487957, -0.007613957393914461, 0.007955402135848999, -0.064515620470047, -0.022176699712872505, 0.0075049009174108505, -0.011304671876132488, 0.01750047877430916, -0.017335765063762665, -0.041781093925237656], [-0.0047163511626422405, 0.16341890394687653, -0.09145011752843857, 0.0014517954550683498, 0.09042402356863022, 0.03938055410981178, -0.06602536886930466, -0.002073715440928936, 0.1189715638756752, 0.006374023854732513, -0.01047129649668932, 0.2648700177669525, -0.009257971309125423, 0.13662219047546387, -0.017202168703079224, 0.059434451162815094, -0.011102688498795033, 0.35710784792900085, 0.24794837832450867, 0.007873643189668655, -0.24545708298683167, 0.03554202616214752, -0.036101117730140686, -0.07576312124729156], [-0.13803882896900177, -0.04997776448726654, -0.08053271472454071, 0.05238329619169235, 0.19846633076667786, 0.09233294427394867, -0.004342543426901102, -0.0019226251170039177, -0.025480955839157104, 0.005737552419304848, -0.007000722456723452, -0.05516495555639267, -0.09165094792842865, 0.1258564442396164, 0.03711891546845436, 0.07902320474386215, -0.03218260407447815, 0.08190374076366425, 0.4018447697162628, 0.015926050022244453, -0.16892652213573456, -0.024197177961468697, 0.026090484112501144, -0.03712709620594978], [-0.12231787294149399, -0.11648498475551605, 0.058440547436475754, -0.03266625851392746, 0.044397369027137756, -0.09963838011026382, 0.07057955861091614, -0.010210132226347923, -0.015011722221970558, -0.006102785933762789, -0.0008660479797981679, -0.3890700936317444, 0.04123032093048096, 0.0013801893219351768, -0.03771461546421051, -0.3277303874492645, 0.012409591116011143, -0.07743626087903976, 0.1587875336408615, 0.3546716868877411, 0.15392518043518066, -0.02664899080991745, -0.018751151859760284, 0.05998965725302696], [-0.053267184644937515, -0.13640199601650238, 0.04403137043118477, 0.001731599448248744, 0.07385414838790894, 0.07145477086305618, 0.10866151750087738, -0.006141957361251116, -0.07732223719358444, -0.003516242839396, 0.020846668630838394, -0.008288494311273098, -0.08193802088499069, -0.18939779698848724, 0.022122997790575027, 0.23028182983398438, -0.012431875802576542, 0.048006076365709305, -0.0999264270067215, -0.07563190907239914, 0.27685490250587463, -0.024754514917731285, 0.04031903296709061, -0.009992728941142559], [0.07387575507164001, 0.09650404751300812, -0.04942990839481354, 0.008848065510392189, 0.004794545006006956, -0.039001334458589554, -0.03300508111715317, -0.003624470205977559, 0.14126409590244293, 0.004609566647559404, -0.015882080420851707, 0.0652751475572586, 0.10294415801763535, 0.06584593653678894, -0.013704324141144753, 0.0024205835070461035, 0.01239254791289568, -0.027558768168091774, -0.022899148985743523, -0.05772951617836952, -0.05831662937998772, 0.05095487833023071, -0.029394077137112617, -0.10061251372098923], [-0.05424414202570915, -0.043560873717069626, 0.026943381875753403, -0.0023647015914320946, 0.13695797324180603, 0.0461965873837471, 0.034834519028663635, 0.0018273101886734366, -0.12121927738189697, -0.003532812697812915, 0.01599649339914322, 0.045035094022750854, -0.20228734612464905, -0.12141066789627075, 0.013182394206523895, 0.10044217854738235, -0.013638916425406933, -0.009961708448827267, 0.002315644873306155, -0.028117710724473, 0.05684436112642288, -0.03188575804233551, 0.040783390402793884, 0.051552221179008484], [-0.1794789582490921, -0.10913031548261642, 0.05009549856185913, 0.011174735613167286, -0.034481462091207504, 0.0545598603785038, 0.05224134400486946, -0.009135669097304344, -0.2518153190612793, -0.004079077858477831, 0.030449548736214638, -0.12494747340679169, -0.2286444455385208, -0.14232519268989563, 0.019528895616531372, -0.1659216433763504, -0.028422905132174492, -0.051677901297807693, 0.008662319742143154, 0.13435743749141693, -0.025023657828569412, -0.05505780503153801, 0.0451526865363121, 0.29739615321159363], [-0.08639058470726013, -0.08549828827381134, -0.006362035870552063, 0.019074169918894768, 0.0462518110871315, 0.11039718985557556, 0.0392475351691246, -0.016156811267137527, -0.033037781715393066, 0.0004864102229475975, 0.0028473148122429848, -0.03902914747595787, -0.013510040007531643, -0.010276545770466328, 0.04767531156539917, -0.04103001952171326, -0.007474170532077551, 0.11153300851583481, 0.060452256351709366, -0.0320814773440361, 0.0015303087420761585, 0.0014470141613855958, 0.007827192544937134, 0.06377069652080536], [-0.0795326828956604, 0.01663653366267681, -0.028950238600373268, 0.025511905550956726, -0.01975373364984989, 0.05653658136725426, 0.0027981852181255817, -0.01886819861829281, 0.06155591085553169, 0.003511854913085699, -0.008391357958316803, 0.034272611141204834, 0.07153472304344177, 0.08046165108680725, 0.03375586122274399, -0.0442439503967762, -5.2214461902622133e-05, 0.16615700721740723, 0.07596324384212494, 0.052468739449977875, -0.11558140814304352, 0.028321845456957817, -0.015787921845912933, 0.051046617329120636], [-0.0006032652454450727, 0.01057038176804781, -0.012467541731894016, 0.007891716435551643, -0.01209307461977005, 0.005486436653882265, 0.0026665320619940758, -0.005191581789404154, 0.028474021703004837, 0.0014574152883142233, -0.0035064450930804014, 0.019866056740283966, 0.030839452520012856, 0.006827905308455229, 0.00598160270601511, 0.0052717989310622215, 0.0013987362617626786, 0.03353368490934372, 0.013131510466337204, -0.020909618586301804, -0.02722470834851265, 0.012677694670855999, -0.007621405646204948, -0.009897402487695217], [-0.002928789472207427, -0.0010843684431165457, -0.0029234900139272213, 0.0023342929780483246, -0.003803730709478259, 0.0034394862595945597, 0.0022045923396945, -0.0017271711258217692, 0.003839260432869196, 0.00027299553039483726, -0.00022932954016141593, 0.0021877428516745567, 0.0060638985596597195, -0.0044551207683980465, 0.0028044278733432293, -0.00011910612374776974, -0.0002941313141491264, 0.009978650137782097, 0.0043443613685667515, -0.004930978640913963, -0.003548968583345413, 0.0020712115801870823, -0.0006631390424445271, 0.0016622412949800491], [-0.06706370413303375, -0.03390224277973175, -0.012520351447165012, 0.0173660796135664, 0.11543451994657516, 0.05649113282561302, 0.02599279209971428, -0.014932114630937576, 0.0090348981320858, 0.0013389678206294775, 0.00013988272985443473, -0.006005201954394579, -0.029717328026890755, 0.012392714619636536, 0.03942969813942909, 0.0350310392677784, -0.0035584017168730497, 0.0629803016781807, 0.005331631749868393, -0.06633470952510834, 0.03282398357987404, 0.012805180624127388, 0.006133174058049917, 0.01136097777634859], [-0.10769177973270416, -0.06552837044000626, -0.00230206991545856, 0.014746828936040401, 0.04348910599946976, 0.07156242430210114, 0.01292698085308075, -0.013781088404357433, -0.027104875072836876, 0.00040719317621551454, 0.0008092497591860592, -0.032863784581422806, -0.02097884751856327, 0.027062593027949333, 0.035506103187799454, -0.05415700748562813, -0.004538409877568483, 0.06550633162260056, 0.05714646354317665, 0.048307131975889206, -0.0068801166489720345, 0.0012902917806059122, 0.004462606739252806, 0.0656762644648552], [-0.031164053827524185, 0.0005051637417636812, -0.004265600815415382, 0.009864685125648975, -0.004608308896422386, 0.010257289744913578, -0.007728729862719774, -0.008419543504714966, 0.004066597204655409, 0.0009520694729872048, -0.0017918286612257361, -0.012982078827917576, 0.015722474083304405, 0.04020686820149422, 0.011741268448531628, -0.046270702034235, -0.0007232363568618894, 0.029179146513342857, 0.03125019371509552, 0.06740045547485352, -0.030150718986988068, 0.005630388390272856, -0.005832348484545946, 0.04378730058670044], [-0.003315138863399625, -0.002564183669164777, -0.0009759077220223844, 0.0012888702331110835, -0.002041411818936467, 0.0028567989356815815, 0.0018357299268245697, -0.0010621655965223908, 0.00036401464603841305, 8.811993757262826e-05, 4.821713446290232e-05, -0.00044333876576274633, 0.0031127508264034986, -0.0025271563790738583, 0.0020066110882908106, -0.0017474428750574589, -0.00027844650321640074, 0.00485273078083992, 0.0021865309681743383, -0.002252524485811591, -0.00017043872503563762, 0.0006012095836922526, -0.00011176672705914825, 0.0024154677521437407], [-0.029469603672623634, 0.06453539431095123, -0.05109543353319168, 0.0278468020260334, -0.08287671208381653, 0.03449530526995659, 0.0012886926997452974, -0.019670678302645683, 0.20057302713394165, 0.0048685274086892605, -0.013510165736079216, 0.09864632785320282, 0.09375172853469849, 0.08266536146402359, 0.029170287773013115, 0.04172782227396965, 0.005906496196985245, 0.06563330441713333, 0.02835138887166977, -0.08486779034137726, -0.07262653112411499, 0.05360620096325874, -0.025479631498456, -0.023071208968758583], [5.1302555220900103e-05, 0.00025995203759521246, -0.00015896200784482062, 7.481841748813167e-05, -0.00018697325140237808, -1.872451503004413e-05, -4.19265816162806e-05, -4.7451216232730076e-05, 0.0003704712726175785, 1.7269552699872293e-05, -4.638021709979512e-05, 0.00019337167032063007, 0.0003247358254157007, 0.00014876615023240447, 3.255828414694406e-05, 6.198108167154714e-05, 2.5274513973272406e-05, 0.00032450578873977065, 0.00011588290362851694, -9.881571168079972e-05, -0.0002529759658500552, 0.00014683454355690628, -9.901170415105298e-05, -0.0001485657849116251], [-0.0005108735640533268, 0.0032562457490712404, -0.0020432535093277693, 0.0011630383087322116, -0.002894381992518902, 0.00015029976202640682, -0.0006953396368771791, -0.0008062165579758584, 0.004143713042140007, 0.0002158287970814854, -0.000572362681850791, 0.0016088637057691813, 0.004140384960919619, 0.0030030629131942987, 0.0007651495980098844, 0.0003635540488176048, 0.0002699205942917615, 0.004716547671705484, 0.002107393927872181, 0.0014981909189373255, -0.003213588148355484, 0.0018290758598595858, -0.0012294541811570525, -0.00014735475997440517], [-0.01997975818812847, -0.014669438824057579, -0.027174852788448334, 0.02430788427591324, -0.05057200789451599, 0.030638519674539566, 0.02624884620308876, -0.01719377003610134, 0.06706397235393524, 0.0032888560090214014, -0.005608700681477785, 0.036754705011844635, 0.0952572301030159, -0.04584242030978203, 0.026149628683924675, -0.0001943571405718103, 0.0008043595007620752, 0.08976790308952332, 0.038695089519023895, -0.03860856592655182, -0.059057656675577164, 0.028452415019273758, -0.016835371032357216, -0.005774401128292084], [-0.012380152009427547, 0.04627247899770737, -0.042233794927597046, 0.022866565734148026, 0.043726444244384766, 0.02039291337132454, -0.006426679901778698, -0.014981579966843128, 0.13457323610782623, 0.004546510986983776, -0.011906687170267105, 0.06260278075933456, 0.0039060553535819054, 0.06264624744653702, 0.02541312947869301, 0.03455261513590813, 0.004597952589392662, 0.07132723927497864, 0.04913659393787384, -0.15140262246131897, -0.05481356382369995, 0.043627262115478516, -0.01681932993233204, -0.034662142395973206], [-0.037166159600019455, 0.03677813708782196, -0.026838859543204308, 0.01924934610724449, -0.09845646470785141, 0.010260413400828838, -0.02167126163840294, -0.016186879947781563, 0.09221703559160233, 0.0032055533956736326, -0.0051234508864581585, -0.02123614028096199, 0.10698985308408737, 0.11397308111190796, 0.01754656247794628, -0.12522007524967194, -0.0007774917758069932, 0.07913239300251007, 0.027627097442746162, 0.11353214830160141, -0.1189921647310257, 0.019370002672076225, -0.02282518707215786, 0.1148592084646225], [-0.024398665875196457, -0.023113172501325607, -0.000881511252373457, 0.005729501601308584, -0.00283246417529881, 0.02070610038936138, 0.011936388909816742, -0.005095272324979305, -0.011642989702522755, 5.808892456116155e-05, 0.0013436628505587578, -0.006231405306607485, 0.004822613205760717, -0.011606068350374699, 0.0117784533649683, -0.005590078886598349, -0.002297316212207079, 0.025345630943775177, 0.010753464885056019, -0.004919318947941065, 0.004287203308194876, -0.0005370939616113901, 0.0026563769206404686, 0.01864260621368885], [-0.06674406677484512, -0.04908977076411247, -0.02860025130212307, 0.03065454214811325, -0.03375483304262161, 0.069880411028862, 0.04910251125693321, -0.024365641176700592, 0.02818426862359047, 0.0027265565004199743, -0.0018033457454293966, 0.01401382777839899, 0.10110420733690262, -0.09655973315238953, 0.045948248356580734, -0.024369660764932632, -0.003119437722489238, 0.09609396010637283, 0.05809005722403526, -0.07809535413980484, -0.020209752023220062, 0.025170553475618362, -0.005491579882800579, 0.021804217249155045], [-0.001902407268062234, 0.00036638783058151603, -0.0013441054616123438, 0.0011407745769247413, -0.001679253880865872, 0.0014948435127735138, 0.0003913997788913548, -0.0008677435107529163, 0.0019269351614639163, 0.0001380234898533672, -0.00023417257762048393, 0.0007483166409656405, 0.0025847621727734804, 0.00028414398548193276, 0.0012902177404612303, 0.00012658540799748152, -1.7055364878615364e-05, 0.004530179314315319, 0.002119084820151329, 0.0015030124923214316, -0.002054874086752534, 0.0010940269567072392, -0.0004441447090357542, 0.0017039701342582703], [-0.07774195075035095, -0.07253052294254303, -0.0269326139241457, 0.03259878605604172, -0.025690628215670586, 0.07446842640638351, 0.05641291290521622, -0.025448860600590706, 0.05668897554278374, 0.0029207011684775352, 0.0010010821279138327, 0.017613647505640984, 0.06555194407701492, -0.12406995892524719, 0.051615092903375626, -0.02552671730518341, -0.007950573228299618, 0.14714287221431732, 0.06074635684490204, -0.08071057498455048, -0.03448881581425667, 0.018348220735788345, -0.0003930221137125045, 0.05687344819307327], [-0.07233710587024689, -0.06794296205043793, -0.013331303372979164, 0.02165965922176838, -0.041671350598335266, 0.054079629480838776, 0.027504945173859596, -0.018425969406962395, 0.0014135231031104922, 0.0012062879977747798, 0.0031842896714806557, -0.04052560031414032, 0.04938118904829025, -0.07740936428308487, 0.037271540611982346, -0.06837819516658783, -0.0069983829744160175, 0.07723957300186157, 0.0646108090877533, 0.004298822954297066, 0.0019171001622453332, 0.004399159457534552, -0.0002601431042421609, 0.06646723300218582], [-0.04671427607536316, -0.05537470430135727, -0.03915037587285042, 0.030940068885684013, -0.00861357618123293, 0.07243921607732773, 0.056703075766563416, -0.021901896223425865, 0.061452716588974, 0.0034869431983679533, -0.0014340466586872935, 0.04244139790534973, 0.11345339566469193, -0.08758381754159927, 0.046710532158613205, 0.012445876374840736, -0.006034794729202986, 0.1583162397146225, 0.0703670084476471, -0.15440675616264343, -0.010978195816278458, 0.028539078310132027, -0.0016453906428068876, 0.006169410888105631], [0.020326314494013786, 0.09716294705867767, -0.04162638634443283, 0.017787033692002296, -0.10040304064750671, -0.03461918607354164, -0.028908172622323036, -0.01177664939314127, 0.1104440987110138, 0.004133649170398712, -0.010844891890883446, 0.015471001155674458, 0.089712955057621, 0.025018202140927315, 0.0016199636738747358, -0.027578720822930336, 0.007161298766732216, 0.047814130783081055, 0.0032995068468153477, 0.07212737947702408, -0.0920594111084938, 0.03603217005729675, -0.031109333038330078, 0.019286876544356346], [0.0028153846506029367, 0.011478016152977943, -0.012653716839849949, 0.00699020316824317, -0.01711316779255867, 0.002523924922570586, 0.00032558711245656013, -0.004642686806619167, 0.02971283346414566, 0.0013514619786292315, -0.0035094795748591423, 0.01576988585293293, 0.029104316607117653, 0.00823144894093275, 0.0044411239214241505, 0.012082735076546669, 0.0019271434284746647, 0.021943075582385063, 0.006739967968314886, -0.008786700665950775, -0.022725926712155342, 0.012588819488883018, -0.007334656547755003, -0.010996389202773571], [-0.004115445539355278, 0.01157746184617281, -0.007959299720823765, 0.00441889651119709, -0.006169266998767853, 0.0006132659036666155, -0.00534189585596323, -0.0031753075309097767, 0.013118359260261059, 0.0007891298737376928, -0.0022466308437287807, 0.0018457624828442931, 0.01282308716326952, 0.02160523273050785, 0.003255703719332814, 0.0037803873419761658, 0.0010289030615240335, 0.014266423881053925, 0.010950191877782345, 0.009923098608851433, -0.008142407983541489, 0.006852943450212479, -0.003713273908942938, 0.0014345268718898296], [-0.05521106719970703, -0.03483517840504646, -0.027603358030319214, 0.02668805792927742, -0.02362554520368576, 0.0693259909749031, 0.050198622047901154, -0.019466044381260872, 0.02587011270225048, 0.0026298537850379944, -0.0007883337093517184, 0.04084993526339531, 0.05860060825943947, -0.06797201186418533, 0.039720337837934494, 0.04084015637636185, -0.005206623580306768, 0.1347418874502182, 0.04298720136284828, -0.07628816366195679, -0.012668156065046787, 0.021847499534487724, -0.0004363145853858441, -0.006734936963766813]], "rec.bias_ih_l0": [0.006857605185359716, 0.0168584194034338, 0.047106411308050156, 0.014799397438764572, 0.002241645473986864, 0.11858031153678894, 0.06007688120007515, 0.008822963573038578, 0.08320102840662003, 0.0005543283186852932, 0.009600259363651276, 0.11837741732597351, 0.09852856397628784, 0.03719098120927811, 0.034873876720666885, 0.16166073083877563, 0.009248461574316025, 0.15601778030395508, 0.10677646100521088, 0.14716120064258575, 0.09756800532341003, 0.050208721309900284, 0.03991571441292763, 0.1361793875694275, 0.1146705150604248, 0.34538978338241577, 0.056718531996011734, 0.015289543196558952, 0.4427582919597626, 0.10803859680891037, 0.1033083125948906, 0.009006787091493607, 0.36114993691444397, 0.0005663828342221677, 0.008792879059910774, 0.18616682291030884, 0.24854877591133118, 0.3060607612133026, 0.04213585704565048, 0.3280123770236969, 0.007925708778202534, 0.36073538661003113, 0.3408360481262207, 0.38674700260162354, 0.266185462474823, 0.05432313680648804, 0.045334916561841965, 0.23372085392475128, -0.1547853946685791, -0.1709400862455368, -0.08878396451473236, 0.07757898420095444, -0.13130685687065125, 0.06010470911860466, 0.032413698732852936, -0.06611829996109009, 0.23531098663806915, 0.009234313853085041, -0.005215569399297237, 0.07207849621772766, 0.2765507102012634, -0.11074398458003998, 0.06638488918542862, 0.008650745265185833, 0.014131031930446625, 0.22560736536979675, 0.13478341698646545, 0.00033222627826035023, -0.07047094404697418, 0.07202890515327454, 0.04456187039613724, 0.10478585958480835, 0.11278539150953293, 0.22340825200080872, 0.05366644263267517, 0.015454701147973537, 0.1717849224805832, 0.05859597027301788, 0.06154764071106911, 0.009065208025276661, 0.20331908762454987, 0.0005540939746424556, 0.009789220988750458, 0.19008666276931763, 0.19461695849895477, 0.13102300465106964, 0.04119454696774483, 0.23762443661689758, 0.009366855956614017, 0.2535603940486908, 0.17061029374599457, 0.20936591923236847, 0.18295010924339294, 0.05696185305714607, 0.04529270529747009, 0.17743583023548126], "rec.bias_hh_l0": [0.035803962498903275, 0.05982227250933647, 0.04710641875863075, 0.014799398370087147, 0.035582274198532104, 0.05022100359201431, 0.0564008392393589, 0.008822962641716003, 0.1076807826757431, 0.000554328435100615, 0.009600258432328701, 0.1153811439871788, -0.02121048793196678, 0.024205846711993217, 0.03483588248491287, 0.16853202879428864, 0.00924846064299345, 0.1423843502998352, 0.1058259978890419, 0.1376883089542389, 0.09731154888868332, 0.05020872876048088, 0.039853401482105255, 0.1357198804616928, 0.2029435783624649, 0.3868415355682373, 0.05671851709485054, 0.015289544127881527, 0.45819026231765747, 0.11132418364286423, 0.10077885538339615, 0.00900678988546133, 0.2950000762939453, 0.0005663827178068459, 0.008792877197265625, 0.20863932371139526, 0.36991265416145325, 0.2623470723628998, 0.041996076703071594, 0.3342244029045105, 0.007925706915557384, 0.3201851546764374, 0.32208505272865295, 0.3844308853149414, 0.2610081732273102, 0.05432314798235893, 0.04724164307117462, 0.22839154303073883, -0.10140091180801392, -0.013669793494045734, -0.06948961317539215, 0.081855908036232, -0.11270341277122498, 0.05771812051534653, 0.14113391935825348, -0.06744679063558578, -0.09584424644708633, 0.008926968090236187, -0.029617514461278915, -0.08690746873617172, 0.09423363208770752, -0.13746006786823273, 0.10852469503879547, -0.15069404244422913, 0.001008112565614283, 0.014697222970426083, -0.023902207612991333, -0.15557745099067688, 0.07798228412866592, 0.1019853949546814, -0.030117880553007126, 0.09772562980651855, 0.07574520260095596, 0.24728147685527802, 0.05366644263267517, 0.015454699285328388, 0.2727774381637573, 0.08726323395967484, 0.06237322837114334, 0.00906520988792181, 0.23271259665489197, 0.0005540938000194728, 0.009789219126105309, 0.19200736284255981, 0.2744791507720947, 0.09149034321308136, 0.04127073660492897, 0.23519830405712128, 0.009366855956614017, 0.25611722469329834, 0.19511839747428894, 0.27081942558288574, 0.18296535313129425, 0.05696184188127518, 0.04509175196290016, 0.17622330784797668], "lin.weight": [[-0.32473352551460266, -0.40111684799194336, 0.18764403462409973, -0.003774487879127264, 0.30460405349731445, 0.3034423589706421, 0.2675301432609558, -0.002821386093273759, -0.5190170407295227, -0.01592240482568741, 0.11325857043266296, -0.21994273364543915, -0.3763408660888672, -0.44173070788383484, 0.09826318174600601, -0.1896154284477234, -0.11539939045906067, 0.09575702995061874, 0.13670159876346588, 0.08235727995634079, 0.3451186716556549, -0.25658872723579407, 0.26049065589904785, 0.3563849627971649]], "lin.bias": [-0.057484183460474014]}}